126 64
41 0.043566782 0.048877876 -0.03828859 0.017267225 0.04069041 0.0048982133 -0.043187805 0.073300734 -0.112589926 -0.042318624 0.069242485 -0.058348455 0.0012365746 0.03355141 0.059053943 0.049741536 0.44001502 0.20856775 0.87433726 0.7656826 0.9463198 0.8434476 0.7223572 -0.6999669 0.5645317 0.3339582 -0.1925297 -0.044725798 0.31226376 0.2827393 -0.10543535 0.36884084 -0.015673427 -0.060596947 -0.038052276 0.05875092 -0.069644384 -0.022554507 -0.0005741204 -0.033023193 0.012300847 0.05369691 0.03595667 0.027067604 -0.026541444 -0.028252393 0.04108392 -0.03894429 0.035517234 -0.029739924 0.0354207 0.044480294 0.006471737 -0.016752854 -0.009531032 0.049653348 0.016484298 -0.008874023 -0.030745292 0.030947326 -0.07536341 -0.13293214 0.014262375 -0.0042469436
112 0.083355166 -0.0443304 -0.0056037484 -0.01909872 -0.014257233 -0.013768299 -0.06324345 0.04349142 -0.04042121 -0.028774638 -0.041547906 0.046609003 -0.014772107 0.06079419 -0.052824263 0.013971875 0.4900225 0.21139617 0.82750595 0.81669724 0.89860755 0.8475785 0.7394558 -0.6376424 0.5468479 0.32368782 -0.19230083 -0.21742995 0.23471242 0.36285517 -0.1374514 0.42868474 0.102746174 0.0029607133 0.050109748 -0.06936736 0.029031929 -0.023590997 -0.03603696 -0.0068157814 -0.059837747 -0.013655036 -0.013982248 -7.892785e-05 -0.07201714 -0.07052866 -0.058442507 -0.061053947 0.013668318 -0.026657907 -0.09092173 0.013979225 0.061433826 -0.021566227 -0.0039023915 0.047788825 0.01443956 0.055879585 0.029378807 0.016833486 0.017405873 -0.036733966 0.022341635 -0.019113556
123 -0.019749803 -0.03333497 0.065519445 0.0753356 -0.0196804 0.008331195 0.0060039596 -0.048193384 -0.065880276 -0.0031537965 0.05309388 -0.0625347 -0.05110665 -0.036022395 -0.11450293 -0.002214498 0.47282493 0.19243892 0.81834316 0.7604092 0.89217526 0.90289426 0.69791377 -0.7586759 0.55514586 0.33204347 -0.15822065 -0.116727 0.27481887 0.40509167 -0.07001436 0.33138502 0.02557845 -0.012845171 0.08213172 0.00023001646 0.038313318 0.0061773323 0.0014223038 0.052800998 0.06516853 0.07049019 -0.09510408 -0.064106554 0.06679187 -0.0133122895 -0.06493035 -0.051305156 -0.07230558 0.112917095 0.12304432 0.030561088 0.026168557 0.0209234 0.001607736 -0.048621226 0.022311222 -0.056391157 0.095183164 0.016787723 -0.10114483 0.01750479 -0.049326 -0.027178794
67 0.03338792 -0.018138932 -0.016247952 0.062826015 -0.011789759 -0.003893646 0.0013139028 -0.009489625 -0.018655665 0.04053804 -0.023551157 0.059856217 -0.07302746 -0.04967303 0.061529167 -0.088017195 0.6428313 0.17336512 0.7810863 0.7178403 0.87590635 0.80927706 0.85704696 -0.75412345 0.5221398 0.2465713 -0.15083966 -0.124061525 0.27674943 0.23024458 -0.1017303 0.44474137 0.044800643 -0.0096905995 0.036164377 0.0059250626 -0.057438523 -0.004764985 0.019946424 0.056205604 0.061768416 0.052205868 -0.021824632 -0.09320795 -0.06601098 -0.0028051375 0.07006616 -0.0010784132 -0.008051635 0.026074987 -0.024254894 -0.020900702 0.018961074 -0.040490534 0.025879376 0.047890734 0.007812111 -0.034281846 -0.016872454 0.004617281 0.0076537295 -0.020503808 -0.04045602 0.040125865
7 -0.061044365 0.06275563 0.05984409 0.009431109 0.06913859 -0.010509191 0.0073154164 -0.022774814 0.027351342 -0.054433644 0.062139053 -0.06833633 -0.08007957 0.008123262 0.02042258 -0.016387451 0.54529274 0.13179538 0.8473211 0.81475115 0.8634801 0.7832519 0.8158925 -0.66066146 0.56413794 0.32403037 -0.25924 -0.15314728 0.29388806 0.2962377 -0.024400475 0.37754914 0.054700956 -0.072880186 0.043669358 -0.033185758 0.014898308 -0.04332736 -0.009943592 -0.01102463 0.009509857 0.037867177 0.052563805 -0.06565708 0.09163393 -0.0028326612 -0.01598888 -0.023214698 -0.015703531 -0.00900746 0.0071516274 -0.072049685 -0.0013005694 -0.03171925 -0.028967638 0.023071405 -0.051449463 0.03592926 -0.041014716 -0.04081085 -0.031310253 0.03039553 -0.0072323005 -0.031911388
102 -0.059911 -0.03104246 -0.058696438 -0.10982074 0.027365923 -0.06860838 -0.06834386 0.040560443 0.06472587 -0.011585026 0.04587411 -0.02598978 0.018424565 0.04845943 -0.031658188 -0.019610697 0.5704772 0.24956918 0.8127554 0.84327555 0.85547346 0.7744691 0.8446189 -0.7571895 0.4780717 0.22995298 -0.1446639 -0.1016706 0.27391234 0.2991441 -0.06272668 0.35045785 0.114892885 0.028019145 0.027468156 0.013836393 -0.03388876 -0.011290201 -0.01657127 -0.03975493 -0.08611323 0.056118887 -0.011466665 -0.036092266 0.05336967 0.031195767 -0.0015004871 -0.030955162 -0.056592926 0.021343583 0.011045474 0.021690624 0.00028851494 -0.08776094 0.03698143 0.06255641 0.033826098 0.14593214 -0.019007565 0.037843034 -0.022893883 0.006354925 -0.062437356 -0.014462297
49 -0.019461146 0.011488736 0.00482468 -0.012915468 -0.013955255 -0.0043628225 -0.056446172 -0.07616174 -0.064618066 -0.05326964 -0.0013003316 -0.066353455 0.035803836 0.062180478 -0.00020416928 -0.011122325 0.5389912 0.23916475 0.9002507 0.7663084 0.8200093 0.7801697 0.8124559 -0.7271729 0.4455176 0.3438293 -0.1744646 -0.16696545 0.30275458 0.34754953 -0.15708269 0.4137856 0.01648415 0.06586117 0.03727248 0.0849547 0.011496755 0.0084996335 0.07162695 -0.027242284 0.01433053 0.030932453 0.020741904 0.033643883 -0.031477652 -0.053699665 0.012900195 0.057622913 -0.078454696 0.080617666 -0.045485973 0.03932001 -0.03705073 0.022099342 -0.034193814 0.020871516 0.015583647 -0.030246675 -0.017363686 -0.00021381999 -0.07204346 0.09242174 -0.02751609 0.043965746
17 0.105338246 0.0040905 0.001224799 0.0018077074 -0.0036016353 -0.027108116 0.0038979673 -0.028133415 -0.065933235 0.047346532 0.024515415 -0.020057697 -0.0050397813 -0.014520154 0.005092014 -0.03790722 0.5360151 0.14126767 0.7792148 0.79710406 0.939892 0.7538486 0.7898114 -0.72740304 0.590179 0.27997816 -0.1787738 0.00987348 0.28053105 0.3432649 -0.06606858 0.43582475 0.029542772 0.03378912 -0.029855195 -0.01599833 0.013245952 -0.04387466 -0.01624822 -0.03433678 -0.05472747 0.04052963 -0.053966384 0.054593943 0.07837772 -0.021835981 -0.07048056 0.0060404097 0.03183634 -0.0679136 -0.07396532 0.020603962 -0.0517454 -0.021615358 -0.057730097 -0.021878066 0.008372029 -0.017760022 -0.07086509 -0.09414606 -0.10197007 -0.03571547 -0.036390588 -0.018787643
89 -0.018843392 -0.08665582 -0.053990625 0.012771157 -0.06429246 0.019172795 -0.027699068 0.028870255 -0.0061246026 0.10562716 0.07289365 -0.06283618 0.012629566 0.0414797 0.05316563 -0.007474962 0.42272457 0.23681408 0.8086888 0.771943 0.85990894 0.88017356 0.7895913 -0.7757872 0.5243021 0.24802329 -0.113494836 -0.11138712 0.2784411 0.3427997 -0.16103245 0.4268479 -0.061472435 -0.049057983 0.056265626 -0.023347035 0.00931692 -0.015827386 0.03322835 -0.05140956 0.03868304 0.0492253 -0.021274183 -0.06584799 0.008350693 -0.014852407 0.064913854 -0.044810697 -0.11910846 -0.014975365 -0.0335392 0.0026605597 -0.037535686 0.0913471 -0.025118595 -0.035927523 -0.03173963 0.010069696 -0.13790593 0.0012380849 -0.052333403 0.0027840124 0.016444882 -0.013831292
28 -0.06282903 -0.024178497 0.038595285 0.0062633143 0.114357494 -0.046038408 -0.0126594985 0.06311808 0.04057119 -0.023584124 0.081907175 0.093655124 -0.031824183 -0.068299614 0.022456292 -0.045282695 0.44530857 0.23389158 0.76733565 0.8811259 0.84122366 0.8979989 0.7704904 -0.6585987 0.5264376 0.36219227 -0.18115935 -0.09808077 0.29512677 0.27356982 -0.117489725 0.45464763 0.005251152 0.055235162 -0.005071209 -0.01185167 0.0051709693 0.027106129 -0.002615644 0.049232762 -0.08079703 0.12323777 -0.016203212 -0.05356367 0.0063609225 -0.022290796 0.022301102 -0.0632288 0.008784995 -0.0053655063 -0.010325785 -0.07140698 0.0067233383 -0.031291213 -0.07685034 0.081304684 0.07360958 -0.057045024 0.035749704 -0.06327526 0.01654405 0.061416768 -0.077262044 0.016133334
32 -0.04131377 -0.07153957 -0.08354959 0.06043915 -0.02335993 0.0147524085 -0.0056759017 -0.007497933 0.038414106 0.019777587 0.086967744 0.05588176 0.033148028 -0.05855726 0.013484823 0.010083328 0.57073563 0.20307063 0.8068715 0.66047555 0.80840254 0.92706066 0.8519377 -0.8085288 0.45529675 0.29624358 -0.19496514 -0.109042026 0.33607706 0.2955258 -0.029323725 0.35909522 0.008342893 0.052805323 -0.00701577 0.036024954 0.0011086859 -0.1147411 -0.042467117 0.021841155 0.053711575 -0.017569378 -0.042302333 -0.019637542 -0.083769865 0.027472664 -0.0351981 -0.027032372 0.08923349 0.005718457 0.008844147 -0.045482457 -0.045495298 0.090999424 -0.09856958 -0.0049192063 -0.049353767 -0.04257976 0.0052857595 -0.018908055 0.019875366 -0.0050040963 0.014213717 0.07266424
65 -0.018655326 -0.08463 -0.0834237 -0.004301938 0.011871738 0.03881965 0.0771754 0.023324152 -0.054063592 -0.031658776 -0.044795375 0.026483042 0.12294211 -0.013681374 0.020543318 0.078766316 0.52557766 0.21577933 0.85063285 0.7627356 0.8725516 0.86136186 0.75869805 -0.76609963 0.515196 0.39010465 -0.13592486 -0.15632333 0.16665906 0.2709447 -0.042235598 0.35233375 0.10543416 0.0034828396 0.034100734 -0.10678028 0.046680763 0.13244498 -0.035221856 -0.056575775 0.026280398 0.044943318 0.050935693 -0.09967779 0.07095514 -0.025644206 -0.13027482 -0.030985318 0.016725762 0.007479724 -0.028736508 0.018020166 -0.08689592 0.022766737 0.022079216 -0.059097935 -0.09982895 -0.01814598 -0.04432073 0.031637713 -0.020304374 0.006583225 0.0139817735 0.012212191
103 0.051826213 -0.042067736 -0.052177615 -0.07571202 -0.040824335 0.15606573 0.020903477 -0.0023854328 -0.0313105 -0.033963867 -0.066092916 -0.011446263 0.035993658 0.089566104 -0.026323674 -0.049096514 0.4419001 0.102056704 0.7469174 0.81735843 0.8896979 0.8914673 0.83314264 -0.7016707 0.5680395 0.21637103 -0.18411343 -0.08551954 0.38273123 0.2772294 -0.009034658 0.42860243 -0.046569142 -0.0137756895 0.008245374 -0.033609007 -0.022642415 0.00756031 0.0786776 -0.012898539 0.054401156 0.011735511 -0.057321828 -0.095891155 0.056968696 0.06806147 -0.0018393856 0.052421086 0.019321773 -0.046033558 0.03906609 -0.0765133 0.03486228 -0.038762465 -0.008639633 0.03499287 0.03322365 -0.03989367 4.7855632e-05 -0.015627531 -0.024161942 0.009814119 -0.029023366 0.0054743667
19 0.015323768 0.022470083 0.022719607 -0.019578515 -0.013070326 -0.047442913 -0.011115535 -0.098316036 0.02792166 -0.012687409 0.00094387215 0.016185427 0.03516677 -0.037889626 -0.010662713 -0.04666544 0.5123502 0.15002282 0.8671932 0.82804227 0.92823917 0.81263405 0.7417952 -0.7575623 0.4732555 0.17953302 -0.16206786 -0.19969511 0.29092526 0.2888481 -0.029024921 0.37219638 0.09168774 -0.08527019 0.04313992 0.049529802 -0.06774055 -0.13317458 -0.028073478 -0.017587371 -0.0068417243 0.030029794 0.08216627 -0.0075287395 -0.0010374509 0.045832563 0.011067095 -0.0529336 0.0030324513 0.044076756 -0.0071855057 -0.004416114 0.05596453 0.0029169074 0.029177671 0.014056227 -0.05349112 -0.053265195 0.028652776 -0.022755772 -0.041082755 0.043271203 -0.004646484 -0.008383911
70 -0.082992725 -0.0081365695 -0.018265713 -0.014589021 -0.032990143 0.029119892 -0.06027473 -0.017694108 -0.07614046 -0.06742775 0.0020959857 -0.0141583625 0.08608102 0.06569594 0.038222853 -0.0006469744 0.45323226 0.22792414 0.78844506 0.8432495 0.7908933 0.79461414 0.76692086 -0.92315525 0.5201886 0.27091354 -0.083471276 -0.038229384 0.33612776 0.32533753 -0.021143546 0.41887864 0.012556696 -0.011373255 -0.086383104 0.014175633 -0.029122692 -0.051324897 -0.07316283 -0.0375717 -0.005383321 0.058091514 0.019167569 -0.0010574375 0.04271218 -0.04939098 -0.026480865 0.020528674 -0.018293416 0.020461237 -0.018736007 0.029763337 -0.0118132485 -0.08623219 0.1015778 0.06612318 -0.0031750684 0.0057700016 -0.04999395 0.015135717 0.019550463 0.030078877 -0.03394918 -0.013691835
76 0.01862161 -0.024031337 0.057899572 -0.06608923 -0.021859292 0.02179901 0.05731921 0.014684386 -0.05504014 0.015141524 0.08277408 -0.04112695 0.039846465 0.11950958 0.030652186 0.008219873 0.51440126 0.19797085 0.8063509 0.7722652 0.9058949 0.8244738 0.76912266 -0.76296157 0.52586883 0.26125303 -0.13826264 -0.13806649 0.27815473 0.28338885 -0.097669184 0.44368306 0.024709515 0.025515633 0.096840486 -0.049399313 0.09263703 -0.038509518 -0.1120821 0.14881817 -0.03524718 0.031056069 -0.006647325 -0.01406138 0.01630529 0.051162068 0.048078872 -0.011103925 0.040888987 -0.033514276 -0.033795618 0.010426512 0.057716206 -0.05554789 0.058372296 0.010363757 -0.11936167 -0.014794411 -0.060934976 -0.02106694 -0.01971369 0.01677914 0.024542786 0.017366963
43 -0.0037954373 -0.026038358 0.020225521 -0.0077077444 -0.0070154555 -0.09418453 -0.081261255 0.054539092 -0.023361742 -0.040124923 -0.03550995 0.032925177 0.049764592 -0.025819167 -0.039850548 0.014780034 0.47131905 0.23647864 0.693307 0.7908896 0.9687388 0.8398855 0.8066208 -0.7556212 0.5429019 0.33094552 -0.16310185 -0.1168386 0.30905166 0.25261822 -0.023362719 0.36049873 0.058816984 -0.00028758412 0.0072445343 -0.01601227 -0.029885871 -0.022700023 -0.05142158 -0.013131775 -0.023779817 0.044582885 0.0035314327 -0.109127745 0.0044468027 -0.053030334 -0.042287674 -0.05526045 -0.015433743 -0.04617349 0.013093293 -0.02292837 0.040833004 0.045312475 0.00063996593 0.03761784 -0.023722405 0.00897303 0.0048835753 0.03773229 -0.060215 0.057701554 0.008971904 -0.05633905
16 0.020400692 0.068544 -0.015310986 0.030406704 0.016965138 -0.00044519152 -0.04083477 -0.095973715 -0.01260151 0.012699753 0.0038852422 -0.046228986 -0.07899153 -0.029628059 0.028826103 0.018127212 0.48401874 0.22896123 0.9010836 0.81002563 0.82750744 0.78019387 0.7797227 -0.77654725 0.52769804 0.30746406 -0.17985795 -0.12139294 0.2876506 0.2604019 -0.042217188 0.38322893 0.028404344 0.026540061 -0.004059246 -0.09664274 0.09592565 -0.049644873 -0.0060377773 0.00047028775 0.032982055 -0.0014593699 -0.012482762 -0.19866127 0.029036859 -0.081991 0.04317497 0.024646176 -0.07615826 -0.030310072 0.0070359474 -0.046167884 -0.008479585 -0.036428664 -0.0036789589 -0.0113068735 0.0237589 -0.03764985 0.027305534 0.026209109 0.061387595 0.0091226725 0.02205964 -0.0006612771
96 -0.009872831 -0.0011184048 -0.016188256 -0.015483692 0.038443513 -0.034259386 0.053455453 -0.11921349 -0.042279586 -0.042444274 -0.015093868 0.10233009 0.09557382 -0.021548048 0.016188214 -0.012788936 0.4322119 0.18631345 0.8119243 0.83812577 0.89359 0.8848567 0.74179703 -0.7168522 0.51831996 0.26129508 -0.16771162 -0.11996816 0.35110414 0.31125432 -0.08449777 0.37785628 0.08955407 0.08839364 0.020355072 -0.034849994 -0.12757957 -0.017083408 0.05199683 -0.07804611 -0.007194283 0.042632964 0.016116267 0.009490488 -0.07794166 -0.0008862331 0.087038785 -0.026904939 -0.03161613 -0.093435206 0.013914238 -0.0055719363 0.0019066919 0.011994334 0.03726407 0.00027929535 -0.043718595 0.00027858638 0.10592413 -0.009081868 0.10370404 0.037970148 -0.041907255 -0.011922773
92 0.011923133 0.031316668 -0.06955364 -0.025619162 0.053903125 0.010845601 0.03375653 -0.021696344 -0.049727254 0.05610278 -0.043210205 0.01641761 -0.0073301685 -0.030209335 0.06218654 0.07957533 0.43786463 0.15259781 0.7834434 0.8344331 0.8466571 0.8959485 0.8624163 -0.6479504 0.60428 0.36246338 -0.0717773 -0.06675394 0.19110526 0.26540634 -0.052355938 0.44198367 0.04380697 0.014836969 0.007825365 0.12236835 -0.006210097 -0.01583698 0.06616613 0.006936589 0.008807402 -0.034873046 0.022989882 0.011391699 -0.09848993 0.04510007 0.061326202 -0.03350554 0.014673693 -0.016861804 -0.06907254 0.018783528 -0.018808614 -0.06198631 -0.0068757217 0.027615681 -0.08768578 -0.019655103 -0.07447679 -0.031811703 0.029064031 0.05712608 0.09059916 -0.05880416
2 -0.04851183 0.00440457 -0.020834614 0.006644091 -0.0526432 0.052431032 0.061262682 0.028258888 0.020957671 0.08045641 0.0048919735 0.060784094 -0.052307967 0.0553627 0.029767988 0.060713258 0.5110702 0.30877355 0.7554645 0.8078194 0.86785346 0.8188079 0.7715424 -0.7780329 0.5573625 0.2700055 -0.16123568 -0.10237849 0.29884788 0.32270706 -0.062499776 0.40158457 0.008756238 -0.07109994 0.04961164 -0.021759704 -0.017316934 -0.05564806 -0.0023830377 -0.0030085356 -0.010146616 0.015241215 0.041348163 -0.008587534 -0.03456608 -0.008505581 0.055400133 -0.12254828 0.021279141 0.011495512 0.031229373 -0.005427324 0.014417239 -0.024724402 -0.054682694 0.008612348 -0.057562098 0.012482265 0.056942422 -0.02087677 -0.035923373 -0.08487658 0.007896723 0.073859066
45 -0.006599993 0.068182 0.019180298 -0.07860647 -0.0073172543 0.02468825 0.016953405 0.066165164 -0.00812742 -0.012458258 0.06278217 -0.0007346643 -0.013567938 -0.089752726 0.043909576 -0.010382532 0.49068725 0.24253196 0.8614213 0.8354499 0.9470919 0.7911197 0.7560901 -0.7170077 0.48216435 0.32348529 -0.14854442 -0.06079354 0.29287547 0.21217942 -0.016612636 0.38579205 0.06067181 0.037506375 0.061539754 -0.01980097 0.029023478 -0.010926366 -0.008390153 0.051534705 -0.05743469 0.06134099 -0.07467618 -0.0027308986 0.011844204 -0.048216287 0.017108861 0.11600229 -0.104831226 0.09330121 0.060518034 0.009811045 0.025205951 0.009836561 0.02903079 -0.026894808 -0.087513976 -0.018069915 0.07699836 -0.07909135 -0.07717457 0.089231 0.01389436 0.03070654
110 -0.05283013 -0.0026957844 -0.061866514 0.035278454 0.0076068155 -0.0045283176 0.1067256 0.020429693 0.007744379 0.011732514 0.020051323 0.007898825 -0.001231329 0.0523976 0.07442645 -0.031067763 0.4591113 0.17375372 0.7683351 0.8033615 0.8610429 0.8445585 0.76404417 -0.7953252 0.53573525 0.3362537 -0.17765766 -0.111264475 0.28098303 0.38236895 -0.14360611 0.37837774 0.10330138 -0.07156795 -0.045193113 0.024277413 0.0020439306 -0.022651156 -0.00035248412 -0.017697599 -0.050379883 0.022474483 0.0135431215 -0.015342199 -0.06604547 0.0034416344 0.011342228 0.13566893 -0.053774644 0.01650069 -0.018428043 5.3285155e-05 0.07227226 6.365396e-05 -0.12501845 -0.027484875 0.026722027 0.0043292595 -0.0134022 0.055750545 -0.02698798 0.029555729 0.00792887 -0.039856084
86 0.057736456 -0.08559701 -0.002793624 0.053989924 -0.014209059 0.071688294 0.0719795 -0.034287248 0.0076996577 -0.037827626 -0.0320444 0.07979507 0.04760306 -0.019091042 -0.009115613 0.0043264152 0.5451281 0.30630282 0.7429156 0.81447124 0.7909499 0.88154733 0.7657081 -0.77997655 0.4997153 0.34552035 -0.14778073 -0.1221947 0.33833626 0.37529528 -0.041553117 0.36326772 -0.015877012 0.050902754 0.06628405 -0.020137759 -0.020666352 -0.041873027 -0.0066004344 -0.037483606 -0.17943336 -0.00800292 0.02860425 -0.004354547 0.070016295 -0.03408841 0.012154367 0.02003294 -0.041218556 0.027991 0.08748245 -0.008863945 0.07613584 -0.008909421 0.02944906 0.020565374 -0.021148609 0.004049609 -0.077794 0.05135227 -0.013525375 -0.0067491354 0.058116373 -0.02423185
106 0.029972885 -0.029697932 0.025833368 -0.04075988 0.057124376 -0.05356326 0.043029625 -0.032762233 -0.03678174 0.059387967 0.0427009 -0.035807777 0.027227946 -0.05770675 -0.02248095 0.072690584 0.5123793 0.24091733 0.72436816 0.80390537 0.9248531 0.8436405 0.7697629 -0.7158681 0.49603942 0.35236853 -0.14581153 -0.13086404 0.29160097 0.276306 -0.14160864 0.5080891 -0.06623089 0.03977835 0.03369367 0.00668715 0.054256346 0.00448013 0.028697783 0.064465664 0.021012517 -0.061946113 0.07678715 -0.033078454 0.0045635076 0.051141664 -0.051269814 0.03318946 0.012256276 0.040929135 -0.0081320405 -0.020882268 -0.07224652 0.003390345 -0.032838833 0.020008087 0.07033216 0.018712891 0.006096673 -0.03476133 -0.030950218 -0.04027896 0.08028837 -0.028063446
14 -0.05346382 -0.0016919908 -0.03875251 0.027256308 0.01955641 -0.025358576 -0.03401132 0.03715774 0.039914455 -0.116211645 -0.057322323 0.0540861 -0.06398708 0.06658503 0.00094842055 0.029800985 0.47801352 0.2124777 0.8555842 0.76050484 0.8684826 0.82446516 0.8128882 -0.7627597 0.5839325 0.2631285 -0.23954102 -0.096605584 0.2535647 0.24400377 -0.124506176 0.3310985 -0.025179641 -0.03815421 0.0037086187 -0.049395394 -0.040153135 0.026279021 0.0085940845 0.041916296 -0.0303478 0.13862899 0.0147168785 -0.017903225 -0.00055774156 0.052246273 0.022593554 0.105321705 0.08152382 0.07738758 0.071279414 0.027932476 -0.019973252 0.10609316 0.041397102 0.05066708 0.048906002 0.041985456 -0.043347627 0.016777972 -0.031210076 -0.014803489 0.0010192092 -0.022967396
52 -0.057882212 -0.103519216 0.09062276 0.09243397 -0.07527776 0.033103827 -0.057893056 -0.031894334 0.006446563 0.033735428 -0.03791557 -0.08392789 0.011410333 -0.09461501 -0.01771125 -0.04591944 0.40133435 0.25162262 0.7796735 0.8103815 0.88079447 0.8766882 0.78682923 -0.7019417 0.6051537 0.30124703 -0.11586299 -0.16117719 0.31978998 0.27139068 -0.07392227 0.4017279 0.11915843 0.023028472 0.04438521 -0.00877698 0.00060193246 0.0625542 -0.08965251 -0.08789336 0.024863506 -0.06698445 0.026800424 0.020165706 0.0044849585 -0.030174624 -0.07396986 0.0015665067 -0.024872892 -0.012440271 -0.014699037 -0.08751778 -0.021251649 -0.05067439 -0.030167896 0.13880268 0.017980268 0.048406247 0.07173282 0.07988051 -0.06315607 0.046325322 -0.022645645 0.07100069
22 -0.03690003 -0.023066338 0.021346537 -0.027833387 -0.023107508 -0.04976815 0.010120387 -0.014107427 -0.011568689 -0.030522123 0.0358624 0.10280003 -0.017600736 -0.014159076 0.0692162 0.040630404 0.48910576 0.19275445 0.80220884 0.84065735 0.8650205 0.81340796 0.79334486 -0.7394716 0.5336638 0.3479201 -0.13833222 -0.086351536 0.24403444 0.22701691 -0.09062276 0.46031418 -0.015474214 0.01842291 0.10362494 -0.057802916 -0.037577968 -0.12593368 -0.0219295 -0.07774252 0.043408886 -0.056775767 0.06620051 -0.032780625 -0.013413808 -0.024619756 -0.038393043 0.11694007 0.05361321 -0.006939609 -0.013772732 0.08600127 -0.03308444 0.029147591 0.016820349 0.07015594 0.056664973 -0.0043716393 0.035691917 0.03668482 -0.011603617 -0.07971096 0.021289216 0.07040791
111 -0.0042284294 -0.09135139 0.016375773 -0.00037389467 -0.010016486 0.037931647 -0.06347975 -0.10481185 -0.10348234 -0.007726141 0.055917963 0.016439216 -0.06823813 0.05713629 -0.0036237466 0.034981992 0.5002768 0.16852947 0.9212697 0.73491555 0.8559911 0.8456627 0.7323126 -0.7825819 0.5299393 0.33787015 -0.07621861 -0.057585843 0.29661888 0.2650213 -0.07637332 0.41488063 0.012661922 -0.023147361 0.06292177 -0.05321825 -0.038115833 0.0078090196 0.036212005 0.08098924 -0.08418448 0.093452185 0.06486641 -0.014622972 0.029988486 0.014123654 0.040731646 0.00072171027 -0.05499987 -0.00405025 -0.0804215 -0.052613236 0.024308793 0.013300684 -0.06838636 -0.0066108913 0.040335882 0.033022806 0.05077061 -0.12686142 0.060188696 0.010423919 0.032822475 -0.0708814
23 -0.011710656 0.06110038 -0.087532885 0.056629945 0.013838791 -0.012542015 0.09659105 -0.03155996 0.03813663 0.07209073 0.037934363 -0.085422456 0.12236349 -0.048871405 0.026981309 -0.061759118 0.4211028 0.22386375 0.8429741 0.78323126 0.8214277 0.86815745 0.8269591 -0.7400837 0.53957087 0.37279978 -0.15297405 -0.06481323 0.32375014 0.22902705 -0.044796925 0.40086675 -0.04651463 0.016570393 0.05900555 0.012156688 0.011841768 0.00865764 -0.019699717 -0.0280395 -0.060852703 0.005892174 -0.027947688 -0.01726363 0.018090086 -0.0074131354 -0.0123544745 -0.0065412787 -0.019546706 -0.065768 -0.029069299 0.004036957 0.031257134 0.027779646 0.051631395 -0.03243192 -0.008634654 0.03887403 0.0008636978 -0.055324335 0.009212894 -0.0009640076 -0.045011215 0.0040892647
55 -0.057801355 0.047049314 -0.040609527 0.03545904 -0.031051116 -0.044198398 -0.008689953 0.012939861 0.0065864986 0.028760709 0.011861355 -0.048923753 0.07417793 0.108639985 -0.07605685 -0.0374979 0.47928944 0.19273663 0.86226076 0.81979734 0.8849085 0.786794 0.85488284 -0.70356274 0.5356118 0.32466453 -0.14798969 -0.036484454 0.22680113 0.30045176 -0.0032809412 0.35743436 -0.069838315 0.024764119 -0.043633793 -0.13170895 -0.015431128 -0.015309428 -0.0012320529 0.021880565 -0.0013991252 6.5357184e-05 0.053966247 -0.064149834 -0.011942675 0.015718265 -0.045055725 0.009906411 -0.06495268 0.066290215 -0.02255104 -0.048087306 0.025398614 0.05088546 -0.0034941188 0.030436583 -0.047317002 -0.102525085 0.02291545 -0.02382284 -0.04179802 -0.047102626 -0.006785379 -0.01629888
40 0.06631888 -0.01118824 0.10072352 0.021687225 -0.055835176 0.047331616 -0.019255457 0.013949488 0.048265774 0.014479589 0.11053767 -0.10427268 -0.029137304 -0.000782761 0.008779611 0.027398761 0.48588577 0.2103239 0.88530356 0.8613015 0.81432074 0.8186386 0.8293314 -0.68084705 0.47711912 0.2896863 -0.16742297 -0.15588401 0.27914035 0.33766836 -0.11872411 0.35317937 0.03363211 0.071999 0.055253066 0.027708726 -0.06277738 0.020096745 -0.036901236 -0.06143649 -0.013819064 0.0784178 -0.016880004 -0.076035276 0.039813068 -0.06806614 -0.054189976 0.05076524 -0.003562509 0.030103033 -0.042147532 -0.07075129 -0.08484821 -0.047151543 -0.036562424 -0.051431358 -0.013993836 -0.04377918 0.019260837 0.10021272 0.049610097 -0.07507213 0.0015987902 -0.051734053
47 -0.015772173 -0.031461675 0.049876202 0.047541764 -0.010177836 0.0065578786 -0.065162346 -0.017649686 -0.041272033 -0.003012792 0.006485898 0.013536198 0.038718306 0.07490446 0.13288161 -0.020605726 0.56061506 0.061178856 0.8222039 0.71770984 0.8501885 0.8683861 0.8434274 -0.6915321 0.5654879 0.33403212 -0.20914789 -0.1413698 0.28991735 0.26157957 -0.11354399 0.40760672 -0.00540849 0.101557136 -0.035242576 -0.056156233 0.07228129 0.029427862 -0.0042365845 -0.079875596 -0.020868499 0.027499136 0.056996267 0.0849798 0.02224816 -0.031650364 -0.00286893 0.020182943 0.035552923 -0.04072027 0.087025985 -0.034643523 -0.038405113 0.065320246 0.09085723 0.024713578 -0.062685154 0.07133667 -0.031301953 -0.027872082 0.0478847 -0.013873018 0.002645338 0.01646358
72 -0.029915484 0.046058506 -0.07153392 -0.05201627 -0.070500575 0.07089127 0.00012897007 -0.011404974 -0.020300804 -0.01638535 -0.08042141 0.04063991 -0.031754103 -0.0136792855 0.10709147 -0.03806743 0.4021723 0.290452 0.793867 0.750045 0.8590839 0.8388234 0.8430483 -0.737958 0.6151432 0.2803896 -0.20690534 -0.09959134 0.19107436 0.43720543 -0.005619708 0.3904269 0.055291727 0.058739707 0.031523116 -0.050132528 -0.053220954 0.011502204 -0.08473712 0.051368266 0.01686653 -0.020378174 0.00031482018 -0.022182241 -0.0014012812 -0.011790618 -0.02069946 -0.009932248 -0.03331533 0.001536044 -0.03255049 -0.03395351 -0.037551306 -0.04022204 0.02096558 -0.06799924 0.03057883 -0.034130655 0.059929296 -0.044253204 -0.01785243 -0.034150813 -0.04205708 0.011446645
107 -0.005253954 0.061546054 -0.021688934 0.054107875 0.0005749984 -0.0020410575 -0.07131441 -0.010874544 0.036141273 -0.048603613 -0.0057826038 -0.047494303 0.023289232 0.08217359 0.048685003 0.04635905 0.48676875 0.22239684 0.8422779 0.7210522 0.8621835 0.8501641 0.82226014 -0.7087416 0.58291465 0.32302526 -0.1471985 -0.15117444 0.24445008 0.2632752 -0.076385126 0.44052213 -0.028244196 0.024209289 0.024678791 -0.007094445 0.061208602 -0.058334243 -0.028216831 -0.044114906 0.03244031 0.025005428 0.051201288 -0.1020909 -0.0032885526 -0.0102869 -0.012002538 -0.027141772 0.033107203 0.029510168 0.11178274 -0.034329265 0.023895504 -0.009960598 -0.07450005 -0.009743932 0.04334948 -0.05738158 0.011665231 -0.027577758 0.07306042 0.07557388 0.035701983 0.025856782
30 0.053299032 0.029530918 0.032400277 0.06552456 -0.084401414 0.090418935 0.050617173 -0.08242952 0.06812343 -0.014079921 0.08583085 0.08188177 0.08321181 -0.097893566 0.005205547 -0.048964288 0.39200857 0.237304 0.81476957 0.84379053 0.88227665 0.8401532 0.7821053 -0.74499995 0.548322 0.32841027 -0.20007111 -0.10019373 0.28466433 0.24255069 -0.03798822 0.37498668 0.035650395 0.0315321 0.039102655 -0.039635606 0.045754105 0.013187536 -0.009977051 0.023667146 -0.06552263 0.088793844 0.044651825 -0.018276133 -0.049963746 0.0090273945 -0.05357073 -0.0152291665 -0.055788968 0.09915721 0.026466513 0.05494164 -0.019801838 0.05026329 0.03235435 -0.021631384 0.05672732 -0.04615483 -0.015372509 -0.06829864 0.009898645 -0.036604337 0.0043682214 0.066226095
3 -0.014964465 0.014016392 0.04287237 0.030389026 -0.01314728 -0.030717775 0.078087844 -0.016820641 0.029655954 0.014865104 -0.056033194 -0.027028782 0.03414632 0.08461395 -0.028954843 0.044706658 0.47384998 0.21379545 0.72656316 0.81899357 0.8502342 0.93044573 0.7598014 -0.7269979 0.622347 0.32803747 -0.18847644 -0.021192703 0.30086753 0.26358882 -0.112353235 0.35619867 0.054556 0.061379153 0.061342515 -0.03193687 0.019935422 0.07965455 -0.10488055 -0.032220177 -0.04549907 -0.027726315 0.07232659 0.033015106 -0.0027223567 0.007891625 0.10235103 -0.004132884 -0.0037190637 0.012860641 -0.08945857 0.0029772057 0.008513349 0.05899484 -0.004836865 0.007442419 0.03781174 0.006477107 -0.06292161 -0.024493126 -0.055979297 0.013497821 0.0068120095 -0.01844689
74 0.022233468 -0.0033479002 -0.010270495 0.05337884 -0.020210499 0.072861984 0.023558015 0.039593592 -0.022988027 -0.0012219104 0.022237195 -0.018542303 0.029621089 0.0348869 0.02825809 0.03601001 0.4835095 0.27718052 0.78267485 0.82725173 0.8243553 0.8673916 0.8691492 -0.74034446 0.43475628 0.42795274 -0.15562406 -0.026620993 0.27745107 0.26221234 -0.101941705 0.34226492 0.03633266 0.053196393 -0.008694833 0.022578983 0.008178126 -0.031960875 0.018795714 0.10988524 0.015853155 -0.05634263 0.018771127 -0.054169584 -0.036217187 0.019901162 -0.05122349 -0.085356355 0.02149582 0.007161859 -0.0056754826 0.044367734 0.007222144 -0.049019467 -0.020666027 -0.095372416 0.039082155 0.1106037 0.06423279 -0.002718835 0.058240764 -0.027203893 0.0042569134 -0.02612422
105 -0.12490714 0.08297806 -0.036375895 0.02392495 -0.016998526 -0.039607994 0.07967748 0.033124536 0.08186157 -0.06579026 0.05080275 0.03524186 0.012038046 -0.04281807 -0.018285576 -0.019036634 0.47626373 0.18357259 0.9011429 0.7421356 0.92016804 0.7942085 0.80297035 -0.64924026 0.51639855 0.29647914 -0.18300316 -0.12088875 0.366786 0.36558193 -0.14867023 0.35339427 0.15270299 0.07012213 0.089581706 -0.012052366 -0.052236095 0.008030873 -0.024926765 0.00057794235 -0.037392832 0.022281071 0.081505984 -0.039185394 -0.04450872 0.050979905 0.011852413 -0.10561683 0.024317496 0.048914153 -0.009967187 0.069169745 -0.017277693 0.03547379 0.05340872 0.011364634 -0.057706658 -0.013464677 -0.022852017 0.00044698888 -0.03189469 0.04403451 0.10940187 -0.011774935
71 0.012967213 0.10929752 0.0001628888 -0.027013268 0.027161432 0.10515266 0.1179619 0.06761046 -0.045577023 0.1306269 -0.033739835 0.040397536 0.04554771 0.039821185 -0.015329336 0.06385694 0.55557853 0.20433778 0.8577495 0.75469637 0.8197467 0.8292781 0.82736635 -0.70881027 0.55796766 0.30210546 -0.15072007 -0.19122744 0.33707526 0.2197464 -0.15410155 0.3597105 0.09625808 -0.05519056 0.069444604 -0.0595982 -0.013773498 -0.05846141 -0.015406086 -0.070995785 -0.104541995 0.0016661906 0.01665063 -0.078327544 0.00090731477 -0.024933444 0.026497884 -0.06328763 -0.0657878 0.068148494 0.022935485 -0.037487246 -0.03203106 -0.030034708 0.016669076 0.07847951 0.0014433538 -0.02056595 0.09820118 0.061502688 -0.062224213 -0.026070043 -0.026642641 0.04146054
35 0.04812303 -0.062236182 0.034045205 -0.0009116045 0.0486966 0.080986544 0.014741265 0.044503596 0.095538355 0.019255076 -0.02588575 -0.040380206 -0.027343232 -0.062669344 -0.00854491 0.06020389 0.4443959 0.20423588 0.8694612 0.7213394 0.8620987 0.8356011 0.7811294 -0.7734377 0.5638793 0.3648689 -0.10005892 -0.10882175 0.18834125 0.2828832 -0.18549693 0.46988556 0.053531565 -0.07214615 -0.018478736 -0.029588133 -0.100807786 -0.10523589 -0.100488596 0.098481804 0.019885924 0.013183552 0.051986825 -0.02881655 0.040849622 0.0057676453 0.0011164938 -0.05940694 -0.037457023 0.0366591 0.015224773 -0.031170666 -0.021264536 0.01937389 0.07826172 -0.06670084 0.037623018 0.05404876 -0.03469112 -0.018600043 0.004709738 0.038027577 -0.013453809 -0.02391921
9 0.03730978 0.021664219 -0.035087965 0.0247281 -0.059969865 -0.059517063 -0.0019600648 -0.016459625 0.014650449 0.060322918 -0.09113862 -0.033134595 -0.020810878 0.031028807 -0.022431782 0.05955803 0.5094065 0.2031582 0.7533089 0.78287137 0.92801017 0.8208672 0.84432435 -0.76051337 0.4965877 0.32955754 -0.20807882 -0.15190147 0.28293514 0.23007016 -0.11866326 0.32699418 -0.011411456 0.0220168 0.06441482 0.031258494 0.030400712 -0.09877506 -0.04969656 0.050959192 -0.043578327 0.058438066 0.03641904 0.002021342 -0.031497333 0.07814063 -0.09006442 -0.01443739 -0.039471637 -0.011511495 0.02241394 0.039213117 -0.03553401 -0.07071585 -0.006835143 -0.028376987 0.012197628 -0.05549847 -0.013658074 -0.035931107 -0.060266785 -0.025683846 -0.010257902 0.04825917
24 -0.05727744 0.00095477636 -0.044526413 0.03199272 -0.00981528 0.024884928 0.052663375 -0.0861781 0.030393878 -0.062143024 -0.013276275 0.060205407 0.013902814 0.040687185 -0.064965926 0.007878548 0.47911328 0.25382102 0.7981125 0.7610202 0.8667432 0.83282876 0.84712857 -0.7139737 0.60123163 0.3673128 -0.0740098 -0.04651799 0.23231232 0.32466164 -0.12025383 0.36921236 -0.0017980346 -0.074176975 -0.06405354 0.05520368 0.07768274 -0.009510054 -0.0158933 -0.078001924 0.06946995 0.10558112 -0.04020723 0.0818148 -0.035862368 -0.09926169 0.051656995 -0.019664327 0.011005306 0.04143404 0.013056063 0.009707448 0.025341317 -0.054886095 0.0015677884 0.052793026 0.07692291 0.05916243 0.061818827 -0.046415083 0.05179189 -0.035647273 -0.0889993 -0.090609774
120 0.0650738 -0.032398127 -0.009509293 0.088313505 0.094629794 -0.046867006 0.032638256 0.07894084 0.031802565 -0.011496438 -0.01411621 0.03761286 0.0019746558 -0.023513852 -0.012767911 -0.015044244 0.583084 0.3045123 0.74567217 0.7203259 0.9487637 0.8357384 0.7825927 -0.7156368 0.539123 0.28268173 -0.18185247 -0.058158465 0.27206352 0.29628944 -0.079242565 0.43485263 0.09848547 -0.005984967 -0.05776565 0.006551155 0.09252895 0.029899547 0.07521011 -0.05012409 0.02261083 0.014877485 0.015859988 -0.027036943 0.051802382 -0.07096843 0.040085495 0.005072886 -0.0019628555 -0.010987374 0.07277524 -0.0492101 -0.017106198 0.034982037 0.027861034 -0.04214732 0.075943306 -0.0855631 -0.051039033 0.08838182 0.008092205 0.012856971 0.033754118 0.018695002
63 -0.031477638 0.0026190314 0.019340334 -0.021119842 -0.060862385 0.012368145 0.007908889 -0.027934337 0.11499209 -0.019582326 0.13114102 -0.046750754 0.04813279 0.023741387 0.018824471 0.044014998 0.5654441 0.18554133 0.7443021 0.72939813 0.8541977 0.9583367 0.77776945 -0.76027757 0.5754311 0.2827763 -0.11606267 -0.074015066 0.1864069 0.26336554 -0.13594232 0.4233994 0.07271997 -0.029469118 0.09456252 0.029621888 0.0026353367 -0.10063663 0.0613284 -0.04161704 -0.0045084604 0.007940709 -0.06528081 -0.045039356 -0.015283622 -0.025489783 -0.0522589 0.05122771 0.08067012 -0.021782413 -0.01467797 0.080998816 0.07702277 0.018037803 0.068449125 -0.027904222 0.0018204682 0.019699065 -0.0654978 0.04113756 0.01591688 0.049999114 -0.009635471 -0.02477021
93 -0.038594473 -0.044544872 -0.056540072 -0.025932163 -0.07464195 0.009828668 -0.011349994 -0.042330027 0.03539257 0.071963996 0.0031961196 0.057897236 0.006639874 -0.015746187 -0.042148095 0.023436818 0.48393175 0.27426937 0.8083307 0.81523234 0.83165294 0.8025556 0.8462275 -0.7320026 0.49492377 0.28813228 -0.24757604 -0.1166518 0.2554662 0.34487754 -0.17572604 0.3985631 -0.0060277516 -0.0219512 0.0466028 0.020862473 0.006012178 -0.02105322 0.08582581 0.003567545 -0.019122463 0.059485674 0.023208586 -0.05128245 -0.0020395648 0.058082607 -0.1438457 0.025811737 0.036186047 -0.088976055 -0.010369985 -0.010375153 -0.0037453528 -0.10485091 0.027721567 -0.029979568 -0.059919488 0.01648477 0.068488024 -0.0017317963 -0.080139264 0.059256572 -0.0035108982 -0.043960333
37 -0.051363558 0.05001483 -0.06309971 0.0066910097 0.014676845 0.0065825903 -0.023231218 -0.052724052 0.08826567 0.008066693 -0.023814326 -0.02505687 -0.014338923 -0.06310575 0.03805631 0.14823857 0.50854677 0.14684485 0.7363845 0.7950908 0.86013055 0.85057557 0.85180694 -0.74669224 0.5748749 0.2824608 -0.18532002 -0.12811269 0.27278757 0.2933255 -0.08534045 0.37693048 0.07057337 -0.011135114 0.07698271 -0.016157117 -0.05758942 0.006445053 0.0042471923 -0.04507008 0.06325522 0.1479167 -0.017089942 -0.040228836 -0.03845829 -0.0038646765 -0.02136515 0.067148075 -0.025467651 -0.09486027 0.049011257 -0.032911588 -0.012581756 -0.003333761 -0.0010033032 0.010379323 -0.04315531 0.071283974 0.019654917 0.0694949 0.001437488 -0.024569588 -0.020677725 -0.03453341
109 -0.10985812 0.008865371 -0.05610124 -0.025910204 -0.032645658 -0.039151087 0.013541007 -0.035557374 0.059434656 -0.028142942 -0.036582 -0.018710488 -0.0133676855 -0.0610076 -0.012485892 0.09517783 0.46411932 0.2168118 0.8414463 0.7382659 0.95285076 0.81782955 0.83616626 -0.7072369 0.5516617 0.23829079 -0.16824305 -0.07134843 0.2518968 0.23539697 -0.09482706 0.41789258 0.03592115 0.07297045 0.0778209 0.031058539 0.05101392 -0.061538592 -0.029028818 0.06947766 -0.11006141 0.039716523 -0.08647476 0.024202013 -0.026933456 -0.17859936 0.037252355 0.006881296 0.0058240416 -0.010334193 0.03908184 -0.070790075 -0.047295153 0.0039734654 0.006052897 -0.020343225 0.07298132 -0.019626273 -0.0364287 0.0068612457 0.023805004 -0.032491215 0.057876267 0.054768898
90 0.04930572 -0.012916989 -0.09397486 -0.040585294 0.030603407 -0.01872537 0.00811679 0.019741733 0.020869792 0.06372135 0.02645478 -0.028452506 0.04013042 0.026468338 -0.048635803 0.023282753 0.4979939 0.25900373 0.8552498 0.7485728 0.89045995 0.79828066 0.74527836 -0.7976265 0.57924324 0.302328 -0.18433776 -0.15135917 0.29824567 0.2344032 -0.16198954 0.33893013 0.12629439 0.017523518 -0.0005076566 -0.0028299754 0.023976902 0.07044975 0.03727686 -0.009605656 0.049698945 0.0050883074 -0.014488481 0.013996185 -0.04112983 0.0034930368 0.076551594 0.08761238 0.07553121 0.07329203 -0.09133815 -0.10761654 -0.047999244 -0.029761199 -0.055398718 -0.05531044 -0.03128911 0.0062917983 -0.0071965703 0.01547632 0.058681842 0.026159175 0.0016419459 0.037329856
87 0.00934501 -0.0052818772 0.027025571 -0.03733798 0.031130485 -0.027462838 -0.011890005 0.04101032 0.049277563 -0.02452783 -0.019014819 -0.011327298 -0.033841394 -0.014867066 0.06244219 -0.109648794 0.53867143 0.24736476 0.8266173 0.8147378 0.8221539 0.83875364 0.73972976 -0.76741385 0.5397363 0.37953064 -0.27689058 -0.12225712 0.29997438 0.25734228 -0.023104269 0.3296623 0.057417937 -0.032293204 0.04707745 -0.041335832 0.08447789 0.025165448 -0.036961876 -0.052990336 0.03338616 -0.0017937063 -0.033266738 -0.002865897 -0.034664817 0.10242848 0.008414807 -0.031262577 0.05315141 0.017473305 0.043306276 -0.019022103 -0.06871871 -0.029326422 0.03657483 0.038256608 0.042307667 -0.038004763 -0.000692822 -0.026430275 0.05867271 -0.08133724 0.042510733 -0.080873854
54 -0.050387632 -0.11508549 -0.050992727 -0.012486746 0.045359373 0.041575275 0.003710488 -0.0019668557 -0.029898643 0.048408914 0.06449424 -0.067961164 0.005567167 -0.07211075 -0.076985426 0.0051727034 0.55695885 0.14872624 0.7828455 0.8390908 0.8107411 0.88465893 0.82861245 -0.7193451 0.55277175 0.25872782 -0.23427467 -0.087621145 0.2420189 0.27954087 -0.04686837 0.3538191 0.069895424 -0.0360057 -0.05872873 -0.029245872 -0.027608056 -0.0049972134 -0.014904217 0.025889926 0.00023210156 0.039719325 0.0263022 0.052366633 -0.075781435 -0.083473705 -0.027214078 0.07708789 0.0020636318 0.0542727 -0.012027298 0.0250241 -0.05047838 -0.065363824 -0.050135516 0.020369498 -0.020558858 0.06638324 0.022155598 -0.046433017 0.036233816 -0.04026098 0.029577585 -0.027290186
88 -0.030697804 -0.021226387 0.08320056 -0.032222543 -0.034706034 -0.054211646 0.103353165 0.052967303 0.010062207 0.02221494 -0.032385066 -0.0032821833 -0.0683412 0.025650645 0.026461031 -0.012522391 0.48602843 0.17835957 0.8140181 0.8619098 0.88782346 0.8479398 0.7369564 -0.7293983 0.5782969 0.29978156 -0.101117276 -0.18506058 0.25828668 0.327964 0.009755191 0.32061183 -0.008538026 0.111907326 -0.05778405 -0.04919663 0.028585477 0.002862446 0.073814765 0.054576837 -0.018115876 0.09576352 0.06693507 0.035197183 -0.005706989 -0.012354596 0.025251882 -0.032704994 0.05011195 -0.07477492 -0.10008996 0.07589152 0.06908591 0.008077316 -0.017219367 -0.087906696 0.015196725 0.022581426 -0.027128857 0.08119282 -0.06402132 -0.044819858 -0.029452302 0.03513548
29 -0.050985668 0.07254595 0.00054832624 -0.017883388 -0.04068341 0.054200903 -0.056311227 0.022783563 -0.0043575466 -0.027428381 8.9290785e-05 -0.0027525832 0.07326264 -0.02584335 0.022906268 -0.07376008 0.50194585 0.23736632 0.7854128 0.7656479 0.94288933 0.91386 0.7343739 -0.80205166 0.46824417 0.23880337 -0.12511106 -0.12699428 0.18742387 0.26526308 -0.061341066 0.42067626 -0.014509828 0.008558919 0.10118272 0.0006522122 -0.008007315 0.0723685 0.035080064 0.107582346 -0.04220413 -0.050371997 0.0040668934 -0.021736618 -0.04886251 -0.019276341 0.061145328 0.04711953 -0.013773959 -0.023920275 0.07474959 -0.04411026 -0.05271388 -0.058941185 -0.036036223 -0.022188732 0.041181136 0.06757456 -0.0096717235 0.08204152 -0.041206926 -0.08836197 0.0031972607 -0.025531622
122 0.016171765 0.024256824 -0.0056897854 0.0202621 -0.019373508 0.016126845 0.034689028 0.010750982 -0.031672757 -0.028136175 0.0015163567 -0.05668133 0.05648406 0.022080034 0.04056468 -0.09200492 0.5859239 0.2685547 0.74277323 0.74700445 0.9150366 0.88979536 0.80545783 -0.6665678 0.5844256 0.23254563 -0.15965414 -0.10471498 0.3230501 0.25972044 -0.016409667 0.38947558 -0.03789179 -0.10851575 0.035646964 0.03305234 0.043015104 -0.0912186 0.04263436 -0.061236266 -0.086599536 0.04397219 -0.020821678 -0.13929531 -0.076690786 -0.04161159 0.008935201 -0.05676281 0.01621339 0.038580284 -0.053911816 0.0007547637 -0.13668774 -0.00885089 0.01620151 -0.06902419 0.040042624 0.14244036 0.045155995 -0.03969506 -0.038312264 0.03441091 -0.026616456 -0.06708919
84 -0.016372055 0.06510432 0.13994811 -0.048076358 -0.013077552 0.079134315 0.01235564 -0.04577692 0.09731292 0.0063007763 0.021848436 -0.022985274 0.06641262 0.066790074 -0.07151458 0.018427392 0.49073118 0.24379481 0.81823605 0.79200894 0.86624116 0.84634316 0.7995578 -0.7272514 0.4833207 0.3209175 -0.16819449 -0.15486622 0.28015482 0.34533292 -0.10155401 0.36402938 0.0638588 0.0045143506 0.045730095 -0.0015956713 0.09516851 0.009073562 -0.037486985 -0.050504632 0.107458904 0.03872255 0.12985146 -0.035491522 -0.0211582 -0.017886933 0.034159888 0.067476496 -0.0036259156 -0.058565814 -0.014011119 0.03854479 -0.01627555 -0.0799613 0.0551293 -0.013976566 0.018368296 -0.044475608 -0.005929895 -0.021912584 -0.006256186 0.0037403163 -0.04336915 -0.04426023
44 -0.05151977 0.051121023 -0.014708732 -0.0032914046 0.01863882 -0.08750604 -0.001977632 0.00926742 0.027570756 -0.031779148 -0.011812653 0.020784466 0.009455774 -0.015829496 -0.0049351244 0.013536665 0.4724111 0.145713 0.7635221 0.8319816 0.8822043 0.8830234 0.7923305 -0.72708577 0.5546202 0.27922887 -0.06781985 -0.11771541 0.24521379 0.3638651 -0.15999158 0.3723293 0.016876088 0.0057480433 0.018436966 -0.03790814 -0.040578734 -0.036791418 -0.024486367 0.031473335 -0.036535326 -0.025008662 -0.115640625 -0.011111654 0.03978583 -0.06915369 -0.027480217 0.031006211 -0.035844393 -0.026971687 0.029448334 -0.022887027 -0.021851923 0.04457869 -0.038666956 -0.0023007805 0.12004745 -0.013933554 0.0021413327 -0.011546416 -0.01097053 0.007385578 0.03771628 0.020598529
33 0.062456276 0.07021149 0.08891963 -0.12906672 0.060102504 -0.031641673 -0.04705731 -0.02956008 -0.10560384 0.035543017 -0.02606831 -0.019182632 -0.077600546 -0.01912651 0.036325723 -0.050974693 0.45104772 0.20691001 0.7533211 0.7435493 0.8780698 0.89210725 0.8313278 -0.8421388 0.5054335 0.3145867 -0.13309294 -0.053509608 0.20774375 0.3277319 -0.049705748 0.35663304 0.07682829 -0.051731683 0.07995255 0.035079814 0.0029837291 0.057584625 0.029304521 -0.024655692 -0.08838294 0.13524447 0.021427758 -0.08672602 -0.017256333 -0.0752514 -0.016180525 -0.023395453 0.05028858 0.0008301557 -0.019280544 -0.016033804 -0.0044155177 0.053333018 0.07849101 -0.0062211896 0.0022449265 -0.09389845 0.039801728 -0.02719937 -0.02088645 -0.030071646 0.082451314 0.09172905
50 -0.055266216 0.04041093 0.10773601 -0.068606086 -0.024889175 0.006871468 0.031404216 0.13045578 -0.089508705 0.03738855 -0.0405407 -0.036111012 0.041951492 -0.07193625 0.09150468 -0.037824903 0.44965702 0.2191428 0.8777841 0.77905995 0.89253145 0.85080373 0.8133741 -0.7211809 0.4871435 0.19786076 -0.18416037 -0.028608123 0.32581347 0.31007317 -0.15090966 0.37131655 0.094469935 0.02395565 -0.005004656 -0.0007584467 -0.019478424 0.04513333 -0.039445993 0.064286046 0.07204179 -0.026933739 -0.0012446109 0.0028349366 0.04234317 0.021304518 -0.07333933 0.020506237 -0.010941517 -0.037897255 -0.05961628 0.034117576 0.0014496091 0.021073358 0.015272206 0.11000568 -0.028762963 -0.016133483 0.007788768 0.046113156 0.0024284914 0.058687743 -0.00938069 0.0041523753
73 0.028321413 0.0010484406 0.030323785 0.04794786 0.06658247 0.014575862 -0.025737382 -0.020742526 0.0067828083 -0.05417579 0.03073225 0.039761104 0.08078036 0.0638769 0.08238517 -0.04813967 0.53188753 0.21932425 0.8125934 0.8128467 0.9325795 0.8202807 0.80661416 -0.7027505 0.5905248 0.22287758 -0.09899621 -0.04747161 0.18766879 0.2861599 -0.11246408 0.32645053 0.15269668 0.029338716 0.072476484 0.06726056 0.061259042 -0.026543291 -0.003784328 0.017932437 -0.014443987 0.016234724 0.101067685 -0.030260265 0.08914201 -0.07950819 -0.07935803 0.004696308 0.0331382 -0.012030694 -0.030026507 -0.036569066 0.06830014 0.034694336 -0.041327275 0.07627191 0.025990646 -0.019403543 0.009138569 -0.03836814 -0.022175616 -0.044900574 -0.024547948 -0.012528365
108 0.07268077 0.061308652 -0.05357453 0.023598915 -0.010839142 -0.032088548 -0.045991298 -0.020043308 0.07723794 0.054707833 -0.012289976 -0.0015461608 -0.034734394 0.005821143 -0.015110522 -0.010190903 0.47352463 0.17043157 0.7328527 0.79513305 0.9617421 0.861337 0.73825586 -0.7452236 0.48436037 0.34118018 -0.17427081 -0.040990278 0.3795177 0.35531083 -0.073720925 0.38726795 0.06407986 -0.04146722 -0.07694341 0.018872188 -0.052080873 -0.047017656 -0.006092829 0.033298314 -0.013551229 0.019220307 0.025221081 0.019410657 0.06776124 -0.033012338 -0.14992009 -0.0005574008 0.05453112 0.063265376 -0.11061296 -0.007778678 -0.079484284 0.08764355 0.011560788 -0.03151242 0.056444403 -0.025176717 -0.0006046388 0.05687454 0.09892011 -0.045238588 -0.07178289 -0.003897462
85 0.03943943 -0.009584005 -0.0022851082 -0.034974296 -0.0007760457 0.037164986 0.041761316 -0.045896053 0.032915216 -0.00850318 -0.07636124 -0.046360012 -0.029622542 -0.008286833 0.038330764 -0.09328578 0.4965364 0.260576 0.82861745 0.8406717 0.8606791 0.82792705 0.80832773 -0.6364841 0.5838322 0.3489254 -0.21684779 -0.08472864 0.2115667 0.26950166 -0.18660472 0.36807683 -0.036857698 0.047759794 -0.021201156 0.025970822 -0.043720145 0.013820537 -0.0866665 -0.042385142 0.0016226757 -0.03873596 0.008412154 -0.03476504 0.11289452 -0.051194653 -0.02111199 -0.029470064 -0.013599932 -0.0046003712 -0.033092376 -0.00521438 0.037881836 0.06502158 -0.021197138 -0.03859867 0.012798066 0.04392338 0.027549718 -0.016164128 0.062137023 0.057654645 0.01593409 0.004880206
18 0.014027111 0.025418103 0.02310885 -0.07369799 -0.021569539 0.006461098 0.027526349 0.041763365 0.06373508 -0.008801235 0.014917741 -0.048827164 0.025689287 0.033558458 0.04573919 0.03344893 0.42047015 0.17410982 0.8193452 0.88423413 0.8257988 0.8351552 0.7795483 -0.76574063 0.46489686 0.31971863 -0.09588082 -0.07058894 0.28216493 0.3131551 -0.10732785 0.4818135 0.16420917 -0.07822506 -0.03656855 -0.069402695 0.043518577 -0.009852902 0.043149598 -0.0043730466 -0.057132877 0.07734892 0.043259557 0.02651101 0.074919775 -0.026230434 0.040322945 0.00015158833 0.079161406 0.079474226 0.009153699 -0.0074735633 0.07584756 -0.00014425466 -0.011855689 0.0015551385 0.016936142 0.024505867 -0.07911294 -0.04848517 -0.036953844 0.002901882 -0.01358477 0.07733345
119 -0.11270606 0.08743256 -0.057805907 0.013585803 -0.03299019 0.032531057 -0.045970988 -0.044965908 -0.022586675 -0.008186718 -0.026772322 -0.034809556 0.0025835298 -0.068954684 -0.0016980694 0.03453622 0.53585005 0.22495863 0.73425055 0.84025866 0.89464325 0.82009083 0.7572023 -0.74561554 0.48352486 0.4250098 -0.16014424 -0.05705064 0.26089448 0.3513805 -0.042730846 0.41585553 0.047746677 0.06934631 0.05110715 -0.06301753 -0.035684995 0.03567443 0.050058357 0.001794591 0.0556909 0.025815116 -0.061621785 0.022031294 -0.047218926 -0.041330095 -0.037172403 -0.08094724 -0.051204875 0.020079685 -0.059513737 0.03222356 0.025631811 0.042561922 -0.021251943 0.113085315 -0.016788375 0.0012997182 -0.07164667 -0.09920992 -0.02327232 -0.0058302153 0.06657098 0.021957217
21 -0.062905155 -0.019124772 0.08033553 0.024857137 -0.029705426 0.00833124 -0.024859382 0.04208221 0.033312075 0.046659954 -0.040176697 0.066936836 -0.0860784 0.022785531 -0.05075635 0.053305674 0.5490502 0.15383095 0.80648696 0.78981763 0.8548651 0.9216566 0.828735 -0.7149855 0.4279027 0.3206854 -0.1355012 -0.06767473 0.28434122 0.30358553 -0.07642834 0.34599647 -0.016094668 -0.009569994 -0.004573748 -0.032244198 -0.00928331 -0.025274243 -0.033395864 -0.10551401 -0.092232324 -0.06343714 0.04110149 0.01744166 0.065106675 0.015974538 0.028817687 -0.07350506 0.023441175 0.1191405 -0.064685 0.026284533 0.037542768 -0.06928359 -0.08706176 -0.06607556 0.01102656 0.0123439375 -0.019656485 -0.017091375 0.009109009 0.1318587 0.00573353 -0.000843276
116 0.035269864 -0.055578712 -0.038694866 0.011663063 0.08964635 -0.04771651 0.076731496 -0.0024433883 -0.058508635 -0.038429674 0.0043413523 0.03171724 -0.0042878934 -0.06320853 0.03010738 -0.00582744 0.54110783 0.19956581 0.8442621 0.757249 0.8716455 0.85121787 0.7968382 -0.7144849 0.5121584 0.3108983 -0.12012112 -0.12319321 0.24132992 0.35503677 -0.084239975 0.38548365 -0.022802321 -0.01573891 0.025186235 0.04450785 0.017580073 -0.055742856 -0.13532352 -0.026388407 0.04130529 -0.054143656 -0.014052162 0.021707585 0.019620407 -0.016833575 0.06708638 -0.01902003 -0.070315026 0.0456636 0.005112054 -0.04985225 0.085628316 0.02135216 -0.017174037 -0.019609109 -0.05788592 0.0030231338 -0.029250953 0.015215852 0.012922721 -0.04253617 -0.059572514 0.059641078
79 -0.0022980038 0.06213674 0.024697267 0.01863105 -0.05222412 -0.02110705 -0.025401587 0.011277732 0.00859942 0.04737392 0.032829404 0.0055235093 -0.008104768 -0.040675856 0.07475568 0.11254025 0.5231976 0.29843634 0.8056568 0.7641447 0.80935377 0.93139833 0.79535234 -0.7450587 0.48645526 0.23142768 -0.1941017 -0.1483601 0.3022556 0.24646348 -0.038846347 0.44148147 0.015278843 0.016007118 -0.028692331 0.06704804 0.03980636 0.05134529 -0.018971065 -0.11778571 -0.00026796106 0.054025132 -0.02630317 0.023291253 0.028299643 0.026677558 -0.039151717 -0.028266896 0.032093845 0.05362765 0.038323697 -0.043913037 0.088502705 -0.008691578 0.028301282 -0.017643172 0.021618547 0.01122331 0.059038926 0.009878678 -0.054710504 0.012038516 0.07336594 0.021629047
25 -0.032311294 -0.04643362 -0.02041329 -0.07361237 -0.040215816 0.013387806 0.016934954 0.05946844 0.084853746 -0.05816779 -0.042985473 -0.0073788785 -0.05983807 0.042385787 0.031560156 -0.026142722 0.51684576 0.22708432 0.8052541 0.7263065 0.7736702 0.8945439 0.7527359 -0.72081876 0.65433234 0.3361111 -0.21257305 -0.025126081 0.38147923 0.30299035 -0.115238346 0.44136238 0.028579993 0.008626673 0.024849257 0.0831418 0.0013096508 0.064256676 -0.04721104 0.040339112 -0.022800889 0.04596647 0.072137356 -0.032250788 -0.06494315 -0.07283502 -0.0920356 -0.015263877 0.017644592 0.055873122 0.053364445 -0.015275173 -0.061001107 -0.0023591293 -0.0064686006 0.0062744427 -0.09525736 -0.07255608 0.011467993 -0.055787098 -0.11034836 0.041489918 0.01883972 0.0006722235
95 -0.054662257 0.062426608 -0.026897961 0.030136617 0.051378626 0.03518907 -0.0568938 -0.016211813 -0.05840296 -0.040133838 0.10807628 0.11122802 0.0668594 0.05896979 -0.038702913 -0.047577374 0.41093382 0.19743906 0.8037038 0.7943605 0.9574397 0.74503386 0.7845415 -0.74583256 0.5824324 0.33749104 -0.18977189 -0.20250873 0.34119025 0.2873046 -0.016889969 0.3762026 0.05336622 -0.02080485 0.034302123 -0.022919636 -0.027251866 -0.06300976 0.037975848 -0.014735616 0.042647056 0.01334006 0.055555664 0.00023055941 0.08040208 -0.015289888 -0.01921678 0.03033058 0.020550493 0.008012659 0.022436121 -0.035656583 -0.051577915 -0.0802587 -0.024052754 -0.077048585 -0.08712049 -0.057091467 -0.050096113 -0.055384547 0.0005658243 0.08113031 0.005945707 0.044514474
8 -0.061548956 -0.011788576 -0.03276729 0.031554483 0.017784176 0.13381344 -0.12335583 -0.07906958 -0.005432037 0.0694115 0.014544284 0.027365113 0.017883956 0.0915559 -0.019311093 -0.024533907 0.5100456 0.24814242 0.7962369 0.8429591 0.97079206 0.8030098 0.81647646 -0.61609435 0.48761177 0.31195566 -0.12759449 -0.1274537 0.33504525 0.21656258 -0.14111699 0.38733146 0.028143123 0.010452406 -0.035056047 -0.026277674 -0.004281624 -0.051286146 0.040829442 0.04898829 -0.054044295 1.603061e-05 -0.0568799 -0.03016422 0.011919197 -0.090558074 0.04744358 0.047792617 -0.0044467514 0.0034859579 -0.0020636322 -0.0014623405 0.023721399 -0.0435513 0.127586 0.00038385892 -0.077407435 -0.070312284 -0.054990876 0.07225158 -0.07698193 -0.07214291 0.067878656 -0.027090749
78 0.13572578 0.040251024 0.050199322 -0.025905726 0.028497582 0.019216431 0.031452633 -0.023648303 0.08504968 -0.07860603 0.08538818 0.032298118 -0.017172366 -0.034860082 0.0155163575 -0.008966189 0.48245165 0.1833255 0.768064 0.759044 0.9007581 0.74415743 0.79716855 -0.8399323 0.57101655 0.3929202 -0.21136697 -0.11519555 0.21576649 0.35446328 -0.0801015 0.39426643 -0.06808446 -0.0402764 0.03186352 -0.04334644 -0.056187164 0.063224606 -0.043326087 0.02984719 -0.0072457255 0.04795709 -0.027855404 0.04730453 -0.07687041 -0.08022386 -0.005510211 -0.053345233 0.008387259 -0.06546155 -0.062012378 -0.0682332 0.019610612 -0.016499825 -0.04825201 0.10301842 0.00064594654 0.058158237 -0.058782227 0.10764821 -0.017028823 0.09760193 -0.022281544 0.018558782
42 -0.009421082 0.0012812519 0.015882438 -0.06965907 0.054549966 0.031778876 0.0032120282 0.02618815 0.009638901 -0.076311864 0.07025054 0.006430939 0.026065668 -0.09862004 0.0067120027 -0.030946324 0.48088464 0.29773834 0.85035497 0.76115054 0.83399624 0.83719546 0.83493084 -0.680425 0.50125015 0.31029195 -0.1917237 -0.121078424 0.30969098 0.33922487 -0.050038204 0.44875175 0.07305245 0.0022585252 -0.016638871 0.0055635977 -0.013974257 0.075163335 -0.0054932134 0.0055853743 -0.07641783 -0.03584631 -0.030723022 0.020591343 -0.016837565 0.03350028 -0.023219656 0.036257777 0.0028325373 -0.0037485792 -0.009523242 -0.011680258 0.10689693 0.052565187 -0.0016801483 -0.059925884 -0.016207043 -0.08707177 -0.035913736 0.012659513 0.05633235 -0.05061404 -0.05866009 -0.035320558
26 0.123556204 0.033712637 -0.14060655 -0.023163836 0.07944296 -0.010292102 0.03158025 -0.026525902 0.029133465 -0.025623277 0.007892928 0.004802948 -0.068132006 0.068706945 0.0018671501 -0.0052821534 0.57786345 0.20848109 0.78784883 0.85693127 0.80271876 0.8813204 0.75014454 -0.6531019 0.53466576 0.30492023 -0.22651464 -0.10138028 0.36261484 0.34749812 -0.067851335 0.39725658 0.014791975 -0.0741416 0.060325798 -0.028826518 0.04836475 0.04969263 -0.0074343407 0.016150724 -0.032876965 -0.011073802 0.016507603 0.013813694 -0.059239026 -0.057049274 -0.08239597 0.056402117 -0.08250419 -0.050508287 0.035110526 -0.012735632 0.058093622 0.056290198 0.09566808 -0.049748473 -0.03670966 -0.019249475 -0.008112548 0.0448326 -9.908746e-05 0.07329522 0.060608897 0.11238439
75 0.0095076375 -0.034751866 0.012135724 -0.007054354 -0.037457787 0.0016235816 0.039659224 0.028429061 -0.04958383 0.0115069905 -0.032248084 0.049173295 0.019640278 -0.058495283 0.02698865 0.033193924 0.4788848 0.2427039 0.8265473 0.88176894 0.8607823 0.7588755 0.75358355 -0.75181913 0.5724955 0.28146273 -0.2502623 -0.08138639 0.25600436 0.29171634 -0.17150228 0.3649597 0.026532851 0.08511176 -0.06333147 0.02185588 0.046159327 -0.12265876 0.0030163436 0.03685671 -0.015211706 0.092124075 0.05405078 -0.05775197 0.029172778 -0.054550264 -0.027195664 -0.0895039 -0.07033092 -0.00822951 0.050325435 -0.08788769 0.042857014 -0.014675164 -0.009342443 0.029597698 0.018855738 0.009011636 -0.046608042 0.044646814 -0.035825066 0.038562693 0.017243477 -0.012847902
10 -0.031080235 -0.053386383 -0.012215508 0.08848259 -0.06538506 -0.0024493446 0.021308005 -0.030462349 -0.027211921 -0.030484976 -0.052194994 -0.07127352 -0.048627656 0.053245217 -0.015687255 -0.1018652 0.532389 0.22645956 0.7884593 0.7835841 0.87857974 0.75657743 0.8604947 -0.7409829 0.4934195 0.2651272 -0.07297284 -0.15725334 0.34961677 0.31918678 -0.107726045 0.45388725 0.0066249818 -0.03711382 -0.024196321 -0.0070908177 0.09731314 0.036679078 -0.1326659 0.07764702 -0.032176584 0.048771754 0.06841896 -0.044247735 -0.011805955 -0.09534487 -0.009032086 -0.11791872 0.071659915 0.024428662 0.06392654 -0.007306197 0.025332153 0.050910138 0.08270806 -0.02338366 -0.044857927 0.074240535 0.08061212 -0.009846796 -0.0076862103 -0.027204944 0.0142675275 -0.117609665
100 -0.04160585 -0.051493168 -0.010079949 0.04966829 -0.015863188 0.034746833 -0.02736223 0.059688263 0.018966848 0.018512333 0.0056504826 -0.061639614 0.051388804 -0.04895836 0.013144669 -0.0027814745 0.4479134 0.16255961 0.8009903 0.8503223 0.85061944 0.8547157 0.78533596 -0.75725114 0.5411629 0.2751638 -0.21413104 -0.13194624 0.2838177 0.21124835 -0.047920574 0.43990222 0.044474714 -0.07341118 -0.0054619457 0.0019589385 -0.049376395 -0.030370528 -0.016060438 -0.004153252 -0.031013848 -0.0006200689 0.0031416153 -0.04032183 -0.031768855 -0.09927386 0.020093413 0.01064938 -0.045543402 0.0079631405 0.020444468 0.06851136 -0.023562463 0.0696991 0.039220847 -0.03506687 0.06640073 -0.024017042 0.011644944 -0.04652954 -0.014160787 -0.04499106 0.019054387 0.0031381545
104 0.058760215 -0.046565615 -0.019546757 -0.01839017 -0.06682675 -0.10948123 -0.015725486 -0.005557169 0.036833465 0.0020410737 -0.028040126 -0.048126966 0.010454772 0.004106102 0.039466217 -0.015617385 0.5749856 0.1667138 0.72253644 0.7917955 0.8331207 0.8838099 0.82173884 -0.6986479 0.5689866 0.37982026 -0.21066998 -0.00683283 0.28674802 0.28296477 -0.06457425 0.40683654 0.1294486 0.03456997 -0.0018936147 -0.049050886 0.031904776 -0.039867006 0.025934024 -0.02556135 -0.021260612 0.00927697 -0.010758994 0.019205408 0.10415652 0.026359186 0.089689374 -0.02533083 -0.07781511 0.024912551 0.05067844 0.003944882 -0.030021537 -0.015206761 -0.0907112 0.018843671 -0.07649977 -0.08848014 0.023631033 0.044109453 -0.039687194 0.0034114965 -0.02240556 -0.0679278
38 -0.06122973 0.026965065 -0.038436186 0.028129088 0.020276472 -0.109984554 0.10936315 0.015454433 -0.0128760645 -0.039748363 0.018405277 -0.01446122 -0.029223781 0.004215855 0.0559431 0.0015883642 0.45105076 0.25967413 0.80653024 0.83425844 0.8577254 0.8648848 0.7847492 -0.7503636 0.47680837 0.3514889 -0.15877856 -0.17082186 0.24507846 0.21862724 -0.17205782 0.4119022 0.0096882675 0.0010854031 -0.02554403 -0.124675296 0.015720982 -0.079905465 -0.080472656 -0.013517468 0.048787236 -0.0036626651 -0.025083989 -0.021847045 -0.022227116 0.0551656 -0.0278696 -0.008475092 0.010248131 -0.008965359 0.02425817 0.045925725 -0.040357295 -0.012226589 -0.08142534 -0.03348014 -0.030358702 -0.06818789 -0.029841615 -0.020900443 -0.06363057 0.01051938 -0.10080942 -0.013042626
124 -0.040387053 0.0013811451 -0.053882983 -0.0095797395 -0.022947485 -0.0146552175 -0.0614604 -0.08530391 -0.027488168 0.014002681 -0.021429295 0.020261312 -0.041830543 -0.014428953 0.035301007 0.035430167 0.48812616 0.18043704 0.75751203 0.88136667 0.87782115 0.8636696 0.77227926 -0.7367268 0.51979816 0.24813896 -0.13214841 -0.14280292 0.34028906 0.37326914 -0.12310165 0.28115672 -0.042085078 0.025116768 -0.011804833 -0.018371692 -0.0052975668 0.028902223 -0.01728793 0.03673753 -0.029039351 -0.062157914 -0.0011198577 -0.0672938 0.04037773 -0.09189183 0.107278384 -0.013014516 0.09894578 0.051894594 0.015757333 -0.08808636 -0.00982382 0.08476483 -0.007101953 -0.015943201 0.072670236 0.05698151 -0.01254607 0.004819324 -0.10784206 0.066265315 -0.056863796 0.048420273
125 0.0057374397 -0.0042932183 0.012108198 0.06842463 -0.01783969 -0.0021850853 -0.09507535 0.018232197 0.01769637 0.079469845 0.021580227 0.032341443 0.10745835 0.04322978 0.0021046377 -0.001079174 0.51702976 0.20953088 0.85259545 0.89471096 0.9017847 0.77597654 0.78841984 -0.6519581 0.4777747 0.29685912 -0.15507293 0.037597828 0.34535307 0.31431973 -0.05505658 0.4034788 -0.04310362 -0.081265315 0.056872647 0.010771567 0.0068367957 -0.050748512 -0.0316031 0.023306707 0.069361836 -0.07060497 0.050241455 0.040463325 -0.009675267 0.06494858 -0.024196045 0.003838826 -0.048165243 0.009822382 0.068861246 -0.00013531063 0.06819625 0.012794807 0.024799027 0.002709694 0.007007979 0.07735892 0.03146642 0.09603413 0.058655143 0.056534216 0.01577975 0.060454577
20 0.08601231 -0.057590187 -0.06741055 0.056678772 0.029948296 -0.018317003 -0.09321451 0.12466419 -0.011499254 0.013005527 -0.04555421 0.0044054748 0.035234682 -0.02038949 -0.02661327 -0.04170556 0.4786344 0.23761517 0.76204437 0.81196225 0.8716028 0.8860885 0.8224175 -0.6986179 0.5457331 0.286817 -0.093462944 -0.15581366 0.31293187 0.22058855 -0.0801726 0.43825722 -0.017742177 0.024660198 0.058455285 0.013857614 0.04698234 -0.020345109 -0.055568315 -0.047218416 -0.002143801 0.09583226 -0.03603368 0.07743706 0.0352696 -0.024579559 0.06720009 0.029031426 0.015982905 -0.060429502 -0.060577493 0.06511188 -0.02047151 -0.009162449 -0.14370316 0.00025983868 0.0035982765 -0.007469237 0.08107247 0.08063851 0.0060592163 0.05289555 0.0718862 0.033527777
94 0.027418725 -0.043199766 -0.029752035 -0.008105251 0.02304912 -0.010198506 0.06988493 0.039898667 -0.053549737 0.00249632 0.09622693 -0.014515502 -0.0071464656 9.965088e-05 -0.003821706 0.01511025 0.4552655 0.23683406 0.7734018 0.719568 0.9322899 0.7621835 0.9025475 -0.74140537 0.57029545 0.3266045 -0.13591221 -0.13138765 0.26687133 0.41111317 -0.04494381 0.33192006 0.08077311 0.009871308 0.030104917 0.0074227457 -0.01327875 -0.079258025 0.0039954334 -0.05154967 0.09825662 -0.008738349 0.00069542136 -0.02282918 0.004299002 0.0932173 0.018358858 0.052064095 0.030761078 0.02464753 0.0034943456 -0.026244152 -0.065390535 -0.053408854 0.051689528 0.022249313 0.049080275 0.12793584 -0.048058685 -0.021250673 -0.030810736 -0.02873476 0.18841398 0.011335455
39 -0.08055967 0.036503747 0.01862102 -0.074176885 -0.01842572 0.0037839804 0.050961696 -0.0067372345 -0.09277556 0.062155705 0.010556312 0.084529735 0.05905829 -0.008180076 -0.070367604 -0.055216487 0.5918682 0.20548828 0.74720204 0.8596137 0.7930729 0.8352705 0.84194624 -0.7002615 0.5946531 0.28761184 -0.20956556 -0.074482776 0.23656581 0.2348376 -0.09103417 0.41749084 0.0631443 0.023991084 0.039234206 -0.050830085 -0.00931373 -0.04892722 -0.007665086 0.04679281 0.05138383 0.022803012 -0.010041506 0.020230332 -0.008283059 -0.063698485 -0.027873222 -0.066958405 0.07423867 0.114187285 0.014367201 -0.012844939 -0.0040751356 0.08065546 -0.02113877 -0.097602166 -0.006282751 0.035798725 -0.022366742 0.01457724 0.04366684 0.07637974 0.048756573 0.040807396
46 -0.009617245 -0.09941141 -0.052965444 -0.10405766 -0.025852611 -0.01563036 0.006959637 -0.06006328 0.032741554 -0.05091626 0.08253268 -0.040192895 0.055506192 0.08263272 0.015554053 0.0014937758 0.45072317 0.12923072 0.8162502 0.80019677 0.9442936 0.7931597 0.81910175 -0.7397027 0.54799235 0.22945148 -0.16221814 -0.047865804 0.28355098 0.26829252 -0.11870124 0.4307025 -0.022958986 0.03162491 0.0031651184 0.003940636 0.017596578 0.05766431 -0.028421987 -0.05997499 -0.01105019 -0.07239352 -0.039474297 -0.045756537 -0.08070559 0.0150322085 0.0211175 -0.11562135 0.017554242 0.053156577 0.0135239195 -0.0033047667 0.028839307 0.010142314 -0.02755961 -0.006372342 0.025975524 -0.08225414 0.04675889 0.015583764 0.014361107 -0.012953939 -0.037281487 -0.029697353
117 -0.04275859 0.037622638 -0.026211068 -0.00498716 -0.05395664 0.030505277 -0.07149952 0.026389673 0.055286225 -0.026722994 -0.045189217 0.058232356 0.042198956 -0.009596834 -0.06712856 -0.00982089 0.50148565 0.109954596 0.76651126 0.79030395 0.74282396 0.85128903 0.8444307 -0.7262095 0.5793839 0.32153738 -0.19194245 -0.12128278 0.3682138 0.41904977 -0.19136621 0.4428404 0.012409687 0.044325568 -0.058703654 -0.05801901 0.06547104 -0.028399942 -0.059371598 0.046485167 -0.012514569 0.11395318 -0.04601678 -0.07195001 0.005557489 0.044557314 0.03280297 0.012710187 -0.03947801 0.046880614 -0.034698103 -0.019177534 -0.0055657956 -0.06529841 -0.023280157 -0.06639252 -0.007374696 0.033322148 0.009767923 -0.05761486 0.011972977 -0.09676197 0.09558953 0.12340215
115 0.049673878 -0.0021972852 -0.07243645 0.0011852932 0.014185221 -0.009151815 -0.041704617 -0.029746005 -0.043545187 -0.039577067 0.078525 -0.06904526 0.098416165 -0.082854465 -0.038756035 0.031995054 0.5420289 0.20917904 0.7663142 0.7243397 0.862387 0.8521151 0.82398343 -0.76669323 0.5346309 0.3106434 -0.24095507 -0.13350636 0.24294338 0.3186202 -0.15989694 0.3813569 0.060876675 0.067801565 -0.049043674 -0.116439894 -0.020794751 0.0017524618 -0.024348423 -0.01940501 -0.0057723853 0.022161935 0.09591056 -0.015919682 0.00021159962 -0.09394223 -0.06836193 -0.093604706 -0.004532829 -0.026601935 -0.018278476 0.11243006 0.1238367 -0.066348895 -0.032128546 -0.07554516 0.025900884 -0.008892713 0.03471882 -0.0051429356 -0.012181269 0.0103092855 -0.017038934 0.11413865
80 0.013380284 -0.059132855 -0.04197535 -0.10389085 0.029652623 -0.005498468 -0.06369154 -0.0635746 0.0157052 0.016181165 -0.05794509 0.00011011855 0.014389753 -0.10770557 -0.016280685 0.022668162 0.47425812 0.19138111 0.7860883 0.73078537 0.88880795 0.84826916 0.81110865 -0.72746336 0.5941027 0.406644 -0.22037414 -0.07468673 0.26962292 0.21866618 -0.08385786 0.40929306 0.08423963 0.04196418 -0.020546645 -0.033922564 -0.03949351 -0.02354431 0.008578422 -0.057735574 -0.016126934 -0.009621319 0.13161594 -0.06789639 -0.03346712 0.003994825 0.0037275904 -0.073017225 0.0050174473 0.008322198 -0.037770722 -0.054521803 0.07857025 0.0011365262 0.082784325 -0.04836301 0.05182488 0.058028802 0.000511739 0.03241551 -0.103072755 -0.024438314 0.0043405937 0.040205073
114 0.0056457752 0.015615922 0.033759385 0.104808874 0.048652858 -0.03146377 -0.025917185 -0.08025799 0.03385685 0.06085762 0.030987084 0.043573868 -0.025771722 -0.05011288 -0.02248149 -0.0672083 0.47023582 0.18354577 0.8266488 0.827678 0.8057553 0.90152186 0.7670654 -0.7815477 0.54023135 0.2620862 -0.21547312 -0.05139384 0.33925328 0.27759993 -0.123313375 0.29327056 0.04286761 -0.05569835 -0.004253947 -0.044044446 -0.007996337 -0.014884244 -0.044422064 -0.049224693 -0.020286389 -0.00650932 -0.053221557 -0.02368541 -0.030981285 -0.06604348 0.0587388 -0.0985493 0.08296368 -0.05413132 -0.03330892 0.016980555 -0.013155962 -0.02612113 0.0037141596 -0.033555444 -0.014035319 -0.032405805 -0.101184964 0.030275706 -0.09226787 0.028871689 0.0629602 0.002995462
69 -0.036058605 -0.024583759 0.041690405 0.020176714 -0.011932562 0.025306247 0.039464448 -0.0056034084 -0.027892968 -0.043266345 0.0438673 -0.014953882 -0.027754806 0.01457347 -0.0036972773 -0.042815566 0.62905115 0.21791513 0.81203693 0.8015494 0.92817277 0.7919241 0.7522029 -0.7286791 0.50447696 0.28946394 -0.051048417 -0.037256543 0.3170542 0.2509703 -0.15503636 0.3885306 0.025822245 0.00719034 -0.026497276 -0.030627038 -0.09165035 0.04125054 -0.017395532 -0.115011975 -0.029953768 0.027660245 0.016696172 -0.030643672 0.037410405 0.09603234 0.01674151 0.06108101 -0.03389398 -0.047526218 0.02723987 -0.010835581 -0.07292371 -0.04752794 0.074818134 -0.042495836 0.012921295 0.025224594 0.076395415 0.0046565677 -0.039846856 0.037904155 0.055730823 0.052599493
99 -0.088432506 0.021658957 -0.015760902 -0.07595277 0.03827057 -0.029874103 -0.037920635 0.040804688 -0.05000857 -0.048344996 0.039665934 -0.028629394 -0.019225605 -0.068571635 -0.029000655 -0.0236318 0.5143686 0.16616645 0.74368346 0.84300053 0.79590446 0.86516964 0.8350306 -0.77573836 0.5339014 0.3547822 -0.09017531 -0.15109146 0.32552335 0.29776376 -0.12899564 0.32672966 -0.02531983 -0.057351433 0.05448825 0.0020449029 0.094385624 0.028849537 0.08990541 -0.011784096 0.06409147 0.04611472 0.10338829 0.033321645 -0.0057721958 0.051795837 0.008701341 -0.050397914 -0.020552808 0.044020716 -0.055034023 -0.05449674 0.04162685 -0.008819359 -0.01583908 -0.0684709 -0.0036719958 -0.029351318 0.04759973 0.045230083 0.009774932 -0.022088392 -0.039623562 -0.049398016
62 0.08561154 -0.043670468 0.06043309 0.018373879 0.023162117 -0.043616794 -0.017855352 0.04123095 0.022168841 0.02129906 -0.063457355 -0.017179418 0.030018048 -0.02115206 0.030691262 -0.009120995 0.40724567 0.17791057 0.8120477 0.8156336 0.9037549 0.8073812 0.85306996 -0.6927553 0.53141284 0.23463693 -0.18124254 -0.056026086 0.26627243 0.36535144 -0.10909599 0.4522818 0.034127243 -0.0223086 0.09335239 -0.098673366 0.023479562 -0.0057438314 0.049701333 -0.058578145 0.022257032 0.030030392 -0.06563375 -0.04127926 -0.13516453 -0.112718455 -0.009184521 0.04508279 -0.0066702683 0.13667299 -0.04388575 0.07223694 -0.030194629 0.00058830314 0.046143852 0.021568099 -0.06518882 0.04532309 0.0020960197 0.015893595 0.015484424 -0.00894376 -0.007053147 -0.014987951
83 -0.08926147 -0.069517106 -0.002125785 -0.015622982 -0.035723772 0.08036504 0.020104349 0.06771887 -0.0972833 0.07414094 0.009168567 -0.019423366 -0.02686074 0.011154197 -0.014743178 -0.05513323 0.5028894 0.15023956 0.7847572 0.7317344 0.8751105 0.7825404 0.7526231 -0.8000193 0.5859007 0.38924056 -0.23596455 -0.15791124 0.34318113 0.3088416 -0.07977007 0.43892014 0.05851243 0.0072911307 0.03310129 0.0051347376 0.0086948015 0.035339214 0.045333263 -0.07282982 -0.07086786 -0.09798202 0.048227698 -0.0841239 -0.013262764 -0.014339876 0.035065975 0.091553375 -0.051981427 0.018679036 0.02492797 0.10576181 0.014627525 -0.008864857 0.020808812 0.055501375 0.06525623 -0.011337879 -0.01812343 0.056065623 0.07143437 0.029703217 -0.05869869 -0.06796952
101 0.0031865323 0.021509202 0.10888093 0.0002863319 -0.0019719666 -0.029330462 0.032182813 0.04052814 -0.09094094 -0.095442005 -0.03768268 -0.0060368264 0.113633044 0.016226802 0.05572568 0.016956378 0.5180334 0.18678036 0.84562844 0.7738618 0.8232463 0.93253046 0.76839864 -0.6440352 0.5480177 0.3499251 -0.15635297 -0.12755454 0.306112 0.32580796 -0.15438771 0.36287433 0.035850987 0.010893328 -0.005349068 -0.019265013 -0.021030819 -0.031394903 -0.045940846 0.07161672 0.048589744 -0.012463265 -0.025213748 -0.03688446 -0.07463859 -0.081818566 0.022742812 0.017676124 0.038380414 0.03293171 0.053277794 -0.029939748 0.023166647 -0.085195795 0.013743204 -0.1326082 0.02011231 0.05256989 -0.012324591 -0.0149484975 -0.06630968 -0.015932065 0.020699123 -0.009179075
91 0.05432801 0.08285913 0.105263524 -0.029280161 0.08513288 0.04396102 -0.011771762 -0.030090215 0.012264224 -0.016520174 0.045459505 0.041737907 -0.051824503 0.01536404 -0.07971965 0.13865924 0.38695034 0.24569735 0.83248794 0.809587 0.8456697 0.8414291 0.87783015 -0.72428393 0.5849934 0.23640047 -0.13599712 -0.12912999 0.30493248 0.25292373 0.020427376 0.37920052 0.07879347 -0.036313575 -0.07624213 -0.032696582 0.002491864 -0.0127506275 0.005214975 0.02748261 -0.097650364 0.024210379 0.0636291 -0.021637466 -0.034778535 0.042021856 -0.018995538 0.0031580583 -0.07223419 0.026808428 0.041838545 -0.012040947 -0.0785153 0.089251846 -0.015787214 -0.014694229 -0.0492699 0.030182712 -0.05212907 0.03363764 0.04104187 -0.02945097 -0.045462664 0.009420755
51 0.004670615 -0.0535152 0.011805197 -0.07038974 0.00015845365 -0.045891277 0.0005898077 0.010856256 -0.019112425 -0.052347798 0.06687192 0.051951453 -0.052196965 0.03312364 -0.016820513 -0.010226109 0.44114882 0.21275379 0.82318425 0.86857647 0.86320895 0.8576629 0.6980062 -0.75054556 0.52143556 0.40034062 -0.16901138 -0.1430167 0.28542802 0.29150003 -0.031906467 0.3727568 0.038448136 -0.033895537 0.058167994 0.05710045 0.06535375 -0.017996967 0.006027358 -0.007496598 0.029814634 -0.058029342 0.021245051 -0.0677902 0.014344641 -0.100181036 -0.034257807 0.01286866 -0.04058796 0.01559473 0.03954242 -0.029301714 -0.051815942 -0.011259887 0.065648854 0.00046530686 -0.048747413 0.025238845 0.005412878 -0.039880957 0.10708916 -0.010729257 0.0424376 -0.022799086
121 -0.056332193 -0.010873375 -0.005084388 -0.051502626 0.06227303 0.033525612 -0.023971353 0.02436203 0.03341734 0.0007019423 -0.023012023 -0.010178221 -0.020331703 0.034601655 -0.07320866 -0.03167912 0.5356225 0.2007252 0.865655 0.7584396 0.91000223 0.9152503 0.7322731 -0.76430845 0.4329364 0.29230243 -0.17987736 -0.084853806 0.2283435 0.30065694 -0.12761566 0.31127122 0.017295063 -0.016107654 -0.1339864 0.0612955 0.06477436 0.011104931 -0.080159396 0.058693614 -0.016241293 0.024148062 0.050826702 -0.044608768 -0.052127015 0.0006396363 -0.04469317 0.079037055 -0.01682776 -0.056402344 0.012686118 0.04307829 0.019185157 -0.014359819 0.0071371146 0.1582551 -0.04439775 0.008386102 -0.02978526 -0.046041407 -0.031518772 0.008269504 0.043973844 -0.026563516
97 0.052480903 0.056013715 0.035441965 0.0054708314 -0.10710833 -0.09782687 0.021955136 0.024327653 0.044559997 -0.049711015 0.08459466 -0.0053059654 0.024107747 -0.009657028 -0.012977431 -0.038237248 0.4894152 0.17494868 0.7514696 0.6958479 0.91998935 0.9329949 0.84251946 -0.724964 0.5491314 0.28321314 -0.067973495 -0.16155837 0.26844177 0.3337721 -0.091907874 0.34540752 0.0017241841 0.09428853 -0.12483788 -0.02828499 -0.0474004 -0.028804334 0.012215806 -0.034212064 0.014834716 0.028254071 0.040907927 -0.00426249 0.09239195 -0.09005927 -0.038959526 -0.042708546 -0.0849662 0.052845668 0.0830279 0.025501138 -0.0007585673 -0.08433074 0.10427773 0.037474755 0.0011032328 -0.039856795 -0.024199244 0.06885822 0.04267486 0.06260691 0.027700359 -0.006268563
64 0.00039010172 -0.020197915 0.027685909 0.08605345 -0.10844941 -0.08420376 0.01836996 -0.0050075543 -0.0018776506 -0.1632732 0.060806412 0.07460853 -0.053466197 0.015675642 -0.030599061 0.038132858 0.4743017 0.23348984 0.8064938 0.8094346 0.85314703 0.79820395 0.8201972 -0.7422919 0.58585125 0.2550723 -0.22618712 -0.07288491 0.2510313 0.24803746 -0.14232601 0.45025566 -0.009895302 -0.07117148 -0.027440896 0.10381732 0.045284152 0.057511624 0.049148526 -0.01078204 0.034090538 -0.013211252 0.04171711 -0.040776517 0.031749282 0.005827573 0.05348327 -0.041681964 -0.1147127 0.022437206 -0.08709851 -0.038541734 0.0038025812 -0.012324144 0.098930866 0.03404916 -0.07038251 0.07528476 -0.012349027 -0.055732626 -0.057951774 -0.045785997 -0.019252392 0.1378081
113 0.016495919 -0.019594029 -0.031200934 -0.04221805 0.06512587 -0.002330702 0.07672551 -0.017845143 0.0065163593 0.14191769 0.064388186 0.06638329 -0.00035945105 -0.06337993 0.029676342 -0.011990233 0.54977995 0.15355311 0.78546077 0.8338008 0.8241242 0.8244134 0.865907 -0.6735799 0.5153506 0.37799704 -0.13934004 -0.20810413 0.26203257 0.27153215 -0.10257645 0.41359398 0.00282447 -0.051368076 0.0080664065 0.093230985 0.0016591967 0.085430324 -0.0028263594 0.008323612 -0.0008726636 0.028496383 -0.042072665 -0.07993789 0.055608056 -0.029120704 0.03728528 0.050363526 0.08619861 0.04032617 0.06584492 0.07351397 -0.031334158 0.059435092 -0.008195718 0.04712038 -0.026007015 0.004675431 -0.03912948 0.016314821 -0.049878363 -0.032599058 -0.078780316 0.04271565
68 0.051692065 0.046641327 -0.024338868 0.10389064 -0.004870752 0.062183525 -0.025105216 0.0307316 0.017175673 -0.0035771632 -0.012146488 -0.010697161 -0.04784694 0.03275048 0.009839229 -0.09571723 0.39740914 0.12193916 0.75025487 0.8125065 0.9088294 0.8909868 0.80368096 -0.78839016 0.5442746 0.31120527 -0.0943826 -0.069683366 0.3414287 0.2519668 -0.20957655 0.3116522 0.13114889 0.016328862 -0.0074249534 -0.016743436 0.07160876 -0.044470195 0.00082398846 0.0020095964 -0.03850777 0.0027755455 0.008316076 0.03001859 -0.003676485 -0.009924895 0.044111315 -0.025247972 -0.0055287993 0.030357298 0.024260057 0.022454357 -0.05588857 -0.031191025 0.055405624 8.156708e-05 -0.06318887 -0.05303341 0.09180101 0.07399883 0.020259617 0.009354128 0.014821715 0.04993065
56 -0.020961184 -0.009394152 0.0054229186 -0.05008313 -0.006985911 0.05565458 0.07539572 -0.045154247 0.07772968 0.0446185 -0.011831026 0.0720617 0.050287686 0.049100738 0.07303059 0.016664827 0.50427043 0.16951124 0.8182064 0.75481075 0.9748292 0.8388946 0.779083 -0.6939314 0.44751492 0.34282592 -0.2097391 -0.09669889 0.32414287 0.30596635 -0.08056108 0.3686476 0.050183114 0.06053433 -0.0036678566 -0.0026023441 0.015676 0.046001602 0.052424766 0.07296562 0.039078202 -0.0028095152 0.050900847 -0.07397924 0.09973663 -0.042701595 0.039412167 -0.044007137 -0.031436276 0.0617186 -0.043055817 0.036566928 0.026812198 -0.06315718 -0.00013822214 -0.053205 0.0052097137 0.051816273 0.0025992787 0.0072991992 -0.060332116 0.0087509835 0.027722383 -0.029803831
12 -0.1503347 0.036480796 0.078381725 -0.05366251 0.04342025 0.08751297 -0.015761096 0.03923415 0.01355471 0.017483836 0.020098407 0.0023311926 -0.031151397 0.03871365 -0.0016781202 -0.047035187 0.49453568 0.16384082 0.83471864 0.78391105 0.8929192 0.8199287 0.7631103 -0.6979787 0.5703143 0.3044573 -0.21940322 -0.09166807 0.29277697 0.35541293 -0.06684792 0.41037825 -0.049073372 -0.026047358 0.009919076 0.032251105 0.0013906121 -0.021717971 -0.08739943 -0.04785357 0.016428411 0.039246853 0.07988354 -0.03845186 0.030954408 -0.0072384905 -0.029834518 -0.06555802 -0.10651258 -0.030715495 0.00956806 0.09387088 -0.01649137 0.05599383 -0.017969556 -0.067121245 -0.016040638 0.028043674 0.044740193 0.051606458 0.077829294 0.074210584 0.0713581 0.038465094
81 -0.02302635 0.09738542 -0.049653996 0.05804393 0.010044512 -0.07620194 -0.055753563 -0.026820462 -0.023374598 0.014710051 -0.09676711 0.029037545 0.03293705 -0.046892717 -0.024458392 0.0028900015 0.5496147 0.19943656 0.7823632 0.77018535 0.89576805 0.89547795 0.78615505 -0.70512325 0.4911318 0.3378649 -0.15978509 -0.074809864 0.27807075 0.23360716 -0.17758217 0.40264222 0.014980546 -0.112321794 0.013023669 -0.045502763 0.02413843 -0.0064339344 -0.05774334 -0.036562886 -0.013253123 -0.008776778 0.08622943 -0.020099044 -0.017066754 -0.067762345 0.009057446 0.09208204 -0.03660427 0.0038780516 -0.030763773 -0.019044915 0.02728469 -0.15337983 -0.003645378 -0.007896553 0.049040522 -0.006814222 -0.08093729 -0.10186381 0.039105996 -0.021845931 -0.038425542 0.09283793
0 0.08811506 0.0007037851 -0.02892533 -0.074664414 0.057353508 0.050714504 0.038347114 -0.059318 0.06935066 -0.020744108 -0.0017500303 -0.02673249 0.073910385 -0.040426012 -0.02403962 -0.0036748487 0.5692084 0.12454786 0.7679224 0.82806975 0.8682884 0.81918573 0.7588359 -0.79434913 0.499979 0.2959383 -0.13357931 -0.12604922 0.23307982 0.34511495 -0.11844718 0.44263163 0.036387917 -0.045922015 -0.050136093 -0.030195268 0.004913946 0.005175197 0.033560865 -0.035601713 -0.0018216439 -0.05007314 -0.016860692 0.023786133 0.07451481 -0.030133365 0.012623164 -0.014399541 -0.052742574 0.054732226 0.104065984 0.015575937 -0.00026663134 0.056490406 -0.052318808 0.0108986255 0.029111287 0.054214526 0.044199366 -0.008799513 0.012515827 -0.063611336 0.11980045 0.029060826
15 0.00026996978 0.07474752 0.011863122 0.051182166 -0.053383436 0.024776919 0.02163092 0.09972323 -0.05725752 0.086823724 -0.025263663 -0.08273933 0.005706595 -0.011486063 -0.13265572 -0.057532523 0.53186125 0.2469967 0.821662 0.78026646 0.82139194 0.8669498 0.83155537 -0.6908953 0.5612786 0.3986232 -0.16589569 -0.09636825 0.22247672 0.2819786 -0.05343376 0.35571846 0.04521489 0.027878113 -0.021558566 0.048528694 -0.101711884 0.0077326475 0.06036496 -0.013547368 0.04660607 0.057621345 0.017855708 -0.0021639203 0.011620172 -0.069219 0.111559495 0.04739456 0.06969112 -0.11197843 -0.023459978 -0.006678956 0.03507432 0.10090729 -0.06792061 0.0703695 -0.014486741 0.033881463 0.019834485 -0.025772523 0.054072946 0.03881462 0.0129639665 0.047278058
6 -0.023362087 0.007042216 0.04803556 -0.01237551 0.04188245 -0.043066937 0.004758592 0.062316936 0.015734918 0.006757569 -0.0066462494 -0.011423636 0.052249715 0.038922142 0.055209957 0.0014341889 0.4992153 0.14373496 0.8388562 0.8004319 0.8513898 0.8614668 0.7602412 -0.8145547 0.43765044 0.36968985 -0.20186506 -0.105661266 0.22782138 0.28247133 -0.05013616 0.38977718 0.03125652 0.02645605 0.032424275 -0.001507423 0.010798307 -0.05042073 0.009367091 0.04814674 -0.0615076 -0.0023787601 -0.0069131376 0.03092493 -0.034003083 -0.059276115 -0.061131224 -0.064592086 -0.0928391 0.036610514 -0.0769324 -0.16912861 -0.033370882 -0.008248937 0.063382514 0.030013213 0.02936094 0.062412806 0.021226117 0.037476327 -0.0549298 0.017448058 0.056479506 0.04426627
77 0.12957166 0.06660297 0.030694095 -0.0036134433 -0.037277043 -0.0178391 -0.047312714 0.0967686 0.03964106 -0.008689302 0.017309882 0.05573918 -0.046282362 -0.025580456 0.0033675486 0.03575611 0.56633914 0.25265566 0.8946834 0.847605 0.7568954 0.7715841 0.79476136 -0.73497 0.54159164 0.28558812 -0.037325434 -0.14931518 0.32351032 0.27970803 -0.07538102 0.43743706 0.012892089 0.027186843 0.09102564 -0.013601854 -0.114177756 0.010944124 0.031164346 0.053938493 0.08514934 -0.018483644 0.06919224 -0.018964237 -0.061948914 -0.04810408 0.039084468 -0.008766468 -0.03853562 -0.0032931378 0.0037362324 0.0127886 -0.076598 -0.018874621 0.017520022 0.015310012 0.027908519 -0.0033429994 -0.029394899 -0.019293977 -0.10237901 -0.037993412 0.003338642 -0.126446
36 0.013817137 -0.04519308 0.12668014 0.016764022 -0.023368437 0.022735443 0.008715655 -0.07443056 -0.10165503 -0.07327042 -0.03554641 -0.028269017 0.06572037 -0.02531025 0.012390739 0.035626296 0.53367805 0.22931798 0.8182764 0.80053 0.9207208 0.7825295 0.8498814 -0.7136953 0.44822243 0.314615 -0.16450408 -0.061841954 0.3380496 0.28355488 -0.0770298 0.3401749 0.050905265 -0.07712535 -0.011522635 0.022989456 -0.05102277 0.065865524 -0.010509291 0.003734625 -0.101255015 0.03999322 -0.024818337 -0.14080577 -0.010696566 0.0028124787 0.025080547 -0.021585988 0.019929754 -0.047524888 0.03498796 0.047103383 -0.07146169 0.033049595 -0.0054845824 0.026258083 0.037570484 -0.033686165 -0.030428667 -0.031538293 0.07565135 0.005620336 0.07789329 0.0003374432
57 0.04244029 0.08439427 -0.042717896 -0.09610166 -0.102031864 0.13676691 -0.050288223 -0.025812509 -0.06185829 -0.08245306 0.022744916 -0.002395257 -0.058976468 0.015397308 -0.034285724 -0.019448712 0.47802958 0.23284562 0.71819806 0.83367544 0.9341499 0.83979094 0.8107155 -0.75650585 0.4643628 0.32730016 -0.19455446 -0.15028784 0.34157637 0.19651586 -0.118220516 0.3548971 0.07342198 0.059628893 -0.0027486046 -0.033980865 -0.019250326 -0.02944854 -0.058585975 -0.115727484 0.069379225 -0.013575814 0.016674299 -0.09270816 0.029273732 -0.046555128 -0.042940173 -0.025301564 -0.024025315 0.051786087 -0.04997229 -0.012561635 0.02575836 0.06173504 -0.033674993 0.066660896 -0.057933856 0.041248888 -0.080663934 0.017538955 -0.08184665 -0.011108243 -0.06425575 -0.019472877
31 0.028718445 -0.07757462 0.07776805 0.009960829 -0.023524536 0.055052593 0.036123455 0.038164463 0.010728518 -0.029547187 -0.026842264 -0.09065482 0.004147342 -0.03931286 0.17576365 0.05779206 0.49939924 0.1942168 0.781962 0.8134724 0.8680914 0.85733414 0.7995127 -0.77356315 0.6184427 0.29392996 -0.19726942 -0.12253281 0.25148684 0.19252796 -0.09251886 0.2850215 0.072974995 0.019682547 -0.0008614827 0.04031021 0.026485465 -0.039663352 0.1108089 0.014680795 -0.02913129 -0.0076145395 -0.01526844 0.0026873604 -0.05701284 0.0038489352 -0.02782865 0.02655858 -0.040549736 0.01871391 -0.03259819 0.009441225 0.097094774 0.039648026 -0.019827269 -0.0010082972 0.022559414 0.019974573 0.009895701 -0.027078819 -0.0035437231 0.0048708296 0.070452854 0.018636934
27 0.0016780784 0.020029867 -0.01884645 -0.044198226 0.00830175 0.0059719207 -0.037776027 0.11438387 0.03136039 0.0733709 0.03589236 0.03989282 -0.04134141 -0.10357737 0.021321425 -0.007084429 0.4913969 0.15032096 0.8448206 0.7595451 0.89821565 0.7662956 0.8417225 -0.82863826 0.49564633 0.30339622 -0.09427042 -0.028952833 0.30591333 0.26218402 -0.0720904 0.37206808 -0.0582219 0.08209585 0.020741979 0.015759956 0.006140426 0.051540516 -0.11618327 -0.113002345 -0.04122827 0.044042446 -0.043663174 -0.09189499 -0.041346364 -0.057448756 0.013607223 0.015047879 0.10211253 0.03370503 0.04320259 0.027402006 0.02689147 -0.017172104 0.0053088726 -0.06516563 -0.08315827 0.016991973 -0.010697333 -0.046764906 -0.031765305 -0.059248038 0.034422137 -0.016547251
4 -0.03325942 0.07184277 -0.014269678 0.06749754 -0.0039575975 0.04465789 -0.019961707 0.002699398 0.00046879626 -0.034253478 -0.06727044 -0.01478711 0.0045245215 -0.08841226 -0.055518664 0.02186932 0.4489477 0.13483007 0.8703688 0.7284944 0.84897125 0.8219417 0.8095302 -0.7766109 0.58221406 0.28540805 -0.21944602 -0.11876465 0.27416655 0.3376832 -0.06936295 0.3942541 -0.004042764 -0.04075019 0.01389484 -0.05615151 0.03130286 -0.02092142 0.03964766 0.06236875 -0.0008347309 -0.070705205 -0.004524837 0.009259674 0.1501467 -0.018874625 0.06300529 0.02392461 0.033291087 -0.055189736 -0.1479146 0.06630871 0.0019990208 0.0509031 0.054920144 0.026597112 -0.0046022646 0.031448632 0.059418306 -0.058414 -0.062774144 0.066717714 0.021197883 -0.1162305
61 -0.003485879 0.041355155 -0.041091647 0.029390061 0.044909805 -0.025164703 -0.032072052 -0.033982098 -0.048802294 -0.025653016 0.0019588678 -0.01787684 -0.054514818 0.034372423 0.03138694 -0.007360644 0.4710164 0.22223972 0.8115228 0.8299683 0.8643784 0.87271094 0.826684 -0.7028916 0.4403062 0.31660903 -0.26715648 -0.10447361 0.20241001 0.33416647 -0.053708516 0.3974476 -0.023440868 0.0291556 0.020951876 0.07671339 0.060382813 -0.049634248 0.06767125 -0.03550732 -0.059741423 -0.0049486533 0.021669028 -0.036928765 -0.03182836 0.014729103 0.028830133 0.026829457 0.0053817974 0.046418652 -0.034366634 0.00884546 -0.10649308 -0.034069516 0.021345232 -0.03576652 -0.04211218 0.07985639 -0.020076707 0.09046792 -0.023729151 0.03268303 -0.08211399 -0.012166356
34 -0.029046642 0.057522226 -0.058188748 -0.012322808 0.021324534 -0.018325971 0.0532811 -0.11607046 -0.008215806 0.031896695 0.06075368 -0.013256952 -0.10934027 -0.0022752616 0.054433558 -0.010202507 0.5952515 0.21508643 0.81807745 0.80534875 0.77948797 0.88507915 0.78068817 -0.727363 0.52981985 0.38377374 -0.098029196 -0.12253845 0.33933306 0.20538157 -0.041459344 0.37444124 -0.023414562 0.11707722 -0.02796252 -0.048111197 0.04990047 -0.077589765 -0.088353835 0.028285738 -0.015459814 -0.016245218 -0.053812508 -0.02527428 -0.006472059 -0.03352722 -0.04367575 -0.03803963 0.000870602 -0.044109337 -0.114853926 0.013682937 -0.03606747 -0.016179128 -0.011827018 -0.03191516 0.06520961 0.03165094 0.0017631555 0.08969625 -0.056576725 -0.026272655 0.06351601 0.040300637
58 0.06320527 -0.06081646 0.0077956454 -0.035056796 -0.07524013 -0.014472016 -0.006827228 -0.033014 0.006057279 -0.0026141028 -0.06279291 0.010417346 0.0019346806 -0.020261196 -0.01102652 -0.007871992 0.49988875 0.18529685 0.83881515 0.88282347 0.8773633 0.819418 0.81982523 -0.6728063 0.47898993 0.31782165 -0.0894593 -0.20399347 0.3229231 0.31999382 -0.11953139 0.2787323 0.00086313806 0.017556578 -0.001038954 -0.053350642 0.12124462 -0.0043177367 0.049595237 -0.030862752 0.03896022 -0.057100184 0.0129120285 0.08354214 -0.08809923 -0.008379379 0.022290029 -0.05204183 -0.060872216 -0.090588525 0.06947412 0.0013261954 -0.022260202 0.0813648 0.082325295 0.026904384 -0.0007365858 0.0044447677 -0.006111943 -0.08928526 -0.0012301693 0.06529526 -0.08772116 0.04497145
118 -0.0061842087 -0.05595728 0.0074815974 -0.013295998 -0.023532491 -0.007402553 -0.013467791 0.038099654 0.0186435 0.05260411 -0.01947919 0.0032414575 -4.60212e-05 0.0032591303 0.017462391 -0.0016623272 0.49927783 0.25819528 0.71714175 0.7958692 0.88767314 0.82619226 0.9303753 -0.7210142 0.51814604 0.35328943 -0.18437693 -0.13779563 0.25962788 0.2923134 -0.025791712 0.29643688 -0.020887217 -0.033219844 0.07034154 -0.010027434 -0.09525194 -0.0047296905 0.034258053 -0.013727067 -0.06866211 -0.040011447 0.07151883 -0.040316343 0.011006153 0.033070225 0.0047694626 -0.013123624 0.08794855 0.0071184314 0.03585595 -0.036833864 0.08437456 -0.071811095 0.06269048 0.04978427 -0.04945154 -0.07385981 -0.05537451 -0.072049595 0.037897278 -0.08186588 -0.048157033 0.07076263
11 -0.015664358 -0.094690755 0.05466234 0.022101846 0.00485482 -0.04118558 -0.092419975 -0.020688089 -0.08098773 0.017423062 0.06748584 0.03643068 0.024354808 0.0546092 0.085042804 -0.027002467 0.44103974 0.1970631 0.80758286 0.76245034 0.82333267 0.8586569 0.94205546 -0.7005804 0.5026276 0.37896714 -0.25919762 -0.1547321 0.30181664 0.2168213 -0.0911792 0.3358536 0.10798706 -0.12468018 0.03212158 -0.025120208 -0.019826718 -0.0117596565 -0.03646197 0.062410835 0.027667861 0.027487732 -0.025480691 0.004726271 -0.009204967 -0.074802116 0.024164284 0.0052864454 -0.07367739 0.006148218 0.030296728 0.044767283 -0.036174837 0.052404504 0.017740835 -0.03513011 0.024958463 -0.00023162387 0.027874481 0.076940775 -0.073543854 0.015871283 0.014596116 0.030182356
53 -0.030355878 -0.01785189 0.054714847 -0.009048601 0.0075763026 0.0009941856 -0.06269637 0.07201826 0.019918364 -0.035700906 0.052662335 -0.09007106 0.02848595 0.031710494 0.0548109 0.050225284 0.5417055 0.2085108 0.8500278 0.72717327 0.9140915 0.879994 0.65877324 -0.70236033 0.55138445 0.33661732 -0.18073696 -0.16552697 0.3380907 0.3292326 -0.028260563 0.4194919 0.037903715 0.042120583 0.07756357 -0.04494758 -0.09102666 -0.09252716 -0.06295778 -0.056138575 0.042857457 0.041082334 0.034962382 -0.026569013 0.029746326 -0.0136067225 0.08901786 -0.05336708 0.013003216 0.017636674 -0.009095276 -0.0069964803 0.027036188 -0.00841884 0.104649134 0.04652533 0.03621572 0.031809002 0.030994717 -0.07353986 -0.03788181 0.009278507 -0.027357114 0.13442545
5 0.06544641 -0.0020983357 -0.0016560876 0.11437556 0.0623097 0.08554999 -0.08054264 -0.005036083 -0.008983466 0.04104443 0.018814398 -0.010297054 -0.020442141 0.05830778 0.010611286 0.04005886 0.55468607 0.14003979 0.7788468 0.83535284 0.8439642 0.8041262 0.8384452 -0.75974554 0.5512395 0.29171506 -0.13864145 -0.02828618 0.22391224 0.35269746 -0.12976405 0.33832806 0.11533739 0.13140278 0.033255536 0.007646225 -0.0050719418 0.009834305 -0.012873118 -0.022232758 -0.0135428095 -0.024222575 -0.06397288 -0.08052567 -0.043538794 0.051470596 -0.030794356 -0.053226586 -0.015059628 0.032844 0.015214594 0.006599496 0.008365438 0.017282818 0.053425226 -0.0036801011 0.05960877 0.025754249 0.0040763835 -0.03664572 0.009412938 0.02954789 -0.10467874 0.03189463
1 -0.046835925 0.027559651 0.03366005 0.03936308 -0.015165137 -0.023415796 -0.03799874 -0.008784429 -0.088753656 0.04402247 -0.013237391 0.058696553 -0.023491383 0.03825012 -0.029827893 -0.03565363 0.48305318 0.16816609 0.73874474 0.8424373 0.92566264 0.80871016 0.819379 -0.738234 0.4804456 0.312184 -0.20732279 -0.17354156 0.28404954 0.310963 -0.14761639 0.36530462 0.10821086 0.0376734 0.0826452 0.022487544 -0.04484789 0.055812933 -0.10511227 -0.0209705 0.045871045 0.026315862 -0.0068858014 -0.014111534 -0.03900281 0.06580556 -0.030446885 0.042276915 0.010686725 -0.033092666 -0.004021973 -0.124438345 0.07857435 0.06937283 0.102112904 -0.08507883 -0.032906502 -0.0117566055 0.030353017 -0.10433299 0.035919905 -0.04000055 0.04064861 -0.033249
48 0.042614058 -0.020805227 -0.043145396 0.010232385 -0.020031184 0.097798 0.06160918 0.0042029335 -0.02982919 0.037870865 0.14529645 -0.0341024 -0.02193026 0.013584418 0.08045516 0.11174478 0.47443584 0.24353957 0.7020753 0.89458066 0.90630394 0.8530745 0.7968909 -0.7345453 0.46257436 0.33579308 -0.18660612 -0.09764089 0.23342434 0.30785564 -0.0988602 0.41017607 0.04114358 -0.028424032 -0.033715177 0.028984958 -0.02291451 0.061212946 -0.10050004 -0.009826234 0.016998336 0.032639652 0.120747656 0.11316035 -0.06187232 -0.087831154 -0.0027745483 0.06482533 0.013883659 0.06797234 0.012533825 -0.006932061 -0.037824668 -0.015179411 0.0018764498 0.043337364 0.053331938 -0.0486657 0.030733261 -0.14373805 -0.014314822 0.15187271 0.018795647 -0.038168937
82 -0.042348724 -0.009616919 0.05022088 0.036784384 0.08359468 -0.07196806 -0.038892474 -0.0789159 -0.02647405 0.04342715 -0.09077034 -0.07066941 -0.024742512 0.06396526 0.030826919 -0.016374972 0.45182702 0.28274563 0.7710321 0.78709865 0.8377833 0.8573118 0.77703786 -0.7690228 0.53718126 0.29550946 -0.24872261 -0.1970188 0.26868844 0.32253537 -0.12011409 0.44710916 0.04487399 0.037252776 0.021742938 0.01710831 -0.15076408 0.08272835 0.02630556 -0.01818345 -0.028922603 -0.0144062145 -0.024374928 0.056368783 0.066972286 -0.014872492 -0.027723618 -0.06643879 -0.06447769 0.0072366553 0.09274949 0.080949776 -0.02452244 -0.06560247 0.0042646253 -0.054203086 -0.079170614 0.049480297 -0.068367876 -0.10051154 0.022940215 0.009799692 -0.049783397 0.029733649
13 0.06564402 0.049225453 0.0040448136 0.046922542 -0.038877092 -0.04799656 0.079414584 0.06684578 -0.025659602 -0.062420286 -0.02797445 -0.01228797 -0.016262917 0.045489196 -0.12669414 0.046476882 0.49398386 0.11908744 0.84311676 0.8685576 0.87959546 0.76073736 0.79882854 -0.757589 0.5162455 0.30291027 -0.2056462 -0.13424277 0.24989946 0.2307557 -0.029177073 0.41974288 0.053654965 -0.012146845 0.05050654 0.12051831 -0.044969432 0.08095455 -0.016192894 0.030610641 0.047228064 0.021393852 -0.04063197 0.021055931 0.034823902 -0.004880754 0.028690036 -0.025927903 -0.00050054316 -0.007909378 0.03299571 0.021403475 0.047316838 -0.075979315 0.0499132 -0.040995628 0.13570099 -0.05191237 -0.01142243 0.03950991 -0.036868084 -0.008077466 0.004530335 0.0069858027
66 -0.0017935276 0.044622164 0.018628528 0.010857108 -0.09750757 -0.054270647 -0.05714068 -0.03719409 -0.022279328 0.053416032 0.02004636 -0.0068222336 0.042986948 0.0051932726 0.068280034 0.022154402 0.52163863 0.24695975 0.8675194 0.8371297 0.8918609 0.7973838 0.6328402 -0.7160305 0.63806105 0.35640743 -0.13462974 -0.14402346 0.20439574 0.33899936 -0.12818712 0.3859172 0.049624857 -0.024164723 -0.07564879 -0.052853942 0.04686182 -0.023901373 -0.010561069 0.027869545 -0.012003054 -0.055384085 -0.079985626 -0.07733255 0.018242637 0.046098366 -0.048064675 -0.05653016 0.08306342 0.03786864 0.07347691 0.10405308 -0.050945908 -0.043509103 -0.004207828 0.06629354 -0.008408841 0.010015825 -0.035121396 0.10405857 0.018671887 0.0915499 0.006468911 0.05556126
98 0.06543043 -0.039368276 -0.08824145 0.01637498 -0.060442902 -0.031330373 -0.027143441 -0.07931068 -0.045774627 0.040224623 0.053378798 0.044881888 -0.058127757 0.016730836 -0.06663892 -0.05986236 0.44165647 0.1805762 0.8454025 0.78451073 0.89214426 0.87905705 0.7987115 -0.73985785 0.5058556 0.30544925 -0.13430293 -0.067989044 0.32428834 0.19974902 -0.037583146 0.38596356 0.09601343 0.051869463 -0.011790368 -0.011396838 -0.02236246 0.019973058 0.046820384 -0.032426093 -0.020843627 0.14830546 0.0052345362 -0.07905366 -0.03469949 0.020014796 -0.048851464 0.044059865 0.017747112 -0.017009402 0.037615992 0.020834798 0.045900315 -0.019380994 -0.056129828 0.0662446 0.07625372 0.15647103 -0.07589277 -0.027203199 0.026101517 0.0427727 -0.02265349 0.1266601
59 0.0118340105 -0.06651431 -0.023150105 -0.00017824795 0.14508004 -0.022248954 -0.013762793 -0.029019764 0.038891885 0.00054897263 0.027146425 -0.046087965 0.060855083 0.050611503 0.009211102 0.033912294 0.5567612 0.2769322 0.7742065 0.837483 0.82132554 0.7532486 0.8346476 -0.78138447 0.5636227 0.24566628 -0.17332059 -0.14325835 0.3447623 0.28052688 -0.012018365 0.37502274 -0.026678793 0.089098774 -0.038312886 0.028618393 -0.025702948 -0.013833148 -0.014506687 0.011431375 0.0641049 -0.0054569184 0.03231781 -0.08782449 -0.026975827 -0.07365651 0.05492094 0.030549807 -0.028824942 -0.020357965 -0.064137205 0.08043261 0.0014700006 0.025178399 0.06143194 0.057522755 0.0035704821 -0.095783666 0.032229867 0.0010423362 0.032453828 0.06298267 6.8730675e-05 0.086828895
60 -0.077096544 0.003292283 -0.048558116 -0.03229298 -0.020099476 0.07882208 0.0077682203 0.06036754 -0.048875205 0.0014041193 -0.016656108 -0.018409219 0.06761083 -0.044105083 -0.019511065 0.081051394 0.53185415 0.21451397 0.75772566 0.75659144 0.8454164 0.88445175 0.8101062 -0.75485414 0.5971189 0.34642744 -0.15136005 -0.16079772 0.32676905 0.21431313 -0.17215088 0.29956245 -0.03816982 -0.010891613 0.06068306 -0.0054282453 0.060735445 -0.08390859 -0.064147174 0.03500613 -0.047650874 0.08613264 -0.0035884862 -0.0016250716 0.041761655 0.014591681 -0.053095028 -0.042757906 -0.012790345 0.091724455 -0.07154518 -0.048486214 -0.0736715 -0.053503733 0.056532778 0.042242333 0.048198055 -0.011596466 -0.052055035 0.06748357 0.06671456 0.11640776 -0.059962865 -0.0190864
