261 64
32 -0.13745303 -0.20360039 -0.15922122 0.017648594 0.18931824 -0.38994113 0.44374737 0.0027361396 0.36037272 -0.23464842 -0.031548858 -0.03698469 0.3234182 -0.2308703 0.2734426 -0.24755068 -0.7183362 0.02012348 -0.71215373 0.064024806 0.27084973 -0.27903557 1.1093309 -0.26515538 0.69558376 -0.28413922 -0.14129576 -0.10593596 0.7629703 -0.15638618 -0.2466841 -0.1694767 0.31912547 0.39929533 0.059311207 0.66374063 -0.3479202 -0.10027532 0.039573118 0.0033009027 -0.03961203 -0.51421255 -0.028768277 -0.1342221 0.1183736 -0.15181449 0.31190005 -0.7744004 -0.8079539 0.3626907 -0.28004685 0.63082856 -1.081291 -0.45846075 -0.037491515 -0.12046867 0.07761899 -0.20648086 -0.2016221 0.19994886 -0.122701086 -0.45375955 -0.1121397 0.5433415
99 -0.1426535 -0.1958837 -0.1402149 0.0081556365 0.19206786 -0.34793532 0.41277993 -0.005369911 0.37063336 -0.21513401 9.7502025e-06 -0.06287844 0.3215396 -0.22264445 0.2978008 -0.2647773 -0.7478819 0.016141545 -0.7121152 0.0927449 0.3105006 -0.32277185 1.1383994 -0.2714702 0.7077492 -0.27245232 -0.17774221 -0.09114755 0.8120464 -0.15098849 -0.263298 -0.114123255 0.30217138 0.4231024 0.0935734 0.69243795 -0.30411896 -0.13493353 0.024561943 -0.015248052 -0.04209122 -0.594765 -0.03895963 -0.12711933 0.08030209 -0.13694485 0.33155444 -0.7491571 -0.8124593 0.35973886 -0.28644603 0.65221125 -0.97988504 -0.56555974 0.009441411 -0.107101925 0.0586145 -0.2263343 -0.21399483 0.18359232 -0.14347334 -0.5197845 -0.056450475 0.6501208
137 -0.8522323 -0.16902682 -0.46740153 -0.08527648 0.025385523 -0.7407116 0.33980355 0.07000095 -0.0023577316 -0.45171472 -0.2554616 0.34283444 0.04991137 -0.13951443 0.09028658 -0.816087 -0.33569083 -0.16473679 -0.9357298 0.59216815 -0.09005436 -0.5527167 1.059732 -0.7114607 0.5883285 0.13926913 0.017753456 -0.7531473 0.47532126 -0.089872405 -0.24299717 -0.85133433 0.24801275 0.4959582 -0.06554713 1.0679172 0.22518189 0.35119966 0.43092918 -0.34842315 0.24123754 -0.21663193 -0.049247205 -0.74126863 0.044837207 -0.0072424226 -0.2661055 -0.20585334 -0.26146078 0.64451474 -0.36115256 0.10825703 -0.40553093 -0.20268817 0.16260672 0.18752313 0.31314173 -0.19922248 0.03216825 0.27575845 -0.14262098 -0.47426084 -0.45650837 0.06588574
189 -0.88979685 -0.14309373 -0.47249162 -0.08549431 0.06473415 -0.74930894 0.2824984 0.06296228 -0.015784234 -0.42805722 -0.16790614 0.31972736 0.059838127 -0.108057156 0.15677907 -0.8233876 -0.37179664 -0.19103433 -0.96963215 0.64227474 -0.038659792 -0.5971269 1.0008157 -0.7252961 0.5693375 0.13802534 -0.0045127147 -0.6820364 0.5545789 -0.09201307 -0.2602456 -0.7819243 0.23929119 0.51289314 -0.016569367 1.0730569 0.28665048 0.29080802 0.31857103 -0.3813973 0.23856856 -0.36326227 -0.059291065 -0.759926 -0.006170531 0.054645255 -0.25663534 -0.07309546 -0.29192767 0.60048294 -0.34795287 0.06901351 -0.23365448 -0.35257035 0.22411795 0.26623818 0.23801887 -0.27810887 0.03388359 0.27210063 -0.149038 -0.5828855 -0.3740568 0.18284556
162 -0.32714155 -0.017793547 -0.065826364 0.08085977 -0.6243013 -0.7329995 0.81009537 -0.06492727 0.7187041 -0.36592597 -0.16496703 0.09472301 0.31673336 -0.18355757 -0.098915204 -0.441025 -0.65892744 -0.25409406 -0.7010594 0.9950767 -0.44892412 -0.40126216 0.63578266 -0.7237207 0.42637718 0.15763195 0.2940724 -0.092784055 0.16831602 0.21425655 -0.47602338 -0.5571231 0.50468725 -0.49921024 0.8276541 0.802199 -0.04567967 0.10143627 0.07269862 -0.19677275 -0.0144568235 0.12004741 0.19142452 0.15623488 0.28955197 -0.43792146 -0.05233935 -1.0884323 -0.19221784 0.6605259 0.54937595 0.14278471 -0.3721389 -0.18334371 0.070585996 0.531707 -0.17252718 -0.42371753 -0.045519363 0.77876866 0.31021354 -0.47050363 -0.21217193 0.5515639
245 -0.3042008 -0.035538606 -0.04535719 0.10643774 -0.5969515 -0.7792308 0.7710862 -0.040079705 0.7079877 -0.3361453 -0.116967134 0.07441139 0.34758875 -0.17745437 0.05240335 -0.466672 -0.6893262 -0.2973505 -0.6861714 1.0044978 -0.3863421 -0.40505773 0.5650988 -0.66982985 0.4542271 0.19400102 0.24848542 -0.03634874 0.2716065 0.16207151 -0.4949391 -0.48880628 0.52578706 -0.45950958 0.92452615 0.8423964 0.019358594 0.069521114 0.03204564 -0.20680368 -0.055243183 0.025525836 0.15635745 0.12604195 0.2409585 -0.33639833 -0.044658013 -0.9714105 -0.20920041 0.6271237 0.5507771 0.09112814 -0.13590969 -0.3550448 0.10453711 0.60345703 -0.2665075 -0.45982456 -0.021545986 0.8381474 0.27749375 -0.5325076 -0.09955669 0.65638256
12 -0.2963223 -0.33670568 0.31510165 0.27344328 -0.3462637 -1.0221176 0.68006545 -0.23181789 -0.026226709 -0.53614926 -0.03699346 0.6358437 -0.03494102 0.14720523 0.32831106 -0.6993849 -0.5747014 -0.56113994 -0.6532804 0.9958518 0.6449171 -0.15439765 0.7656499 -0.2272731 -0.05472102 -0.39906174 -0.08175446 -0.49442747 0.29843172 0.23653701 0.23603499 -1.0714132 0.4270342 0.4490171 -0.0063842623 0.76696974 -0.20245859 -0.27044618 0.0007531241 -0.13887498 0.62529266 -0.5034484 -0.268123 -0.24436815 0.44547647 -0.3835047 -0.169785 -1.1542615 -0.21820793 0.29180828 -0.23447429 0.56500286 -0.20819451 -0.45639163 -0.16554321 -0.039275788 -0.47696102 -0.52065647 -0.12618896 0.55726933 -0.06593411 -0.13323358 0.095899746 0.23961732
219 -0.2647224 -0.33062583 0.2904385 0.22248352 -0.3242696 -1.0321312 0.7052429 -0.2605986 -0.025851367 -0.5569606 -0.09812115 0.6648904 -0.0062869173 0.16331327 0.24255763 -0.677288 -0.5771178 -0.5664739 -0.6445394 0.966348 0.5949412 -0.10902627 0.71494335 -0.23396404 -0.03667214 -0.4297475 -0.094699115 -0.56492096 0.22719942 0.23065057 0.25198248 -1.1301442 0.48095056 0.41358304 -0.045079604 0.7522586 -0.24050258 -0.21107286 0.067733034 -0.15025304 0.60397255 -0.40404204 -0.30035764 -0.18055736 0.45366558 -0.4826808 -0.17860854 -1.2304239 -0.2459847 0.3085987 -0.22535309 0.56109655 -0.40171212 -0.28921816 -0.26085022 -0.0717597 -0.35708904 -0.4065451 -0.08306274 0.5568903 0.02805082 -0.038473632 0.0027625575 0.065343656
0 -0.49078983 0.054416504 -0.5295076 0.2570941 0.4459002 -1.067974 0.9898839 0.32880408 0.118098095 -0.8019168 0.3244316 0.265616 0.0042172642 -0.15937434 0.4557494 0.25321943 -0.743036 -0.328945 -0.77924883 0.978649 0.09478275 -0.32523316 0.9870249 -0.56453496 0.14313303 -0.014204326 -0.5515257 -0.54488343 -0.34222552 -0.530648 -0.26097515 -0.34863183 0.2798326 -0.08101461 0.30017427 0.8083659 0.46982712 -0.269279 -0.083377495 0.26328683 0.36062253 0.23782271 -0.3120107 -0.929087 -0.13177507 0.055295795 -0.11341314 -1.1284509 -0.94514346 0.2559203 0.02896753 0.45481026 -0.2614246 -0.32440373 -0.5400705 -0.14226913 -0.34795055 -0.5610793 0.09728951 0.3029059 0.2822552 -0.45504794 0.021504762 0.25840104
147 -0.54818845 0.007726304 -0.521812 0.21670632 0.39217654 -1.0745685 1.006982 0.34470204 0.15694243 -0.86394936 0.30401984 0.23736826 0.006775374 -0.12802687 0.55445534 0.28629628 -0.7656894 -0.37757805 -0.8630939 0.8907094 0.028742013 -0.31392118 1.0234259 -0.51025546 0.15752417 -0.0007160737 -0.48358038 -0.5019526 -0.40324435 -0.4698682 -0.23795164 -0.3389796 0.22807385 -0.0408316 0.25248262 0.73176455 0.38502783 -0.19583873 -0.119602665 0.2554027 0.41897744 0.1912052 -0.31296918 -0.9832999 -0.14363325 0.09641575 -0.08614728 -1.1403388 -0.8957447 0.27994952 0.10398241 0.55259746 -0.37028858 -0.1395132 -0.58671653 -0.1601376 -0.3278371 -0.58737785 0.17639472 0.43262294 0.43236104 -0.40074322 -0.123963185 0.08334233
221 -1.2083757 0.052932754 -0.60386944 0.2816974 -0.2768144 -0.9579296 1.3098918 0.47642678 0.77095556 -0.2739094 0.36876947 0.64114046 -0.38504225 -0.52397895 0.011096162 -0.6713797 -2.2644465 1.2020273 -1.6984704 0.68935543 -0.45777738 -0.26821014 0.6648055 -0.68722045 -0.48514023 -0.27061576 0.16420881 -0.19700506 1.7865041 -0.3028778 0.30643797 -1.2852557 0.19802375 -0.124811076 0.13532385 1.7175792 -0.30320224 -0.65526164 0.53902966 -0.9868328 0.61726207 -0.47466993 -0.061465964 0.49007526 0.22434594 0.4847327 -0.6938874 -1.379718 -0.62267673 0.38105512 -0.56825125 1.207081 -0.20536882 0.23628093 0.56501013 0.041970704 -0.08537812 -0.41194943 -0.6244069 0.8047866 -0.050332848 -0.500798 0.3080463 0.07164708
126 -0.20937558 -0.13729037 -0.06547519 -0.203273 0.03604838 -0.51255643 1.2825265 -0.7486367 0.5949319 0.011682194 0.1363854 0.7355998 -0.36199045 -0.65442175 -0.19059525 -0.41921443 -1.2119987 -0.040960193 -0.97449076 1.2380613 0.14643353 -0.13950428 1.231912 -0.5347613 0.6853562 0.27364415 0.040499385 -0.3742445 -0.17556766 0.16392812 -0.12444206 0.02339369 0.45827517 0.5695064 0.3960666 0.9588946 -0.21634565 -0.20757389 0.75853664 -0.40727776 0.4456473 -0.44727933 -0.18718259 -0.72331727 -0.020697372 -0.012303743 0.0775152 -1.0528286 -0.44252458 0.56404626 -0.059903204 0.30137932 0.17393342 0.36508372 -0.08009273 -0.18123145 -0.30903286 0.28975528 -0.124643035 0.023063852 0.3074133 -0.6902044 0.118877545 -0.10087605
217 -0.120282315 -0.20606712 -0.0633265 -0.21269913 0.05257838 -0.6563015 1.322102 -0.74505365 0.53389543 -0.0361182 0.01373377 0.7242997 -0.36052877 -0.68586874 -0.124772295 -0.4398435 -1.2217907 0.05833529 -0.977302 1.2849594 0.07925898 -0.15622881 1.2138836 -0.5185182 0.6082895 0.32862118 0.017761264 -0.29480326 -0.15456757 0.25059822 -0.067126036 0.04477857 0.46885875 0.5960467 0.43017805 0.9212662 -0.18907163 -0.18458171 0.7377125 -0.40171993 0.50391996 -0.4688846 -0.076624684 -0.67694753 -0.05236619 0.11095048 0.06898168 -0.9393927 -0.43146512 0.59927064 -0.057905372 0.37868184 0.16769156 0.45644253 0.014197155 -0.22847204 -0.40186355 0.12476484 -0.11912379 -0.0851032 0.05709901 -0.76077086 0.17777146 0.108133025
69 -0.58774155 -0.3029619 -0.26786706 0.05020124 -0.40179232 -0.83621526 0.77555937 -1.0820427 0.24429524 -0.70020723 -1.0138062 0.05208802 -0.34265247 -0.049659103 -0.0031471953 -0.22964077 -0.5314173 -0.08220603 -1.0588924 0.21501939 -0.11202828 -0.73709655 0.60859674 -1.0971086 0.89166594 0.0018677819 -0.3515033 -0.62202924 -0.13217427 -0.2834136 0.19687952 -0.24848333 0.15828349 0.9861094 0.193782 0.75387734 0.30488396 -0.3077725 0.08124824 -0.04182131 -0.061058253 -0.12687209 -0.60625774 -0.095311776 -0.07690272 -0.6033736 -0.015180441 -0.7624042 -0.96089315 0.92071086 -0.21236849 0.23491167 -0.67897046 -0.21986884 0.015207864 0.25253838 -0.40128025 -0.5798256 -0.108220235 0.6953176 0.11202692 -0.20991215 0.3428819 0.0878369
41 -0.6039645 -0.35952058 -0.27279145 0.06324927 -0.39202988 -0.85343593 0.7832325 -1.0797975 0.23954065 -0.6808575 -0.9296254 -0.0006900963 -0.35211825 -0.024573758 0.13128129 -0.25351617 -0.5647537 -0.1291004 -1.0633796 0.27142465 -0.004522119 -0.8194597 0.58178025 -1.0968761 0.80931294 0.024019824 -0.3331235 -0.57650816 -0.037611496 -0.29607853 0.21181242 -0.1919805 0.15377693 1.0298641 0.3015467 0.7560448 0.35921443 -0.36501592 -0.015137655 -0.056801334 -0.06664038 -0.34696072 -0.6201826 -0.16230883 -0.11798514 -0.53757036 -0.015232442 -0.5975484 -0.98943543 0.89401984 -0.17344588 0.2386698 -0.4422663 -0.42582634 0.15044495 0.30575055 -0.58147854 -0.66352385 -0.107889764 0.6870623 0.058174573 -0.36399123 0.39731687 0.26881874
13 -0.81900245 -0.13305426 0.08214872 0.28212953 0.39217395 -0.7031604 0.026593339 -0.1774219 1.3648956 -1.0681536 -0.44164726 0.6426336 -0.3640272 -0.13973634 0.4900196 -0.4093871 -0.33745497 0.07903152 -0.81759197 0.12468728 0.3307752 -0.07619648 0.15796629 -0.2781596 0.48843527 0.10519238 -0.01565013 -0.022573018 0.26248595 0.0799067 -0.4994082 -0.6642746 0.8959548 0.14691047 0.005963258 0.50730443 0.118817694 -0.33501595 0.24003208 -0.109928176 0.41312125 -0.14267048 -0.02919971 -0.31190163 -0.15066059 -0.14646102 0.6282674 -0.73912627 -0.70134795 0.15138753 0.08899927 -0.15144677 -0.5590159 0.019559365 0.11139753 0.5097282 0.027262144 0.0589362 -0.09454772 0.5495563 0.16699429 -0.49543682 0.025987208 0.5126304
239 -1.022836 -0.0104660615 -0.11379971 0.4864653 -0.51643366 -2.236448 0.8074881 0.33898 0.8482083 -0.55649203 -0.90322894 -0.65006804 0.276721 -1.5575526 0.8743675 -1.560098 -2.7052116 -0.90441513 -1.0875357 0.753461 -0.44812578 -0.8390436 0.38578013 -1.7333502 0.40030426 0.025827294 0.19424276 0.6278274 0.82433194 0.22890395 1.8483448 -1.0231594 1.696879 0.06582418 0.9192991 1.7327003 -0.13444883 0.25835508 -0.15122955 1.2650898 0.03190754 -0.048556443 -1.35074 -0.2698777 0.37025532 -0.9899719 -0.36703518 -1.2537364 -0.8023592 0.19463587 -1.039432 0.38893825 -1.2783415 -0.42415202 0.3439124 0.19323826 0.47563708 -1.3320502 -0.6425886 0.26722655 0.36998028 -1.117043 -0.4836687 0.58220464
50 -0.7552798 -0.15697275 0.027984904 0.3341128 0.3208763 -0.7123288 0.02715565 -0.17005774 1.3482833 -1.0565325 -0.4470154 0.61447954 -0.2892904 -0.21085446 0.52087784 -0.43248138 -0.33358335 0.16482304 -0.90135 0.17777361 0.26274016 -0.099752955 0.23138718 -0.33985782 0.49707523 0.105997935 -0.1753094 0.0070965285 0.26979166 0.14521886 -0.5250162 -0.71604246 0.87318975 0.15600309 -0.04882187 0.4155232 0.1881104 -0.33781016 0.26254788 -0.10367759 0.37227252 0.007547778 0.01725267 -0.33277982 -0.10525752 -0.10766649 0.5931785 -0.7654542 -0.66152495 0.12784685 0.018073495 -0.19314536 -0.45938122 -0.026399026 0.14054611 0.38635603 0.008727535 -0.048245937 -0.18578139 0.42487386 -0.05792385 -0.5317398 0.1607565 0.7517021
74 -0.69962066 -1.0792221 0.65990317 -0.49188364 0.7686269 -0.8709834 0.4794226 -0.5207136 0.42118752 -0.31063458 0.043053832 0.6952862 1.0359012 -0.06996225 0.47390744 0.0235153 -0.8761575 0.42974767 -0.6383666 1.1510881 0.050492782 -0.3555848 0.57742965 -0.60059196 0.54846627 -0.2462512 -0.21291105 -0.40018722 0.3946605 0.16518839 -0.18226475 -0.6402849 -0.39332202 0.4394565 0.24690612 1.2105331 0.36015102 0.09780348 0.30846304 0.02860653 -0.06566623 0.16960028 -0.33047917 -0.2219606 0.0030786665 -0.049751267 -0.28789222 -1.1072592 -0.4182798 0.2796419 0.14945717 0.30750307 -0.38172868 -0.5320399 0.23217285 0.1659033 -0.2678845 -0.50852466 0.2425186 0.4420504 -0.13848785 -0.7940134 -0.07269498 0.028297441
79 -0.7151358 -1.084363 0.6606269 -0.48460796 0.75039864 -0.86126333 0.49591333 -0.47431588 0.42585045 -0.31497204 -0.0021620174 0.7498913 1.0215881 -0.0010715922 0.44263262 0.090422 -0.8477257 0.4839174 -0.5512272 1.038458 0.040614672 -0.34836188 0.656113 -0.6383028 0.57676286 -0.28395188 -0.20482004 -0.4555467 0.22430095 0.23471014 -0.11997238 -0.6964825 -0.35906824 0.48442382 0.2063841 1.181426 0.2756991 0.12417465 0.40893596 -0.0062020435 -0.04581123 0.2343916 -0.26526505 -0.28129518 0.034137033 -0.10421462 -0.26642463 -1.1909208 -0.381055 0.38082328 0.26901543 0.38152295 -0.598957 -0.29392755 0.17450209 0.18832326 -0.1963747 -0.5205336 0.23095596 0.4506352 0.033903293 -0.7212143 -0.21453498 -0.17477885
112 -0.74086016 -0.2885313 -0.13454548 0.7757918 -0.15900712 -1.5002314 0.65374655 -0.916053 -0.111216694 0.13163017 0.046802465 0.4681003 0.58208215 -0.36846685 0.8272207 -0.17868 -1.2993897 -0.3739248 -1.0398977 0.2476697 0.20225137 -0.6843319 0.5899154 -1.2855285 0.21715839 0.09202049 0.028262561 -0.7621236 -0.009759673 0.1936669 -1.1815004 -0.2678562 0.48402107 0.26722622 -0.12056718 0.79121023 -0.10935524 -0.23658125 0.07356167 -0.011899736 0.39421102 -0.15188807 0.10576317 -0.16657215 0.371208 -0.25801706 0.50651824 -1.0792872 -0.46814132 0.25829723 -0.13569926 0.4877965 -0.09180097 -0.019166736 0.08043931 0.1293726 -0.05489628 -0.47001958 0.10063812 0.06105967 0.07492639 -0.36751628 -0.5418196 -0.007502969
130 -0.7218628 -0.31289586 -0.090091124 0.88214856 -0.13453512 -1.4307623 0.6844824 -0.9504113 -0.10311191 0.13470897 0.068341814 0.51177424 0.56466085 -0.37160102 0.74415505 -0.24448739 -1.2707548 -0.36941248 -0.9442809 0.38918987 0.13814595 -0.66679984 0.5273227 -1.3557 0.28694117 0.22551951 -0.118582316 -0.73704815 0.0437282 0.04108207 -1.2383479 -0.36664495 0.4801357 0.17884097 -0.14419267 0.74681395 -0.067491345 -0.34658718 0.18867972 0.031972483 0.34029257 -0.099481 0.0025787938 -0.014926698 0.3816383 -0.32241735 0.34936047 -1.105671 -0.49882612 0.25526172 -0.2836005 0.42692518 -0.09520738 -0.13325593 0.037679885 0.050616037 0.077924564 -0.37076896 0.06374881 -0.12522809 -0.012926113 -0.39227217 -0.4502642 0.1524903
225 0.06263381 -0.6694824 -0.73696715 -0.52592725 0.24064898 -1.064779 1.0580566 -0.6430389 0.6096922 -0.5895521 0.24522622 0.8453896 0.07543567 -0.55577534 0.81143486 -0.80960387 -0.72255594 -0.22546978 -0.6910034 0.10124165 -0.5306603 -0.13157926 0.74580777 -1.2248594 -0.008342107 0.35690394 0.64064723 -0.23178509 0.43640196 -0.5043741 -0.41861355 -0.7612838 0.3367027 0.42192936 -0.07270437 0.93254054 -0.01750892 0.05033659 0.21154511 -0.20912167 0.040702727 -0.23623776 -0.23189408 -0.06049086 -0.018348103 -0.063248344 -0.4344257 -1.1067967 -0.36080107 0.6957362 -0.099476844 0.52943164 -0.50424415 -0.38111678 -0.01624376 -0.16078152 -0.72274715 -0.5688808 -0.14930154 0.24991567 0.43096694 0.12883584 0.11444401 0.31366014
163 -0.053849075 -0.6443168 -0.6806764 -0.37412363 0.24917735 -1.0578743 1.0685778 -0.5583986 0.6586271 -0.6016861 0.2801723 0.7681137 0.04595145 -0.4861121 0.85063547 -0.81624717 -0.6919606 -0.22771499 -0.59530765 0.027645685 -0.5144049 -0.2119957 0.78526706 -1.1988307 -0.048701838 0.2437701 0.8250639 -0.24952954 0.3914013 -0.45860788 -0.31076244 -0.7262073 0.32870725 0.53388804 -0.014091186 0.8978762 0.013614483 0.024863753 0.2883861 -0.37021226 0.065065354 -0.18419002 -0.10303089 -0.16391702 -0.078510866 -0.17662618 -0.34112042 -1.1588205 -0.36176357 0.6531667 -0.07285084 0.5809566 -0.43977442 -0.45214203 0.026514683 -0.047346607 -0.774317 -0.59805864 -0.30226615 0.19915418 0.5901638 0.009139649 0.08534327 0.16217723
258 -0.43915397 -0.2882662 -0.14378947 -0.889527 0.25035888 -1.2024992 1.0195111 -0.5886274 0.38520652 0.05902312 0.13842797 0.10896579 -0.30973852 0.14178191 0.32466525 -0.52138317 -1.2722098 -0.8194253 -1.1774751 0.0701384 -0.20157091 -0.31335467 0.7024498 -0.28511176 0.45019457 -0.6331616 -0.40311012 -0.53372973 0.12233134 -0.35230386 -0.74617594 -1.1268446 -0.20696212 0.12418898 0.8742234 0.9144887 0.14572115 -0.15830992 -0.028771965 -0.6524162 0.52853733 -0.16975933 0.56854963 -0.014933587 0.1187945 -0.6173865 0.09105681 -0.67727196 -0.9062151 0.59342694 -0.11569451 0.30315152 -0.18060437 0.17753589 0.10527547 0.07142618 -0.18269686 -0.42055017 0.17712758 0.36770207 -0.088543095 -0.67454404 0.26547247 0.07179635
67 -0.39825016 -0.25888017 -0.11012349 -0.8126331 0.28664663 -1.1564276 1.0441296 -0.62349653 0.35007814 0.041712627 0.118750066 0.16525893 -0.2954126 0.1983633 0.29168952 -0.5077776 -1.2470738 -0.8204221 -1.1441145 0.18745904 -0.24467918 -0.24991824 0.6234718 -0.35454506 0.4978604 -0.49012756 -0.56788576 -0.5359625 0.1363359 -0.5022533 -0.8530787 -1.2599847 -0.24243815 0.05285886 0.8372709 0.9120623 0.11226113 -0.23709406 0.08573382 -0.6174529 0.45924696 -0.24199939 0.47719663 0.08664341 0.15194896 -0.6738768 -0.07483897 -0.7417319 -0.9161263 0.5837061 -0.17430758 0.28955957 -0.24220322 0.10361977 0.020349089 -0.012101746 -0.01738161 -0.25001138 0.19854447 0.23846653 -0.060112145 -0.6187514 0.3778988 0.14842455
59 -0.68518233 0.5962194 0.32460955 0.26116696 0.51330495 0.09878346 0.20165858 -1.0101776 0.912139 -1.5749586 -0.19519186 0.8915726 0.3873582 -0.709773 -0.4816969 -1.3730483 -0.6238029 0.05935545 -0.19944537 2.3138008 -0.21221058 -0.5543544 2.278706 0.030863563 0.7538357 0.28777003 0.39349067 0.70833856 0.04081295 -0.34508237 -0.12160909 -0.992493 0.5516402 1.0950761 0.3425829 1.4160928 -0.09586251 -0.033980377 0.46290043 0.016334731 0.80753535 -0.5176683 0.0038824044 -0.16392052 -0.17292356 -0.12975183 -0.148507 -0.48437148 -2.106969 1.103689 0.31247926 0.081842616 -1.0766425 0.002022431 0.16525252 0.3611399 -0.036845107 -0.7705044 0.55073273 1.0945288 -0.36202678 0.1860071 0.14536732 0.5079934
60 -0.91308564 -0.07076984 0.22443505 -0.16056763 0.43146268 -1.0712643 1.3785452 -0.44420448 0.91822684 -0.7944946 0.5555617 0.63862085 0.37050185 -0.32924756 -0.20507044 -0.87295175 -0.84690803 -0.16221678 -0.4052157 0.37893733 -0.31700864 -0.4716735 0.85492074 0.26616418 0.015954714 0.19735605 -0.46045876 -0.5210211 -0.10260673 0.39100233 -0.441796 -0.7486076 0.59826267 -0.005598452 -0.5043244 0.74624586 -0.33249933 -0.47724596 0.88473356 0.041606486 0.0030460833 -0.045741227 -0.12523063 -0.20769492 -0.38801467 -0.14469217 0.20360237 -0.50187236 -1.3686129 0.32663888 0.44901985 0.7403255 -0.47393474 -0.48124975 0.20255238 0.11545324 -0.4798084 -0.19867846 0.47468993 0.2858792 0.17871302 -0.027910361 -0.27045816 0.33788967
34 -0.89193976 -0.053408433 0.22651641 -0.11274832 0.4073896 -1.0733905 1.3145658 -0.47370923 0.9013297 -0.76996696 0.69244045 0.5953719 0.39100614 -0.36181095 -0.117243625 -0.86654955 -0.88102186 -0.18253058 -0.4205108 0.41030744 -0.2021471 -0.5483337 0.8351145 0.25006732 -0.07196449 0.18164153 -0.48166212 -0.44601822 0.027109038 0.42470142 -0.41538042 -0.6164451 0.5707113 0.082889766 -0.48021626 0.727221 -0.25592613 -0.5243464 0.81486386 -0.02814102 0.037126098 -0.17638119 -0.15013708 -0.23788829 -0.39715478 -0.013094875 0.19788969 -0.3433764 -1.4251935 0.34946075 0.43284172 0.7121905 -0.23745812 -0.6279374 0.27265456 0.26946604 -0.6211194 -0.31119147 0.5060775 0.35592413 0.14153261 -0.17474313 -0.12561406 0.43351912
133 -0.14906235 0.22590959 -0.40127814 0.42631784 -0.15846184 -1.2271852 0.36534455 -1.0872697 0.5846109 -0.3877143 -0.18506649 0.5720652 -0.039336387 -0.6985276 0.08284221 -0.37925285 -0.9033122 0.49297243 -0.4337525 0.2779831 -0.17575635 -0.54828274 1.1509224 -0.20410822 0.046185188 -0.33128002 -0.11407219 -0.28830147 -0.15381348 0.12493109 -0.52329195 -1.113132 -0.4793297 -0.297269 0.20985624 1.1151183 0.48413935 -0.3949998 0.53208923 0.1405436 0.43919885 -0.7198786 -0.09187808 -0.41889238 -0.26519924 -0.040136565 -0.2677009 -0.72142965 -0.24732062 0.4979632 -0.17382765 0.477689 -0.8363653 -0.40432015 -0.70868737 -0.04951328 -0.5817399 -0.514325 0.14643744 0.70950073 0.42946374 -0.9197843 -0.24270594 -0.2519293
55 -0.10672269 0.25000912 -0.391036 0.42939988 -0.07447186 -1.1895144 0.34121495 -1.0864896 0.60020673 -0.37350038 -0.21560721 0.5867646 -0.0066006477 -0.6694572 0.16785616 -0.3777048 -0.9555638 0.36271816 -0.41608596 0.39402476 -0.13696454 -0.5364373 1.0525888 -0.23376308 0.031127086 -0.24580479 -0.10405107 -0.2845147 -0.040020183 0.085916966 -0.5953913 -1.094168 -0.44539043 -0.3397006 0.32899973 1.1059524 0.5304836 -0.35047105 0.48333177 0.19856139 0.41223237 -0.9559038 -0.22797216 -0.39837542 -0.373451 -0.109223925 -0.2854852 -0.606389 -0.270445 0.35762137 -0.14312413 0.4420605 -0.6503765 -0.6507935 -0.61521864 -0.022360751 -0.527212 -0.47124022 0.23732689 0.7237416 0.4723783 -0.99996275 -0.13173302 -0.20547219
77 -0.9698675 0.36904463 0.20243414 -0.05049214 0.12539794 -1.0883951 0.6203415 -0.7956853 0.16803832 -0.36107996 0.2208119 0.68989986 0.12374436 0.015350506 0.7280231 -0.69689155 -0.43429303 0.46669102 -0.9693157 0.9044537 -0.21241482 -0.20702197 0.636576 -0.2825586 -0.06750192 -0.6565505 0.3719196 -0.5315603 0.27472925 0.0012427765 -0.77879655 0.004437095 0.44697303 0.11379528 0.2058628 0.68857485 -0.30729228 0.22332332 0.24803217 0.3274155 -0.13540544 -0.49552572 0.0007400113 -0.5642786 0.31813663 -0.48048103 -0.9499969 -0.78008205 -1.481595 0.7567847 -0.12911074 0.59970856 -0.34724954 0.44124702 -0.22782607 0.06108283 -0.29665688 -0.7384549 -0.15537724 0.29983962 0.6116351 -0.5450363 0.37027156 0.21329193
241 -0.8515564 0.3920137 0.2657207 0.026157739 0.17210028 -1.1188065 0.6274182 -0.79734 0.18373184 -0.40106538 0.17906328 0.6176192 0.1326902 0.00024599602 0.864974 -0.74982953 -0.37008765 0.48165408 -1.0333444 1.0111238 -0.34785098 -0.23616435 0.6742949 -0.33823648 -0.049132887 -0.59805334 0.24608992 -0.51394564 0.2432044 0.06313472 -0.77084297 -0.115786806 0.35177347 0.038447578 0.13238326 0.6040336 -0.19316344 0.17205116 0.31986028 0.3830883 -0.121661 -0.59549505 -0.018180469 -0.45626286 0.33722636 -0.38236052 -0.9680768 -0.8344189 -1.4708555 0.8343428 -0.06685166 0.61260957 -0.2793461 0.382469 -0.31160468 -0.083102405 -0.110976435 -0.6553369 -0.17633124 0.083161 0.4990443 -0.5465746 0.41349897 0.42866674
231 -0.5515429 -0.20397614 0.24929743 0.55041456 -0.34220418 -0.81761795 0.9748089 -0.65877986 -0.079380415 -0.96778405 0.081305295 1.018023 0.022138493 -0.6026565 0.27462956 0.30768526 -0.9091791 -0.23541799 -0.8750803 0.0624147 -0.28792018 0.26594093 0.8103165 -0.25401354 0.54450977 0.34964347 -0.76399285 -0.52483505 1.3676219 0.3429306 -0.15146752 -0.72452706 0.5056191 0.17932281 0.15774573 1.2119119 0.2044452 0.36884728 0.5051544 -0.11858918 0.030869761 -0.01448611 0.015648516 -0.3149547 -0.60513663 -0.47388393 -0.36210608 -0.80520207 -0.6869496 0.6932459 0.019337866 0.33411846 0.09064411 0.0546214 -0.36948362 -0.12755403 -0.13691369 -0.92335963 0.3928113 -0.09670347 0.42169276 -0.7863328 0.14300095 0.18012762
204 -0.6002839 -0.1738613 0.28191957 0.43600878 -0.333752 -0.7985086 0.9593521 -0.64268345 -0.078122705 -1.0474466 0.15711147 1.0337657 -0.020683078 -0.58224875 0.27421337 0.31868806 -0.99671465 -0.25092667 -0.9481631 -0.16667546 -0.25483817 0.22136799 0.87542444 -0.20108546 0.50368166 0.23558028 -0.6083881 -0.54428405 1.2579429 0.4538756 -0.06666493 -0.6688904 0.5362026 0.15587626 0.1678172 1.2416551 0.20182979 0.457682 0.42620027 -0.19700465 0.009237243 -0.01623319 0.011605017 -0.41322225 -0.5504296 -0.4927028 -0.24636759 -0.7888447 -0.63374037 0.63142836 0.17091264 0.3944611 0.087048806 0.22395302 -0.41957122 -0.07996073 -0.23649958 -0.9877382 0.34186748 0.11957997 0.5671116 -0.69730395 0.039667055 -0.019959811
157 -1.1738722 0.03805538 -0.31742898 -0.15479204 0.12013388 -0.93378067 1.3259809 -0.3931539 0.04551687 0.08515974 -0.42437357 1.3203816 -0.28350487 -0.3037438 0.41988462 -0.17878638 -1.1484115 -0.37046084 -0.8148 0.61703604 -0.71547526 -0.82743794 0.65722823 -0.7368753 0.4999651 -0.8322302 -0.57663226 -0.110540204 0.30147567 -0.3441644 0.16572143 -0.50298727 0.5180706 -0.14849804 -0.20825796 0.6799536 -0.3747875 -0.026853602 0.5431142 0.044581417 -0.42747307 -0.7505677 0.1970841 -0.19967073 -0.087318644 0.144996 0.13486156 -1.2692695 0.19271737 0.22296253 0.30810186 0.298949 -0.52935606 -0.3710977 0.2773574 0.4155282 -0.51581657 -0.78750724 0.04920161 0.31226805 0.24769373 -0.43997163 0.1486673 0.44264767
51 -1.2028357 0.05912595 -0.33367893 -0.1463569 0.14128964 -0.84524775 1.2430878 -0.37670815 0.07250552 0.035218786 -0.48013273 1.2559733 -0.2545278 -0.21566755 0.23547436 -0.29154554 -1.2161508 -0.23730457 -0.6278035 0.5716234 -0.61897236 -0.7933805 0.6279233 -0.757797 0.4852119 -0.958335 -0.4677316 -0.3059317 0.23133136 -0.4226758 0.11335083 -0.47872785 0.60079944 -0.1424994 -0.26872376 0.7410357 -0.3327253 0.04835439 0.6460499 0.047491115 -0.31195435 -0.6296079 0.16668653 -0.28502285 -0.08109896 -0.0961625 0.10686109 -1.4550705 0.17473042 0.1852755 0.34539932 0.34896564 -0.51650405 -0.438454 0.15423842 0.46098006 -0.47228092 -0.74845034 -0.013404895 0.054044887 0.31511033 -0.48242512 0.19370756 0.39241287
135 -1.1862793 0.05043045 0.22225662 -0.21155663 -0.1852045 -0.8983612 1.6895747 -0.9194272 -0.021290215 -0.60954976 -0.23625721 -0.23730221 -0.22762047 -0.60805553 0.73448694 -0.2039745 -0.7475194 0.19425939 0.035191078 0.46860608 0.5428107 -0.25099504 0.88963306 -0.33509672 0.07803512 -0.037648756 -0.19568613 -0.037752237 0.044022232 -0.23517942 -0.97539204 -1.29859 0.571646 0.043761525 0.054968577 1.0993327 -0.44907126 0.5399984 0.26402068 -0.36924398 0.118139155 -0.2851194 -0.7570616 -0.5651401 -0.09893551 0.41035903 -0.047279693 -0.96170634 -0.38992888 0.6097797 0.028277488 0.10941474 -0.19469044 0.087070145 -0.20732142 0.058984216 -0.09851133 -0.70784754 -0.11675454 0.5168887 -0.06242724 -0.4805767 -0.088397354 0.18897708
166 -1.1363556 0.089335226 0.24564224 -0.22688347 -0.19582117 -0.71630365 1.6662226 -0.916765 -0.048256915 -0.4955745 -0.24564402 -0.08463452 -0.15938081 -0.68233997 0.7326537 -0.22313689 -0.69828147 0.12687764 -0.017621899 0.6153848 0.53423584 -0.34236416 0.7862887 -0.40109903 0.09886056 0.018998386 -0.33252203 -0.090750426 0.16887788 -0.36961606 -1.0877771 -1.3704761 0.65437657 -0.010348974 0.068916924 1.1290613 -0.3300083 0.44130963 0.34070882 -0.28377128 0.04718405 -0.25933948 -0.8914233 -0.4093193 -0.08407591 0.4664484 -0.11490675 -0.90489227 -0.4648208 0.5640941 -0.032413308 0.07445076 -0.16599205 0.04840604 -0.30076334 0.030589417 -0.028738339 -0.59261 -0.34215322 0.51355565 -0.10591751 -0.43045783 0.00031938354 0.22422324
43 -1.4996808 -0.7313945 -0.07801709 0.72763693 -0.10668899 -0.3450445 0.5023649 -0.7139378 -0.05493226 -0.6627124 0.7128453 0.3898959 -0.047667205 0.22439545 0.69631207 -1.1233468 -1.0864581 -0.04841235 -0.63297915 0.7965697 0.067806385 0.388596 1.3218592 -0.5878734 -0.1863047 -0.4295066 0.079702124 0.57193446 0.3879932 -0.38913333 -0.18667753 -0.15057693 0.39834037 0.16915756 0.40608004 0.68200266 -0.14202338 0.17607781 0.88616306 0.079154074 0.3306399 0.18595411 -0.06737729 0.060210563 -0.65384036 -0.096444905 0.38646135 -1.1156358 -0.9627323 0.11819112 1.0018883 0.3329305 -0.38245144 0.038196176 -0.00039434567 0.1308415 -0.1254554 -0.1213872 0.07274239 0.27277276 -0.17723534 -0.7266056 -0.22486162 0.3030175
247 -1.4666042 -0.6748909 0.052799582 0.7408643 -0.14203857 -0.17547737 0.55736816 -0.56656796 -0.016673503 -0.53886765 0.7620624 0.4909337 -0.007033039 0.16229218 0.6919599 -1.0972815 -1.0021335 -0.072020635 -0.80360126 0.8482764 0.04142662 0.27773133 1.2835889 -0.6220426 -0.12114583 -0.31313533 -0.06512404 0.61909574 0.52852 -0.43693718 -0.37930363 -0.2526915 0.23430996 0.18916053 0.35491896 0.7021121 -0.12823625 0.031126337 1.0487663 0.04738859 0.3028304 0.2707026 -0.15719217 0.09309896 -0.706255 -0.105176754 0.35652912 -1.1695358 -0.92329687 0.16383342 0.9031887 0.5172647 -0.50651366 0.031038819 -0.19262502 0.10513132 0.025785282 0.017543877 -0.0054365667 0.2791959 -0.08981883 -0.55801284 -0.093324706 0.50829893
158 -0.42901635 -0.36263913 -0.6609517 0.15891331 -0.025770618 -1.5249048 0.97295296 -0.996591 0.80609506 -0.05353825 0.17633174 0.56386924 -0.5777819 0.37227666 0.4808265 -0.6014115 -0.16917977 0.034266762 -0.39124084 1.0836908 0.3753785 -0.30769473 0.6495602 -0.64612496 0.6464711 -0.02338364 -0.48400113 -0.45287213 0.7088692 0.21082759 -0.57764035 -0.67731065 -0.26135793 -0.2991163 -0.33585018 1.2408249 -0.16493547 0.07216987 0.062433094 0.08442388 -0.5876047 0.024441695 -0.09958099 -0.89081275 -0.6569823 -0.40830457 0.3015053 -0.9405368 -0.57720774 0.26834366 0.4419182 0.77603453 -0.06656532 0.27833754 0.4873737 -0.107932836 -0.5271987 -0.9056852 -0.27536628 0.35577902 0.13300844 -0.6308368 -0.3319231 0.044760786
251 -0.3921581 -0.3431645 -0.6768304 0.21761607 0.03409807 -1.4655178 1.0226246 -1.0079917 0.7946211 -0.10430128 0.053809088 0.52567077 -0.5197716 0.43947813 0.3604321 -0.6034827 -0.2081711 0.008077193 -0.37830836 1.2367593 0.23546182 -0.19635226 0.56816906 -0.7247248 0.6493594 0.065360755 -0.52377415 -0.48866168 0.76732534 0.06342439 -0.713188 -0.78260106 -0.25920698 -0.386297 -0.4977473 1.1812242 -0.08964005 -0.028166508 0.2943347 0.12229341 -0.57820976 0.11950737 -0.24911349 -0.75622606 -0.6427181 -0.5054526 0.17411992 -1.0522213 -0.53952074 0.23121966 0.3138107 0.7688642 -0.1535618 0.2917864 0.37455165 -0.201372 -0.33637822 -0.7017477 -0.38553688 0.21127203 0.14179705 -0.60917735 -0.24396336 0.057521444
75 -1.9101702 -0.2473526 0.18890953 -0.9303771 -2.0367832 -1.0448636 1.7589577 0.7160711 2.019596 -2.1586115 1.2499349 -0.0021571352 1.1095276 -1.9871758 0.87732846 -1.7432204 -1.301252 0.6302092 -0.9465059 0.66572624 0.017640254 0.37717256 1.619893 -1.9413238 2.3790762 -0.5149456 -1.7863486 0.4867963 2.1060972 0.03703549 -0.8586792 0.41064882 0.41257888 0.52498263 0.35576215 1.7902147 -1.0891947 -0.7605361 -0.0147252055 -1.0402026 -0.25642714 -2.0515668 -0.16292149 0.15029944 -0.24790931 0.123641424 0.7341337 -0.60296446 -1.3431059 0.1518317 0.48848766 0.52198356 -1.8625901 -1.2074978 -0.88865703 -1.2733768 -0.20654449 -0.89374804 0.2199851 0.12619662 1.6311888 0.9706572 0.7196928 0.49325493
205 -0.7330681 -0.4956289 -0.23629373 0.21317056 -0.1544837 -0.5729955 -0.191945 -0.17163788 0.40629315 -0.27199405 -0.37992087 -0.063942485 -0.16345839 -0.12294145 -0.10333097 -0.48132282 -0.7856355 -0.28938466 -0.6133736 0.31998327 -0.1343467 -0.3163584 0.29057786 -0.37508938 0.57238483 -0.3034862 -0.070140295 0.2630512 0.46295574 0.29872882 -0.5367024 -0.69874495 0.5532242 0.21076025 0.2789456 -0.095195204 0.28167918 -0.28906167 0.02865349 0.016458478 0.224725 0.42024717 -0.17945363 -0.40829352 -0.17428525 -0.24258704 0.06435718 -0.64623284 -0.79856527 0.30306506 0.6995706 -0.07610538 -0.36441073 -0.1847794 0.16124758 0.5081966 0.44354168 0.07027589 -0.55409205 0.6614286 0.08583774 -0.37574506 0.13706449 0.20524147
228 -0.4095095 -0.4567075 -0.30499426 0.8121584 -0.16370933 -0.51296735 0.84362894 -0.03291924 0.749999 0.110024236 0.07493586 1.2422981 -0.17138281 0.3875164 0.69648 -0.20671006 -1.4909871 0.065070115 -0.36487764 0.8929068 0.10151382 -0.084217206 1.0962329 -0.4138171 0.2725529 0.14530535 -0.3131287 -0.5340981 -0.54174745 -0.18706934 -0.62973714 -1.2165551 0.4322006 0.2347677 -0.26260254 0.71719223 -0.1954312 0.44016916 0.37675577 -0.90385044 -0.0631119 -0.58505195 -0.4416434 -0.480244 0.008180844 -0.2669073 0.015775751 -0.13920479 -0.92495304 1.0303675 0.06969678 0.5789517 -0.5727333 0.04910645 -0.50185746 0.40448707 0.08117719 -1.0886848 -0.039397594 0.17059967 0.7268901 -0.19110969 0.2758078 0.587103
175 -0.40951008 -0.543928 -0.33370894 0.7866793 -0.15969573 -0.615912 0.91237867 -0.046443507 0.68922466 0.0947203 0.0966945 1.278867 -0.2564322 0.30159783 0.75165707 -0.26749992 -1.5538461 0.029442504 -0.3292072 0.9968437 0.12933262 -0.0805509 1.0668579 -0.30686986 0.35038322 0.17214438 -0.35693133 -0.5074534 -0.48650852 -0.32961813 -0.67856354 -1.2032201 0.45174137 0.29651192 -0.19717805 0.7760989 -0.22564758 0.33980182 0.23362507 -0.8287304 -0.05421818 -0.5091124 -0.36979023 -0.39441726 0.027715478 -0.26418638 -0.06272688 0.15504177 -0.9318309 0.85165846 0.044155624 0.4752378 -0.5820907 0.045459285 -0.47391272 0.37867415 -0.14121635 -1.1786101 -0.09091255 0.02302032 0.5280444 -0.49968734 0.2437025 0.7788511
171 -1.5324506 -1.6885539 -0.83887345 -0.56713486 -1.4975598 -1.7719074 1.7301767 -0.2913471 1.2025925 -1.6940125 0.014787001 0.11721406 1.6251173 -0.5985366 0.82155085 -0.5279392 -1.415639 -0.5995158 -1.3584167 1.7703767 0.39097187 -0.17298824 2.3053672 -0.8578434 1.8965584 -0.62325543 0.050568927 0.02128887 1.6446933 -0.26370463 -0.6825559 0.34956795 0.17731743 -0.6563207 0.5064246 1.3463187 0.63145185 -0.7663118 0.37611708 -0.90708774 0.058324967 -1.953054 -0.7768986 -0.34118208 -0.44983718 0.036570974 0.34952682 -0.7151079 -0.34745482 0.12170394 0.75791913 0.035464898 -1.8847095 -1.2515707 0.6203548 -0.29689047 0.37921116 -1.0547987 -0.48884514 -0.15067041 0.90018225 -0.016217506 -0.06853534 0.08144738
125 -1.7541125 -1.7131797 -0.7375601 -0.9205927 -1.7460091 -1.5988404 1.9369493 -0.016927458 1.5041534 -2.0714996 0.3346308 -0.024801545 1.6608514 -0.69854134 1.050804 -0.4649543 -1.3980036 -0.3867016 -1.5221155 1.9318856 0.5670653 -0.237294 2.5642993 -1.006986 2.1876252 -0.93418926 -0.15119338 0.06810625 1.973641 -0.1421301 -0.5164701 0.3923726 0.15019545 -0.6652164 0.6732191 1.4811171 0.7208458 -0.96775204 0.2609525 -1.1793817 0.1651777 -2.2977905 -0.9728789 -0.07131752 -0.48891062 0.04869576 0.4912547 -0.69269 -0.2554871 0.07200353 0.8300817 -0.021142172 -2.2878752 -1.6053901 0.55529475 -0.49248508 0.5592776 -0.9933787 -0.37276104 -0.29427254 1.0333403 0.13409255 0.12583382 0.027843341
86 -1.2460119 -0.8888605 0.2248684 0.01632839 -1.0080931 -1.8818779 0.96770924 0.39512742 1.2359475 -2.0558543 1.0130329 0.37742585 1.2714864 -0.51499283 0.60476345 -0.40853304 -1.899698 -0.2159621 -1.1492367 1.1684811 0.45791718 0.56684303 2.1906846 -0.3328684 0.82709485 -0.6562498 -0.0976926 0.43979287 1.2455931 -0.26473406 -0.8642177 0.42260477 0.6714618 0.787403 -0.072500646 1.3981341 0.5626574 -0.86259955 -0.2896849 -1.2392151 -0.22563973 -1.5174366 1.0507146 -0.32046884 -0.7014852 -0.80665725 -0.07607248 -1.2450936 -1.1285434 0.8518379 0.114710875 -0.40249783 -0.99776876 -0.92589056 -0.6816809 -0.75497395 -1.415473 -0.2475337 -0.80276585 -0.3092208 1.2923576 0.3170732 -0.686606 0.4282485
128 0.370833 0.10770804 -0.3996364 0.49184048 0.7170001 -0.32866076 1.0723486 -0.27225867 0.28190324 -0.47417638 -0.4849149 0.083817445 0.68545467 0.13116916 0.51105183 -0.603222 -0.59070665 0.27991074 -0.62983835 0.04331599 -0.20122467 -0.88720274 1.3743721 0.252304 0.9306342 -0.3671592 -0.20932281 -0.47203588 0.60531306 -0.43782622 -0.07538901 -0.634155 0.24310966 0.5032152 0.45709822 0.65860504 -0.38245645 0.12680988 -0.22401851 0.30190435 0.050494317 0.18694246 -0.24075007 -0.39626467 0.3007114 -0.38975647 0.16278206 -0.7060833 -0.44215548 0.2272401 -0.65380657 0.2150845 -0.22178347 -0.018083792 -0.07707015 0.5849641 0.06448325 0.029471893 0.13874197 0.34136552 0.03806246 0.20588937 -0.20432547 0.25078854
206 -0.8288425 -0.32636246 -0.9252318 0.121138394 0.098017536 -0.6998413 1.0275241 -0.7882936 0.20990984 -1.1845478 0.22529829 0.6066761 0.8673716 -0.49083626 1.2388644 -0.49861357 -0.93394184 0.38724232 -0.788671 1.2833179 -0.26158065 0.47018453 0.13016383 0.06783655 0.79423034 0.20337994 -0.36551014 -0.67449534 -0.22642389 0.49350974 -0.534872 -0.90986425 0.52405244 -0.051299006 -0.16798586 0.5167631 -0.2079272 -0.21173128 0.39494455 -0.50388515 -0.1843216 -1.0746629 0.2626413 -0.5551975 -0.30456445 -0.4036698 0.258937 -0.9793202 -0.33837068 0.25073183 0.10192361 0.27583477 -0.34386292 0.09878894 -0.42152837 -0.016521834 -0.7492757 -0.5239165 -0.34267038 0.6491727 -0.22436453 -0.4932726 0.2701731 -0.027804658
185 -1.005767 -0.40410998 -0.8664586 0.3078332 -0.024156213 -0.57525593 1.1529016 -0.7689557 0.3281998 -1.2471292 0.3394469 0.54735637 0.81569797 -0.36967054 1.145118 -0.63278306 -0.9193994 0.5519122 -0.7473371 1.1399639 -0.21317689 0.51646465 0.12464663 0.058037776 0.7632942 0.22987205 -0.2456522 -0.65353125 -0.23861594 0.48992687 -0.5504988 -0.9681124 0.36419168 0.12158855 0.053668026 0.40728098 -0.12734255 -0.30540818 0.41003257 -0.4159721 -0.14232361 -0.98780626 0.37527767 -0.6879074 -0.30575728 -0.38190588 0.2681565 -0.9922823 -0.35080886 0.13517328 -0.07236489 0.26259425 -0.27986038 -0.037500497 -0.3531109 -0.041446343 -0.6180607 -0.7424264 -0.42393664 0.6068953 -0.14567551 -0.54983705 0.36303595 -0.042001188
65 -3.1367204 0.6496876 1.3950622 -2.9380019 -3.1186411 -1.3679649 1.6864434 1.0033565 2.8315277 -2.6467254 3.0136805 0.45079905 2.480691 -2.6047719 1.5425904 -2.1835022 -1.8788683 1.5169567 -1.3816952 1.8793861 2.81925 0.65117496 3.2407072 -3.6663973 6.023734 -3.7335129 -3.5891838 1.5666555 3.536313 1.99728 -0.109430976 1.9605368 -0.49430212 0.36644456 1.31616 3.0813274 -1.8730855 -1.3616422 -0.14726855 -1.5557152 0.73996776 -2.0408568 -0.26397774 0.41081288 0.47827774 -0.25147182 0.88733524 -1.082532 -1.1258438 0.10909642 1.7538972 1.5559305 -3.1556096 -3.6341686 -1.8053129 -2.096446 1.8318572 0.28311193 0.41793752 1.1434567 1.3204155 0.12954484 1.7705375 0.4014608
177 -3.1538556 0.66725093 1.4158401 -2.9767625 -3.1641905 -1.3641671 1.7023206 1.0348307 2.8282583 -2.6914093 3.040013 0.4632438 2.4856896 -2.6283698 1.5593835 -2.235477 -1.9193456 1.5492622 -1.3545033 1.9028178 2.852374 0.6583932 3.2681587 -3.7049503 6.1080713 -3.757118 -3.6124833 1.5869333 3.561544 2.0621755 -0.109221205 2.0191262 -0.5404341 0.3557326 1.3133427 3.1123297 -1.8918936 -1.3816849 -0.14513014 -1.5507953 0.770787 -2.0696917 -0.25384897 0.4263514 0.4925604 -0.2659166 0.93676895 -1.0726995 -1.1209147 0.094790295 1.78184 1.5467482 -3.1839285 -3.7040262 -1.8282322 -2.1010506 1.8638616 0.29378468 0.42139754 1.1878972 1.325183 0.11966571 1.8128108 0.37635246
255 -1.8720814 -3.0521448 2.655547 -3.6323311 -2.9838119 -0.9692195 4.1564093 2.3135815 0.67341095 -6.3286037 4.3499317 1.2082556 1.481547 -2.4492028 2.4863234 -3.0375197 -3.044472 1.8411129 -2.5443096 1.8188597 2.1340153 -0.8877899 0.04940574 -3.2772853 2.5132782 -6.0678735 0.24483345 1.1998839 4.0922236 2.456775 -0.63355523 1.133846 -0.28734162 0.16941519 2.175675 1.2226357 0.22197981 -0.48228735 -2.7758603 -2.009626 -1.4676588 -2.4406226 0.98016477 0.5366034 -2.3685777 2.4475443 3.4868422 -3.2596555 -1.0704799 3.1159554 -0.0025283159 0.9216925 -0.06734846 0.108307175 -1.918048 -1.0816504 1.8891667 -3.3351047 -2.0658422 -0.03933311 1.6953154 3.3221788 -2.3289933 3.350223
170 -0.74051 -0.6263327 -0.39210263 0.14505881 -0.082361884 -0.5454036 -0.20995294 -0.22066972 0.42968673 -0.25674105 -0.40189025 -0.020026078 -0.22345251 -0.09275564 -0.16314194 -0.45089763 -0.8961849 -0.2724984 -0.76248807 0.37421578 -0.14053093 -0.32961163 0.138773 -0.28715602 0.7639091 -0.22515063 -0.009407678 0.43223736 0.44226348 0.36547875 -0.5983332 -0.6329429 0.4751454 -0.028443007 0.36490414 -0.080371656 0.17437732 -0.21397199 -0.10293545 0.18966639 0.44627544 0.27818516 -0.3363941 -0.46307328 -0.10217876 -0.29574057 0.012485824 -0.55336285 -0.5741994 0.46109706 0.6603017 0.032741275 -0.52450585 -0.11789541 0.17206965 0.5273311 0.3224999 -0.07877615 -0.08458055 0.5073406 -0.072547406 -0.25460288 0.1565369 0.2075995
151 -0.53781503 -0.61885995 -0.65769273 -0.041310195 -0.68627894 -0.66334414 0.31328252 -0.28807017 0.33238366 -0.5213061 0.8413106 0.2916579 0.4700773 -0.3971262 0.14834961 0.22061339 -0.6433931 -0.32078654 0.39621723 0.3017616 0.09143361 -0.5862384 0.4270707 -0.5225781 0.48694822 -0.39971596 0.7804293 0.23307593 0.09298934 0.047122374 0.06029665 -0.8316054 -0.36326158 0.3728964 -0.22138831 1.250408 0.28534964 0.53702855 1.1151462 0.2567246 0.4487605 -0.82335323 -0.5335997 -0.2925348 0.09968232 -0.10190622 0.15881756 -0.35445797 -1.1454692 0.12926984 0.19472913 -0.0025203626 -0.80212635 0.28239682 0.4517816 -0.26267254 -0.5967712 -0.06450525 0.3374459 0.49271747 0.5141294 -0.6113607 0.18442518 0.54115164
249 -0.5115262 -0.56777304 -0.68448955 0.117820695 -0.62979126 -0.7693881 0.262026 -0.36685532 0.2881487 -0.5222887 0.81631786 0.306497 0.4287339 -0.2482452 -0.0811723 0.28730184 -0.609525 -0.16449326 0.6119712 0.31018877 0.13150969 -0.61320466 0.49895275 -0.53069276 0.3876296 -0.21660925 0.69465923 0.10699637 0.2281164 -0.12762491 -0.0040566656 -0.8970551 -0.38262948 0.21227786 -0.08554945 1.2553275 0.08627798 0.26911622 1.2481015 0.20588197 0.44442055 -0.79414 -0.47837174 -0.30557922 0.18337192 -0.2080828 0.08457275 -0.53559285 -1.2920101 0.23372187 0.20612675 -0.33051538 -0.75092465 -0.053213675 0.33375284 -0.17657234 -0.52606165 0.07127493 0.17720959 0.15677275 0.46793768 -0.5914031 0.22295702 0.5543423
238 -0.47499254 -0.46550867 -0.03853635 0.28622788 -0.27675834 -0.62856865 -0.2124621 -0.28715217 0.21201976 -0.574808 -0.20389354 0.108447574 -0.2645188 0.13762675 0.007688988 -0.63322157 -0.81744486 -0.53882796 -0.87376696 0.30100027 -0.01458359 -0.48673743 -0.0055114855 -0.32361466 0.5019709 -0.18217085 -0.1963015 0.4653689 0.3315934 0.34031853 -0.5643149 -0.59584737 0.570702 0.18017706 0.43399286 0.08230194 0.11506418 -0.62823254 -0.20800254 0.1364415 0.37092322 0.64664537 -0.4569687 -0.45054734 -0.35306093 0.013436037 -0.14143777 -0.26231858 -0.5471039 0.6197303 0.857161 -0.4707047 -0.6154635 0.113764085 0.17251447 0.37373564 0.16163145 0.11639567 -0.46180928 0.74678683 -0.14143538 -0.36279926 0.23223004 -0.057133935
144 -0.5845808 -0.41624197 0.08060268 0.41341025 -0.13587803 -0.6931415 0.7364503 -0.32711336 0.6003002 -0.8790553 -0.14849038 0.5469736 0.39743227 -0.39165145 0.065490335 -0.5418 -0.15984648 -0.79924047 -0.85850894 1.1251837 0.72705865 -0.91080594 0.90873116 -0.48407012 -0.3217099 0.4892912 -0.16887228 -0.35728 0.1268726 0.41580358 -0.31142244 -0.5771437 0.106739864 -0.42219347 0.6897989 0.21673568 -0.4736444 0.6070318 0.52487105 0.011519728 -0.75063396 0.052770842 0.18371604 -0.14027376 0.16119412 -0.62180054 -0.3932441 -1.0433542 0.2792694 0.73847795 -0.46625862 0.5951388 -0.21344863 -0.32024616 -0.8501766 0.45081955 -0.64094365 -0.42814952 -0.32118893 0.76548475 0.39278993 -0.85937524 -0.13233697 0.28182176
226 -0.5205533 -0.50206524 0.023421865 0.3136708 -0.056202922 -0.80503577 0.8395756 -0.26909015 0.53750443 -0.7812192 -0.120504655 0.6353826 0.3142434 -0.42668638 0.13517056 -0.43245658 -0.015492452 -0.8980616 -0.8432022 1.2168714 0.67202896 -0.7333774 0.8879021 -0.5616692 -0.47030047 0.41809428 -0.253026 -0.4095641 0.29454193 0.7150046 -0.38868564 -0.3775095 0.18456665 -0.3564443 0.7063926 0.31671277 -0.43577704 0.71027124 0.48366246 0.15929353 -0.5790286 -0.17610765 0.029489022 -0.14249477 0.15913323 -0.61539865 -0.113107115 -0.8213606 0.3485005 0.8007907 -0.5512191 0.5452855 -0.42177325 -0.2645367 -0.85639435 0.5942457 -0.81418955 -0.3569551 -0.18737324 1.021583 0.44696233 -0.7930564 -0.1995982 0.2731456
80 -0.8671171 -0.22413982 -0.052966952 0.27549818 0.2748776 -0.76092225 -0.016468696 -0.28516808 1.5578367 -1.1959587 -0.3008757 0.53655267 -0.19867943 0.039771117 0.2485626 -0.5943922 -0.18916741 0.3159522 -0.60846066 0.054690603 0.52732366 -0.49849734 0.34616712 -0.18877083 0.34141147 0.2571217 0.0749598 0.030894207 0.03696117 -0.05115414 -0.34319344 -0.7559255 1.0597627 -0.036179226 -0.046917092 0.31474486 0.11319374 -0.5593461 0.36377713 0.13974799 0.27608028 -0.15133709 -0.11455395 -0.23132633 0.05274999 0.114125505 0.6556109 -0.66987425 -0.76137453 0.43116635 0.35747233 -0.14698131 -0.3393136 -0.0931892 -0.16939417 0.20632978 0.2513149 -0.02614945 0.09885551 0.15342657 0.10450339 -0.533162 -0.06907309 0.7029247
49 -1.0179743 -0.7020743 -0.6706392 -0.018801583 0.5129009 -0.92897236 -0.20681192 0.4904438 0.06764292 -0.77703524 -0.003120624 -0.1395907 -0.9182316 -0.7428372 0.15342133 -0.8710298 -0.33462167 0.053095136 -0.5462075 0.3132033 -0.4652693 -0.48920766 1.1908816 -0.60378927 1.30008 -0.15626927 0.20001087 -1.3533792 0.48161563 0.36888143 -0.56316787 -0.5622414 -0.031218814 0.9142478 0.4771575 1.279466 -0.43977123 -0.50774986 0.11505439 0.3424423 -0.39770898 -0.5555733 0.049923144 0.4700471 0.10779277 0.25477326 0.27380043 -0.43809393 -0.37812808 0.2931213 -0.43112314 0.10340858 -0.35302615 0.06668051 -0.15954767 0.06838542 0.2550747 -0.41884944 -0.23847674 0.57512486 0.0047763297 -0.032558687 -0.3976681 0.5221718
63 -0.66198504 -0.33488902 0.055829782 0.022698136 0.09335659 -0.5561543 -0.11988435 -0.13331956 1.4891696 -1.0762188 -0.4607543 0.74854517 -0.33001077 -0.5045309 0.38759992 -0.29688728 -0.38158622 0.17422229 -0.9017831 0.21593639 0.3574856 -0.22707084 0.28412423 -0.350246 0.6871125 0.18412352 -0.09002763 -0.23096505 0.30125794 -0.21166706 -0.5260907 -0.7924254 0.9756699 -0.004425009 -0.04094123 0.46195725 0.19891673 -0.2228323 0.16265589 0.07164167 0.11144123 -0.27442276 -0.09130901 -0.26486436 -0.12525046 -0.24836782 0.7627831 -0.7936692 -0.7180287 0.25271496 -0.112263605 -0.088994935 -0.43543196 -0.20386334 0.078361675 0.21923214 -0.15443255 0.19192049 0.14498404 0.41496393 -0.09969903 -0.43254206 -0.17766361 0.8446233
134 -0.47398952 -0.00059537496 -0.6276438 0.39703515 0.52992547 -1.4940348 -0.60106415 0.045357633 0.512606 0.17323606 -0.53281575 -0.39027107 -0.14876062 -1.2674805 0.42509434 -0.6274672 0.058099866 -0.38941962 -1.541228 0.67993766 0.18789096 -0.15257701 0.9220566 -0.59611434 1.202788 -0.51899755 0.11609437 -1.1821027 0.65883374 -1.1236526 0.2531292 -0.7724688 0.42444062 0.5943316 -0.15601656 0.77013105 0.0218694 0.352912 0.639573 -0.8443946 -0.07075768 -0.2948699 -0.216324 0.12005885 -0.08866098 0.019096155 -0.07322926 -0.2544333 -0.1900205 0.9660803 0.11182774 0.18859577 -0.37344193 0.16803098 -0.2435972 0.3934763 -0.024234978 -0.16073157 0.28551143 0.40595457 -0.09158101 0.13012698 -0.2666257 0.4870917
22 -0.09773665 0.29642856 0.04947428 -0.10500682 -0.548935 -1.1909986 -0.09976076 -0.65939444 0.10193625 -0.4480507 1.4680694 -0.058124617 -0.35878935 1.022138 0.13207357 0.2633136 -0.98728865 -0.49086377 0.5465346 1.0127841 -0.5601566 -0.67545223 -0.13761461 -0.42434227 0.641927 0.2936965 0.79551715 -0.23568197 0.5866781 -0.05483128 -0.36028898 -0.58231086 0.9063038 0.468009 -0.3832448 0.39930424 0.70433706 0.19307669 1.0585387 -0.3322437 -0.36614338 -0.5052354 -0.24673544 -0.43113714 -0.30605516 0.33777797 0.35804018 -0.8182396 -0.053087674 0.0054755653 -0.23291677 -0.4965135 -0.9871605 0.51255876 -0.75983053 -0.12486083 -0.4413087 -0.5571738 0.61079407 0.5332758 -0.02107851 -0.3404124 0.7488558 -0.1746666
4 -1.1670834 -0.09811098 0.27978197 0.5465229 0.64409494 -0.21889289 0.24645755 -0.45496428 0.87299037 -0.28545296 0.44051513 0.25961548 0.35158998 0.13963951 -0.24976914 -0.4199915 -0.43761337 -0.43089825 0.11978185 0.9339839 0.14181879 -0.29065266 0.42096364 -0.0013864343 0.19940749 0.15458289 0.38217944 0.5243638 0.49149522 -0.24084336 0.10730623 -0.4977713 0.09617445 0.3346623 0.0032843256 0.44365975 0.28754115 -0.20214339 0.62129974 0.09427624 -0.04514902 0.017851923 0.21812665 0.10253395 -0.3361645 -0.384275 0.29833028 -0.31610152 -0.8613766 0.95031923 0.955148 0.09710288 -0.42427358 -0.5684646 0.4075011 -0.3481504 -0.09572326 0.078459255 0.44208446 0.7659543 -0.8501178 0.552591 -0.16723175 -0.19544269
242 -0.81325513 -0.46139595 -0.45054078 -0.048885584 -0.08671768 -0.85861677 -0.10871499 -0.39613393 0.28513974 -0.67577034 -0.13371064 -0.02112486 -0.036615662 0.24292058 -0.44997278 -0.35998803 -0.8898932 -0.06841146 -0.51786417 0.5636184 0.15644045 -0.6649117 -0.12152872 -0.13208127 0.47881562 -0.21821079 0.09206164 0.6257489 0.4065946 0.24809186 -0.5382372 -0.5037126 0.52960557 0.46523324 0.42129365 -0.17289951 -0.07339361 -0.5152876 -0.092051715 -0.28257814 0.20151131 0.61820954 -0.28969246 -0.6005921 -0.2031119 -0.03917414 -0.04590383 -0.41937026 -0.98403233 0.10872019 0.8280422 -0.2620971 -0.57244265 -0.02824861 -0.107222445 0.47738612 0.4377559 0.0502198 -0.14373235 0.6177076 -0.27039585 -0.25633118 -0.18595795 0.50348175
104 -0.19440301 -0.3842766 0.2857833 0.5273782 -0.558081 -0.18265648 0.9583213 0.06258581 0.05053484 -0.59973896 0.6054265 -0.10376512 0.27610454 0.04711556 -0.30590725 -0.28750125 0.2392385 -0.41246274 -2.1313639 1.2364767 0.852886 -0.15348858 0.5820053 -0.16052923 0.20519574 -0.6005146 0.40982118 -0.53635484 0.27862737 0.15193406 -0.043794867 -1.3497721 0.41500548 0.1686535 -0.975712 1.4216149 -0.3148533 0.28884158 -0.16635317 -0.23987591 0.7593075 -0.74230295 -0.32893595 0.008479986 0.6532147 0.007259845 -0.03745562 -1.3805836 -0.39028847 0.056498222 0.008112999 0.7615395 -0.61741614 -0.84931237 -0.017916381 -0.10374061 -1.2872288 -0.5124177 -0.014692444 -0.32812887 0.45041353 -0.520641 -0.046380453 0.10338005
208 -0.13852564 0.19774239 0.1336031 -0.067651816 -0.59539115 -1.2875005 0.14217484 -0.74951255 0.07392481 -0.40418306 1.4594146 -0.011653205 -0.5883928 0.9022488 0.36907578 0.31837204 -0.99954045 -0.3623823 0.46673447 1.0077189 -0.49095756 -0.58989954 -0.35895506 -0.3855663 0.8078882 0.38061598 0.78478014 -0.40761545 0.5908325 -0.09034208 -0.19990435 -0.6293518 0.89469063 0.356637 0.06795287 0.028969182 0.63598686 0.26814955 1.0419748 -0.3008697 -0.2677569 -0.76739895 -0.27333802 -0.74083817 -0.20688365 0.24501686 0.3397424 -0.540736 0.03874252 0.27173123 -0.3212692 -0.2913256 -1.064365 0.2770636 -0.8207155 -0.12324575 -0.5037277 -0.551693 0.8534623 0.43564415 -0.06185639 -0.43374968 0.2642868 -0.11208804
73 -0.76235074 -0.48473722 -0.6220792 -0.22976202 -1.0247573 -1.5481185 0.62326664 0.4657239 1.5329021 0.21872886 -0.8085964 -0.10091381 0.4800918 -0.02986511 0.0012441789 -0.7462801 -1.656215 0.12530966 -0.5549309 0.54094374 -0.21208079 0.26016128 0.5343895 -0.13437937 0.9523057 0.3834603 -0.010751151 -0.0847248 0.4325841 -0.17013994 -0.21189529 0.26756233 0.366848 -0.2044876 0.45605272 0.91777253 -0.12600781 0.24614212 -0.14835872 0.19653566 0.49917194 0.20560867 1.1124076 0.039050892 -0.33828706 0.607853 -0.113657504 -0.94942296 -0.56256604 0.9001627 -0.006109505 -0.5766939 -0.5750698 -0.338748 0.019064082 0.009024657 0.07956944 -0.14575055 -0.082441166 1.4901143 0.0793638 0.37489393 0.34130272 0.3100792
113 -0.2796365 -0.20267522 0.15554364 -0.48638135 0.17711128 0.24232024 0.8067497 -0.6444226 0.521261 -0.21287817 0.826259 -0.008989897 0.25692788 0.15416354 -0.8123996 -0.49920657 -0.9359161 -0.9582652 0.1640754 -0.09515681 -0.59011656 0.34719557 0.8997847 -1.4413031 0.5552604 -0.15715346 -0.02464117 0.52971774 -0.17568474 -0.22181346 0.19574551 -1.0405747 0.46860495 -0.6804525 0.09582056 0.14513545 0.29784077 -0.8154784 0.4868033 -0.48583934 0.15668033 -0.7513061 -0.08696441 -0.56130743 0.8624526 0.3037171 -0.47628686 -0.44218656 -0.49510565 0.5210798 0.71195185 0.07788958 0.17287786 0.751719 0.85530394 -0.13684568 -0.7440934 -0.34104285 -0.2598049 0.4845256 0.32800916 -0.70856386 0.45358002 0.2613394
182 -0.21110854 -0.27297777 0.011065187 -0.64528286 -0.32838428 -0.4814834 -0.022220755 0.44924402 0.5420517 0.06340238 0.6402996 -0.055809688 -0.7361127 -0.020131536 0.4131248 0.026397767 -0.1493584 -0.4238578 -1.1470723 0.18415062 0.57722354 -0.58078474 1.0051003 -0.63390297 -0.1238889 0.32075235 0.70872325 0.70504314 -0.50997174 -0.106520794 0.34947705 -1.0424219 0.4611224 0.016255919 -0.61421514 1.4986755 0.14103648 -0.18699223 0.85306567 0.19416206 -0.38116568 -0.2611828 0.027490292 -0.65160704 0.36911184 -0.5907308 0.33114943 0.34856743 -0.78120303 -0.26269242 -0.49399883 -0.5036755 -0.4027581 0.1682641 -0.21123686 0.2361084 -0.1004442 -0.07645009 0.50744134 0.7788955 -0.033973806 0.28831947 -0.12579939 0.6571195
260 -1.2846731 -0.9658098 1.6551012 0.53986216 1.5304527 -1.3708544 3.2115042 1.9484867 0.4819644 -3.442307 -0.34968442 -0.04146124 -0.6501475 -0.6928973 0.49052602 -0.558825 -0.38896418 2.0062983 -0.67695457 0.794477 0.4034 -3.268521 3.33778 -0.84695894 0.98631644 -0.95818615 0.17543645 -0.05035269 3.0995111 -0.82608736 -0.35614038 -0.8281924 0.77864695 0.6878403 -0.4665669 1.4718614 -0.4045984 -1.3022562 -0.40828133 -0.3035095 1.4442352 -2.1763947 1.9429516 1.4809806 -1.0655628 -0.58415616 -2.7270472 -1.009917 -0.6760713 -2.2145178 0.09558717 0.2079251 0.4935226 0.16809258 -0.59961605 -0.8121594 -2.052664 0.93601424 -0.03253922 -0.29213586 0.8064425 -0.08869001 -2.12828 0.78744686
105 -0.1765416 0.11785517 0.74151 0.12188461 0.01531672 -0.6903232 -0.12211387 0.00090097677 0.6881276 -1.1859186 0.39118612 0.6099245 -0.70978916 -0.65734106 0.2740748 -0.6586506 -0.8842975 -0.06505616 -0.35009438 1.0305979 -0.40679464 -0.75170064 0.0032210664 -0.7373877 -0.013868966 0.4813348 0.08344564 -0.4789526 0.35899666 -0.47747406 -0.4180937 -1.0381714 0.06926152 0.27242735 -0.4852497 -0.3868345 -0.24492246 0.915306 -0.32150787 0.0865973 0.3575396 -0.36885223 0.5746479 -1.0657492 -0.7254441 -0.085978255 0.7065553 0.17569579 -0.08234861 0.02304494 0.36500368 -0.18862581 -1.1298215 0.1079725 -0.06848425 0.86769056 0.6445131 -0.1232943 -0.33722922 0.37805307 -0.3607764 -0.6098902 0.5367501 -0.26223856
85 -0.84186053 -0.1668534 -0.1121728 0.0071038078 0.17686002 -0.39324084 -0.13438372 -0.806257 0.64444673 -0.76594746 0.7419333 0.26766202 0.2178513 0.21898139 -0.6617952 0.019216824 -0.55601823 -0.3038388 -0.21107887 0.92328775 0.14938499 -0.09094861 0.5497472 0.010271339 0.06758536 -0.054967914 0.32000697 0.15735026 0.79118264 -0.74936664 -0.0035838573 -0.25248322 -0.27523345 0.21496738 -0.15316296 0.40894708 -0.1267904 -0.27935767 0.64617395 0.65935653 0.16608706 0.097164534 -0.122470096 0.12492536 0.37595418 0.013639241 0.52471423 -0.43981442 -1.1851048 0.681933 1.2947446 -0.12946956 -0.25308973 -0.5238907 0.28982067 0.10491383 0.46580926 -0.44877702 0.071491465 0.54903036 -0.52601355 0.420374 -0.7228213 0.0500874
26 -0.19539163 -0.27962223 -0.190203 -0.47309017 -0.37996268 -0.28451595 -0.059507176 0.39397478 0.49897084 -0.03323366 0.8556273 -0.006243183 -0.53354895 -0.009122456 0.67899865 -0.16626854 -0.1458165 -0.44992936 -1.2169489 0.6207797 0.38909003 -0.69808286 0.7553453 -0.7552106 0.1667115 0.47648293 0.48509187 0.7847852 -0.6897572 -0.19127558 0.3392975 -1.23355 0.44416422 -0.06739077 -1.0599545 1.4193925 0.1257929 -0.45801863 0.8663135 0.257899 -0.43519932 -0.43641952 0.18636768 -0.6233207 0.26656237 -0.6455604 0.087817766 0.26081488 -0.77233773 -0.2757991 -0.58012605 -0.29761803 -0.3925872 0.045812316 0.08397058 0.14516965 0.14645389 0.08360476 0.58585113 0.9069353 -0.12226469 0.13911463 -0.08811099 0.5369912
17 -0.19682275 -0.2710315 0.17177504 -0.2928444 0.84791327 -0.11024451 1.0828325 -0.6017441 0.21787834 -0.32802778 0.8071716 -0.0010479861 0.007653245 0.4193308 -1.0056607 -0.37578768 -0.8882369 -0.97390467 0.08896767 0.12969862 -0.7943839 0.3653894 0.41285473 -1.5850158 0.3146243 0.26297644 -0.026240876 0.74507475 -0.17643417 0.089330606 0.03195731 -0.6449563 0.6658896 -0.5493249 -0.041079395 0.54230446 -0.08792016 -0.82574654 0.5133554 -0.5484759 0.31042424 -0.9092374 -0.21175458 -0.59263855 0.61265373 -0.010553518 -0.48361373 -0.07845984 -0.16520922 0.6827488 1.1277821 0.00757447 0.19160432 1.006361 0.49454123 -0.30946892 -0.5139305 -0.22333229 0.060573354 0.86171234 0.346482 -0.7132945 0.59210455 -0.19444388
136 -0.3690365 -0.6106668 -0.05745513 -0.27684194 -0.663685 -0.39037097 1.075189 -0.11539009 0.8646681 -1.2735895 -0.5808241 -0.18799403 0.9280135 0.31937853 0.02901161 -0.6452473 -0.46767795 -0.78001416 -0.4946254 1.0718358 0.1208761 -0.6049141 1.1690444 -0.7902572 0.022689672 -0.008401062 0.1829688 -0.16101009 0.28673816 0.3721949 -1.0100955 0.24909209 -0.35092306 0.04773619 0.025532216 0.36156473 -0.3156005 -0.1664165 0.95966107 -0.7699557 -0.7740398 -0.41415036 0.40017167 0.042832106 -0.64809394 -0.41485822 -0.9591338 -1.117383 -0.037123773 0.3165868 -0.48007396 0.7108495 -0.16074823 0.30148906 -0.49464646 0.78326076 -0.43068433 -0.11991681 0.63195264 0.94412166 0.22243029 -1.4400074 -1.1192842 1.3471599
89 -0.549478 -0.55882823 0.071760684 -0.11465759 -0.40511224 -1.0256401 0.6951571 -0.5902896 0.5166052 -0.9271944 0.09968773 0.3174833 0.5101656 -0.46416366 -0.11342088 -0.47502273 -0.3555463 -0.4974477 -0.36123937 0.9130468 0.97248006 -0.44303775 1.1218754 -0.3322394 -0.20042254 0.5321405 -0.21636121 -0.38593522 0.3774767 0.3445949 -0.64290154 -0.34324646 0.3928097 -0.70195466 0.62055063 0.10975271 0.05484878 0.55739206 0.86191046 0.011679414 -0.71203727 0.038002286 0.68606 -0.5214172 0.5611216 -0.6106122 -0.5610771 -0.7132046 0.2757419 0.44715047 -0.409623 1.0315397 -0.35300642 0.24586703 -0.7321527 1.3357211 -0.7761254 -0.6172327 -0.4886846 1.0129542 0.35024202 -0.7192285 -0.22311467 0.6750627
198 -1.2310796 -0.005725066 0.3390357 0.053353507 0.4027107 0.037626162 0.6318952 -0.2747349 1.5077641 -0.5388293 0.44306046 0.423682 0.32038426 0.33240673 0.032234672 -0.576731 -0.47543463 -0.53554386 -0.10461664 0.24143355 0.27828777 -0.34388953 0.4871007 0.08498154 0.52666754 0.28757712 0.2692021 -0.20987982 0.28005755 -0.066573426 0.18340807 -0.5366743 0.23815195 0.35341248 0.008919757 0.7386478 0.2259087 -0.5518722 0.69378275 0.5517461 0.035771895 -0.2723916 0.31348565 0.46270713 -0.3116796 0.25259104 0.203932 -0.5690769 -1.2549227 0.47730485 1.0957783 0.3288249 -0.3963842 -0.5474024 0.03723478 0.27148443 -0.3193434 0.19190396 0.33676434 0.21644178 -1.1260642 0.2934636 -0.34480995 -0.18833585
160 -1.3002053 -0.018866269 -0.9251626 0.4067359 -0.18115388 -0.5207774 1.1545513 0.69959795 1.3368754 0.069831066 0.25763908 -0.298766 -0.5773177 -0.535498 0.08382698 -0.8829168 -1.4646055 0.62169194 -1.6660628 0.8899038 -0.2424025 -0.33618486 0.6773386 -0.22514454 -0.5219561 -0.5360876 -0.010212733 0.15596582 1.9763312 -0.38072452 0.61099994 -1.4230894 0.12861305 -0.04412502 0.49935818 1.8561305 -0.28363866 -0.47798723 0.231138 -0.1958505 0.53274876 -0.70651054 0.20656966 0.49181858 0.18738964 0.08115461 -0.40391642 -1.1653649 -0.20598081 0.38791704 -0.544951 0.5731468 -0.4075453 0.5565369 0.73694813 -0.5683586 0.08146223 -0.010351677 -0.566425 0.65443695 -0.14313571 0.14581142 0.4401451 0.13393624
54 0.054920066 0.13982229 -0.4213771 -0.3484974 -0.43378878 -1.4532728 -0.22255263 -0.74402356 -0.22527172 -0.92196566 1.295739 -0.01815857 -0.26226497 0.40630546 -0.105712816 0.0036018854 -0.48934677 -0.73486614 -0.49509594 -0.11143578 0.3221815 -0.055005856 0.4345937 -1.3741027 1.4648049 0.2547153 0.9622258 0.22884232 -0.5509358 0.1506194 -0.37277427 -0.47646692 0.7194578 0.041756224 0.40599677 -0.31026995 0.5259582 0.9296988 1.3979282 0.13380533 -0.08847144 -0.64454275 -0.29648542 -0.2268193 -0.19826537 0.43247962 -0.2921106 -0.26703897 0.04862738 0.08163696 -0.5120197 0.2689183 -0.73580354 0.15467192 0.82211465 0.3633404 -0.5814059 -0.26131913 -0.2210717 -0.17675844 0.087361224 -0.080155924 0.49593022 -0.2175624
256 -1.2590421 0.01258225 0.23868535 -0.11343634 0.43006885 -1.3229741 0.6572276 0.37603188 -0.92650676 -0.41618866 0.97239906 0.33123752 0.64197224 -0.27480325 -0.0400921 -1.889266 -1.1193918 0.35029146 -0.23275593 0.23709834 0.617689 -0.72086185 1.1397928 -0.17700733 0.76694787 1.4896258 -0.51586884 -0.26786035 -0.31124252 0.062560566 0.25826734 0.0071172565 0.1681985 -0.29105902 -0.3428355 0.84654045 0.9867959 0.21278423 -0.6123059 -0.6638779 1.1378405 -1.5723829 -0.38254404 0.4490825 -0.39461687 -0.73523796 -1.0133429 -1.3088058 -0.6482744 0.40495685 0.7934585 0.07353127 -0.58099574 0.26090863 -0.04291712 0.6737181 0.4448917 -0.60268307 -0.8316409 0.41918153 -0.056474935 -0.54793227 -0.15958261 -0.4190102
230 0.03262832 0.55129 -0.35788172 -0.6095073 -0.22861731 -1.4153099 0.08346749 -0.8468146 -0.10557579 -0.8368908 1.4404187 0.11574228 -0.30979666 0.30111787 0.22025347 0.30209655 -0.6016918 -0.969521 -0.1788531 0.7326979 0.14388692 -0.41148332 0.0019050111 -1.0320543 1.075323 0.38678703 1.13246 0.6143417 0.18132278 0.28844607 0.24284261 -0.7870756 0.16644576 0.5234808 0.1458912 0.13209455 0.9353078 0.24784678 0.99180275 0.24219128 -0.28307515 -0.48097807 -0.18234472 -0.42681164 -0.3660673 0.101827756 0.17321515 -0.15161037 -0.2136422 0.42546394 -0.2857678 -0.28172538 -0.945914 0.5431862 0.020168275 -0.20515443 -0.03792891 -0.11543652 -0.29528946 -0.05160364 0.19148846 0.04992333 0.57799006 0.14813507
2 -0.42211318 -0.2633707 0.9675957 0.30729848 -0.15445793 -0.48264483 -0.04849052 0.16661632 0.9181511 -1.1077445 0.7602227 0.3850419 -0.59422547 -0.52389175 0.27650267 -0.65803266 -0.769709 -0.016529495 -0.09636963 0.9747888 -0.37239075 -0.7825775 0.098370306 -0.83225894 -0.032463573 0.7631158 -0.2688431 -0.550171 0.41161498 -0.7230221 -0.5340595 -0.9218767 0.33802783 -0.009026517 -0.5312728 -0.5806124 -0.5852675 0.98196244 -0.29322654 0.09096015 0.48113474 -0.5341121 0.5544018 -1.6071272 -0.4711565 -0.2095594 0.26215848 0.0117296 0.042438783 0.0923217 0.48248494 -0.4386451 -1.1276218 0.17074497 -0.09360443 0.76494014 0.45748952 -0.15326692 -0.34547317 0.47575927 -0.33656117 -0.47276813 0.44634625 -0.19081402
35 -0.52982134 -0.07887347 -0.3222607 0.20207587 0.103240795 -1.5646126 0.5608023 -0.86530656 1.0506034 -0.48096815 0.48014006 0.6999419 -0.19253123 -0.45725417 0.1779195 -0.49500078 -1.5126424 -0.006801602 -1.1045089 1.6921881 1.1930068 0.15276527 2.0601995 -0.42944893 0.9134381 0.5401397 -0.9843135 0.1757969 -0.22489664 0.5524526 -0.09391686 0.2944398 -0.0049625398 0.9940748 0.16987872 0.74160767 -0.39313054 0.18997747 0.26212925 -0.3964476 -0.18909112 -0.53253615 -0.06628511 0.65388924 0.6621894 0.3375343 -0.4175634 -0.948866 -0.5570571 0.13609293 -0.4177886 -0.24851649 0.19141197 0.34098992 0.23872228 -0.7693534 0.013850885 0.49725318 0.4516271 0.25291103 0.60575473 -1.7047682 0.03064417 0.023380373
165 0.308193 0.03710918 -0.566802 0.6053874 -0.3275713 -1.0156643 -0.53734136 -0.1359808 -0.32603332 -0.3904625 -0.21170917 1.3700287 0.08999744 0.66895074 -0.40819755 -0.42061868 -0.9360124 0.13440531 -0.6073363 1.1378276 -0.49323493 -0.55701995 -0.6362764 -1.53254 0.19029965 -0.25678334 0.11205 0.98263246 0.6114479 -0.08374756 -0.38355187 -1.1506749 0.3914629 0.10118374 0.5660023 -0.32236156 -0.29807803 -0.14624882 0.36870402 0.1593559 -0.22204268 -0.6994255 -0.44556078 -0.26138675 -0.6336215 0.0014692476 0.34689778 -0.13840196 -1.5762297 0.3955967 0.89012295 -0.58769006 -0.0027627929 0.4310829 -0.31960082 -0.19721758 0.17127225 -1.0418797 0.11719921 0.8545074 -0.796752 0.13665017 0.24636526 -1.4154992
233 -1.3590372 -0.55299854 0.112021394 0.25922513 0.015419747 -2.0380554 0.65251195 -0.48271683 0.51670176 0.27918762 -0.2770668 -0.08453537 0.4545645 -0.36094487 1.0230187 -0.055219818 -0.64994353 -1.0638595 -1.436487 0.7035675 -0.011461761 -0.94568205 0.99378467 -1.8301439 0.067883946 0.10695636 -0.41334665 -0.49202377 0.9420674 0.1346239 -1.454753 -0.13227825 1.0385652 0.8323355 0.4107866 0.75223416 0.25196815 -0.4828203 -0.13371101 0.62018716 0.6214156 -0.6233225 0.2228961 0.76036614 0.8459574 -0.1620215 1.3339584 -0.72062373 -0.1957874 0.44471163 -0.5392481 -0.030236142 -0.4130497 -0.20695992 0.17752883 -0.32358783 0.10112679 -0.18589929 -0.22535628 -0.62241715 0.23281015 0.51469207 -1.0052978 0.37222028
227 -0.18938187 0.16411486 -0.26704794 0.0057754405 0.09715681 -0.35481766 0.8278215 -0.6244746 0.39234236 -0.33458117 -0.43998682 0.5398613 -0.229628 -0.2793322 0.28231767 -0.21951582 -1.5229274 0.180167 -1.5183917 1.985489 1.6153126 -0.091441885 1.3433886 -0.32401925 0.10563763 0.3961132 0.41439456 -0.60995924 -0.018023765 0.35773468 -0.39535347 0.08158934 0.35021508 1.2463782 0.08416807 1.3044621 0.71887004 -0.14247392 1.0340166 -0.067400195 0.016231857 -0.33238155 0.15860753 -0.30588847 0.72298527 -0.1657662 0.2703121 -0.89904785 -0.29966363 -0.0033871063 0.42119783 0.5386279 0.16886947 0.59812087 0.49199387 -0.0010211641 -0.19746828 0.3340407 -0.51714486 0.052212533 0.84333503 -1.9950616 0.63158315 -0.120878235
24 -1.8359942 -0.50396055 0.42802215 -0.1238693 0.6124157 -1.1596401 1.3964528 0.15278006 1.1809523 -0.81508136 0.07667705 -0.3628203 0.2124031 -0.40422335 0.22777572 -0.86149436 -0.67544204 -0.13534205 -0.8034393 0.86940217 -0.22515269 -0.37101933 1.480225 0.248321 0.47702748 0.7772732 0.26610857 0.010329876 1.276475 0.3022178 -0.13197786 -0.5012713 0.19811003 0.22717796 -0.44288713 1.0030203 -0.22692905 -1.141155 0.49931338 0.41363645 0.11882867 -0.7767324 0.74364674 0.7026124 -0.34834126 0.117654815 0.6744141 -0.40392232 -1.6743319 -0.11654688 0.48436353 0.81324464 -0.64285296 -0.75395745 1.215835 -0.20095159 -0.48855096 0.33907405 0.34167287 -0.107201554 0.27043325 0.5355092 -0.6704681 0.9359717
15 -0.72066396 -0.63129663 -0.4620291 0.6590745 -0.7202644 -0.94201833 0.004528775 -0.17132418 0.628162 -0.6026416 0.05877592 0.64007336 0.07857718 -0.5514476 -1.3762941 -0.34823462 -0.09569836 -0.6591855 -0.3210232 0.065444626 -0.5562123 -0.5425133 0.28217268 0.40594777 0.38410762 -0.07639031 -0.21554793 0.2858955 -0.4260597 -0.5104658 -0.78180856 -0.65721095 0.041331984 0.29155368 0.36796978 0.5647436 0.3693933 0.26105005 -0.5006165 -0.089579694 -0.28424603 -0.33259666 -1.1896211 -0.9889878 -0.3335458 -0.95877695 0.39560595 -0.60490024 0.14881104 0.17801464 0.8157378 0.08100769 -0.4507513 -0.13034257 0.039022844 1.001305 0.16764903 0.44913477 -1.0086292 0.100754224 -1.2287127 -0.5763938 -0.1664257 -0.09105467
70 0.22421324 0.10680742 -0.71336675 0.42771286 -0.22305517 -1.0085412 -0.45893294 -0.25886518 -0.3093965 -0.40389785 -0.19598754 1.4227208 0.1713331 0.7091097 -0.43214738 -0.45697075 -1.0755142 0.013760165 -0.6451121 1.1651771 -0.28901294 -0.5016255 -0.50552624 -1.474793 0.14782621 -0.28907531 0.092419766 0.96963435 0.6371154 0.08784613 -0.22576313 -1.0425949 0.36873764 0.2252435 0.3218647 -0.4061552 -0.15610497 -0.153313 0.17834428 0.23381177 -0.31543523 -0.480691 -0.33670315 -0.109596215 -0.52870655 -0.19575746 0.38041335 -0.15922113 -1.4906822 0.5525559 0.72596973 -0.44185334 -0.10335124 0.33387125 -0.22254178 -0.0515069 0.011927182 -0.8953308 -0.11555311 0.8133746 -0.6804328 -0.27162862 0.19982028 -1.302387
193 -0.9631084 -0.27182898 -0.7721663 0.7532905 -0.6207911 -0.40268898 1.1804131 0.79151684 1.0119374 -0.02802666 0.34195796 -0.3683334 -0.94915926 -0.580426 0.21098526 -0.7771006 -1.4903874 0.76715946 -1.881028 1.2152866 -0.16232963 -0.33074045 0.6268041 -0.371869 -0.5790559 -0.98236656 -0.11641479 0.46213526 2.0698063 -0.37358359 0.51954484 -1.0392425 0.409966 -0.40290746 0.12375459 2.1119535 -0.13103338 -0.5836578 0.60734814 -0.34746894 0.5542698 -0.78653115 0.15090623 0.3568982 0.15233059 0.041076776 -0.030427882 -0.6347399 -0.710463 0.679467 -0.33294576 0.49676812 -0.54455686 0.31091425 0.92847025 -0.31835607 0.13015616 0.37690306 -0.7668827 0.24174719 0.2595308 0.14193507 0.15598558 0.13302147
154 -0.5579284 -0.28178188 -0.09047546 0.76970756 -0.418471 -1.2188106 0.66470706 -0.73144376 0.9775057 -0.6416245 -0.05881958 -0.102211684 -0.31223914 -0.25704995 0.4579992 -0.057537206 -1.6397463 0.891738 -0.6453725 0.40295056 -0.30633324 -1.2371361 1.6424923 -0.15229473 0.4266835 -0.34854525 -0.4955688 0.14828306 1.1727433 0.11680884 -0.6037656 -0.7704514 -1.0641406 -0.38862485 -0.30447176 1.0062083 0.7552965 -1.0208431 0.23950267 -0.17205058 1.01099 -1.1737354 0.8130559 -0.8172672 0.2951865 0.029993521 -1.213199 -0.1960906 -0.2882128 0.22083953 -0.90495056 -0.3574966 -1.0527425 -0.7934791 -0.036001537 -0.82671046 -0.6866375 -0.49159515 0.8034588 0.73354137 1.0784334 -0.5950475 -1.010607 0.61328435
28 -0.55969614 -0.70143026 0.1727129 -0.11280704 0.18991014 -1.1561415 0.30630958 -1.0016993 0.28607446 -0.93869936 0.28726828 -0.038590677 -0.57400954 -0.5260434 -0.43982887 -0.5042458 -0.64533275 -0.06899384 -0.78953123 -0.23004545 0.025015634 -0.083972745 0.7535182 -1.0908818 0.78201103 0.052360937 -0.6543578 0.23250557 0.2800623 0.46167865 0.22841774 -0.88535374 0.031790998 0.38500205 -0.46285957 0.35692012 0.89138454 0.488691 -1.1602609 0.5195235 0.80468845 -0.11963603 0.28557572 -0.31691062 -0.4368879 -0.16392675 -0.017245779 -0.4213209 -1.0808791 0.74463457 0.9027523 -0.31636178 -1.01427 -0.5569184 0.244879 1.1204692 0.560479 0.9872979 -0.31830662 0.09169993 -0.024885494 -0.4985536 0.9413033 -0.32239395
259 -0.31464404 -0.6428661 -0.78622 -1.8893067 -0.5602424 -1.0648898 1.9678621 -1.079889 2.0061796 -3.6601498 -1.3793274 -3.6137948 -0.0089952145 -0.23422074 -0.3636487 -0.97831225 -1.3314693 0.1856215 -3.0659232 1.7836102 0.2212305 -1.149579 2.0212965 -0.7213967 -0.4471026 -0.47734326 0.45191312 -2.8427992 4.3621807 1.9435388 -0.095421515 -0.41921952 -0.09321441 -1.4387249 1.3144411 2.6133664 1.4224658 -3.3883975 0.15160471 -2.285466 1.3375723 -3.7124832 -2.0552764 1.7486609 0.49895298 0.39130732 1.7324909 0.32171622 -1.4655637 -1.519835 1.6618844 -1.4762342 -1.9473557 -0.39724162 -1.4512885 -2.1415489 1.3222619 0.26353332 -0.57187355 -3.744465 1.2171634 1.4394855 0.6678151 -0.575259
132 -0.31074145 -0.57420415 -0.3680915 0.5626242 0.13916564 -0.4046423 1.0023371 -0.17246175 0.42461708 0.16631 0.9935994 0.33172962 -0.6529339 -0.0768785 0.24946052 -0.00022331243 -1.2310812 -0.3426879 -0.028553592 0.8518754 -0.21786742 -0.56105006 -0.09832441 -0.8758412 0.25902644 -0.08413334 0.76173353 -0.03036369 -0.10068364 -0.69560975 -0.29650536 -0.5914222 1.0782055 0.019367246 -0.97469467 -0.5743296 0.096751556 -0.06356488 0.4206599 0.0779239 -0.4224303 -0.7207317 0.6122272 -0.7185869 0.13265315 0.10700951 -0.2920418 -0.5771845 0.2399303 0.24794315 0.008342785 0.17293854 -0.7168612 -0.30931967 -1.0290334 0.2031451 0.101714335 -1.4406908 1.4553645 0.24269979 0.0472434 -0.58157444 0.5077996 -0.044779696
215 -0.025891665 -0.7275775 0.69155216 0.15642165 -0.3413515 -0.4071844 1.2530096 0.06660756 0.059176985 0.17464001 0.5390206 0.2616705 -0.13743357 -0.26803994 -0.3823491 -0.2619305 0.17131282 -0.8007056 -0.4873334 1.0065647 -0.371159 -0.45743212 0.76803577 -0.43734553 -0.4640967 0.048083633 0.3997639 -0.012540067 0.117970265 -0.43620083 -1.1862677 -0.85755116 1.2379732 0.5033353 -0.045994516 -0.22569619 -0.0501981 -0.601463 1.0174001 0.77239984 -0.5700842 -0.9849117 0.0734488 -0.5124364 -0.9524269 -1.2737234 -0.3691576 -0.41740745 0.08784099 0.55210656 0.3049769 -0.03422866 -0.2287374 -0.17639059 -0.67124206 0.30085734 -0.31555697 -1.7773453 0.20569956 0.29410702 -0.52099013 -0.62449425 0.6539477 -1.5441257
234 -0.9018651 -0.81794554 0.7438359 -0.6172578 0.08090542 -1.877525 1.0164093 -0.75473 -0.6445387 0.021826824 -0.29817826 1.1671306 0.3928789 0.5533126 0.015038233 -0.62498623 -0.43319473 -0.9061497 -1.0385275 1.0906123 0.5729158 0.47131795 1.0350072 -0.100816965 0.59396434 0.7675609 1.0017964 -0.7616966 0.1529433 0.072951265 0.22651865 -0.64880085 0.07539447 0.72182107 0.05150952 1.0529127 -0.3320617 -0.6510849 -0.118406914 0.6728812 -0.17742752 -0.0070877606 -0.4260626 0.39554638 -0.17989962 -0.06359024 -0.038901795 -0.88056 -0.3896163 -1.0116005 0.8078113 -0.56293005 -0.6504266 -0.60467666 -1.519982 -1.1747041 -0.29492554 -1.0068316 -0.32773766 1.1220008 0.22488162 -0.6800491 0.7372345 0.59593934
214 -0.80491024 0.47636974 -0.8447869 -0.52564454 0.37271062 -1.4528548 0.59935594 0.8979528 -0.10295765 -0.47420835 1.0912534 0.7934773 -0.29517028 0.22470336 0.2493645 -0.25488612 -2.0710857 0.27457613 -0.52484816 1.4190365 0.26168948 0.088651426 0.88850033 -0.40037516 0.12281042 -0.25935337 0.8946568 0.0943336 -0.2276431 0.03812659 -0.4210909 -0.33282378 0.49285164 -0.4604008 0.2865401 -0.04239218 0.96170694 -0.6121048 0.105184056 -0.14339022 0.2400084 -0.3581511 -0.56699866 -0.39163467 -0.36434513 -0.13362354 0.25917482 -1.589595 -1.2991314 -0.19358028 -0.52288777 0.92996347 0.03095854 -0.34282666 -0.97723705 -1.4304749 -0.033802252 -0.6331645 0.7781124 0.9026671 -0.571174 0.004450046 0.16764186 -0.08808074
64 -0.40965325 -0.2577045 0.37952793 -0.9630569 0.07658862 0.36787912 0.40261498 -1.139586 0.59452474 -0.60009533 0.78351164 0.23292048 0.49566564 0.7567488 -0.7212962 -0.85649055 -1.1419721 -0.58204204 0.08010958 -0.04838819 -0.75155777 0.099301755 0.62622297 -1.4296501 -0.28756827 -0.26083514 -0.36592814 0.7803219 -0.24597643 -0.5971436 0.20689827 -0.79097605 1.2112789 -0.7718627 0.47797224 0.4213502 0.3124973 -0.8519993 0.9716792 -0.60819584 0.08043607 -1.0618058 0.2530751 -0.53477216 0.8053763 0.26102626 -0.24040094 0.029103871 -0.26514113 0.22438061 0.86470246 -0.1500221 0.08884601 0.68259966 0.25213194 0.33074266 -0.11715933 -0.59437704 -0.20131105 0.29138273 0.3061342 -0.54958725 -0.05939922 -0.01774674
23 -0.8472716 -0.24634822 0.07098651 0.53574 0.30999047 -0.4642201 -0.34456214 -0.8309256 0.21464646 -0.7159984 0.7022347 -0.36539 0.39025345 -0.051974777 -0.9917298 -0.43881306 -0.21879287 -0.72444665 -0.23991013 1.0451452 -0.08476361 -0.1797109 0.7558526 -0.2989147 -0.13166595 -0.0068890266 0.017112 0.52439284 0.38247755 -0.66424054 -0.20957874 -0.24227771 -0.22528885 -0.020855466 -0.50403893 0.38724443 0.10119864 -0.037642136 0.8717274 0.17913868 -0.8129212 0.5399241 -0.6498165 -0.5328137 -0.071490005 0.21887006 0.06532816 -0.95000243 -1.4034317 0.07994541 1.522813 0.100670345 0.027148418 -0.112870105 0.13314794 0.0029178422 -0.45025614 -0.9441303 0.58800113 0.13991897 -0.7482829 0.4343039 -0.0910679 -0.27930662
244 -0.8342663 -0.52393997 1.593294 -0.16940981 1.5472782 -1.368464 2.8522518 1.3015965 0.84672296 -2.9307642 -0.81815803 0.062123287 -0.07689189 -0.39330122 0.98508424 -0.86979663 0.33962 1.8565606 -0.33218312 1.572331 -0.018153807 -2.5325832 2.4905365 -0.84890866 2.1261342 -0.8615338 -0.75792336 0.47019792 3.361557 -0.04895961 0.035777677 -0.078609794 0.68467003 0.70317006 -0.63272893 1.9526732 0.1431251 -0.98528904 0.3595344 -0.4786405 1.6033734 -1.7955363 1.7385205 1.0822707 -0.9446388 -0.6998952 -2.1560917 -0.7136794 -0.5929111 -1.8547148 0.48376966 0.13249646 -0.67876065 -0.7907776 -1.170586 -0.064111516 -1.8252373 0.5832693 -1.0642765 -0.55489606 1.0998714 1.042463 -1.7117647 0.77594733
140 -0.64524245 -1.3343709 -0.33922526 -0.07904989 -0.4194731 -1.589192 1.1101074 -0.2672409 -0.09972969 -0.20078446 -0.15082324 -0.16555819 0.18991974 0.16573896 -0.0031177525 -1.4696134 0.023858808 -0.5985501 -0.15825838 0.9083118 0.54860467 -0.36178887 0.48458487 -0.8913212 0.59359014 -0.33440435 -0.64190894 0.77172047 0.49714312 0.36608857 0.03384494 -0.64958656 0.7073399 0.52080405 0.12097572 1.0940635 -1.3114176 -0.6538296 0.3342065 0.26445314 1.4933956 -1.1610794 0.2859756 0.2337496 -0.5671915 -1.0515414 0.07736282 -1.061382 -0.38133386 -0.5088377 -0.94015414 0.4254045 -0.29083452 -0.021028986 -1.978908 -0.4585432 -0.6939772 -1.2613742 -0.134185 0.07408802 0.8808593 -0.60529524 -0.38042167 0.49386618
119 -0.34311685 -0.3998553 -0.3739907 0.59853303 -0.99380827 -1.4318141 -0.10274695 -0.20065728 0.12575477 -0.97939426 0.05279352 0.886007 0.023579422 -0.6659185 -1.1235639 -0.3243866 0.258658 -0.84848183 -0.46030566 0.28872892 -0.69442713 -0.4787795 0.6994355 0.021661459 0.6262114 0.33820403 -0.28025255 0.22750326 -0.46597373 -0.46875322 -0.63013786 -0.57096684 -0.28102133 -0.035597015 0.06437025 0.16866274 0.3556084 0.2826453 -0.5033113 0.41265476 -0.5926626 -0.7239184 -1.3590041 -0.98560405 -0.8201962 -0.7071649 0.37146917 -0.8296659 0.18941794 0.3201862 0.9613699 0.38591868 -0.6271374 0.2176482 0.8904963 1.0549381 0.49655002 0.71893466 -0.51662254 0.20866631 -0.96658874 -0.8669763 0.36905134 -0.2262899
257 -0.6393818 0.0016232298 -0.049201913 0.112656735 -0.36459056 -0.994578 0.34223172 0.13549846 0.72480243 -0.40775207 -0.7278856 0.07209902 -0.39591473 0.20251437 -0.07670709 0.16888638 -1.1566148 1.0253506 -1.5972903 1.3459321 0.7298164 0.07653557 2.3718216 -0.5881713 0.51392996 0.9337025 -0.48803672 -0.17143744 -0.33492073 0.29057613 -0.6128652 -0.24380222 0.16149792 0.60023904 0.33897042 1.1203094 -1.0221478 -0.2818786 1.8281956 -0.21969417 0.25368148 -0.2818958 0.15471105 -0.6317367 1.0934573 -1.0441707 -0.09261779 -1.4674205 -0.27721673 -0.11125826 0.096637405 0.42884886 0.21765631 0.4632367 0.32500213 -0.8580177 0.11736597 0.22940692 0.4968919 -0.35320306 0.2017489 -1.3197595 0.40919632 -0.40000486
235 -0.467585 -0.45654905 -0.06406605 0.37726036 0.12663937 0.009953924 0.96825254 -0.74652964 -0.112184584 -0.2987719 0.27197406 0.9271295 0.22394155 0.5287795 0.121141285 -0.37841055 -0.42229933 -0.5930483 -0.4654516 0.7338128 0.4173241 -0.72889 -0.2173833 -0.27510324 -0.12330047 0.55693966 -0.18305865 -0.3985209 0.18701033 -0.1833702 -1.0998003 -0.21936098 1.0205619 -0.6256069 0.07237806 0.06929906 0.2307232 0.8460323 0.59456766 0.6773751 -0.9673603 -1.0254842 -0.19921201 -0.854997 0.107138306 0.004142963 -0.7912414 -0.82925373 -1.6173542 0.14971893 0.7458563 -0.26771042 -0.48331735 0.395027 -0.119404405 -0.43229032 0.2339827 -0.64753836 0.9186585 0.79086214 -0.3112093 -0.17863965 0.6221236 -0.5792377
254 -0.3413266 -0.49135244 -0.43269882 0.301295 -0.26000094 -1.5062823 0.7899837 -1.044444 0.4327016 0.15369006 -0.06302004 1.2730597 0.35676864 -0.98346794 -0.58345824 -0.47321764 -0.35014966 -1.2263403 -0.26384193 1.1124015 -0.1566966 -0.18150574 -0.023379024 0.7646219 -0.31786376 0.14058325 0.26716983 1.2759031 -0.21125916 -0.07522849 -0.9964109 -0.18118478 0.35762486 0.40375012 0.7726073 0.63432276 0.46325204 0.12689357 0.17124309 0.8771382 -0.011239591 -0.8686706 -0.42425087 -1.594162 -0.2322175 -0.22709148 0.011833003 -0.15374562 0.13643071 0.9724257 0.26107472 -0.74184185 -0.624866 0.0315702 -0.31693175 -0.20349412 1.3521374 -1.0346478 -0.6164191 -0.28192812 -0.14276995 -0.5170805 0.2121594 -0.7196717
93 0.22537543 -0.26265684 0.093792334 0.19924818 -0.09886957 -0.58277804 0.90065026 -0.6889344 -0.15416382 -0.8034212 0.2571208 0.95885944 -0.04450716 0.8229162 0.42698768 -0.8433271 -0.97157216 -0.531862 -0.14111027 -0.27482852 -0.32881442 -0.5758182 -0.15737085 0.13492663 0.06995183 -0.15194592 0.63692576 1.0547731 -0.3429145 -0.72742504 -0.6708458 -0.393478 0.1797124 -0.5409556 -0.41431966 1.0625961 0.37575155 -0.75257933 0.39929613 -1.2432499 -0.35088643 -0.20290202 0.23697913 -0.6609664 -0.05425179 0.9023404 -0.22548565 -1.062264 -0.9384186 1.147849 0.9369807 -0.05182455 0.21739309 0.3099177 -0.3156193 -0.13126926 0.39066303 -0.3707836 0.12663618 0.18766387 -0.4690154 -1.0929682 0.5068617 -0.897664
87 -0.39663607 -0.20442286 -0.6276994 0.022489471 -0.5987376 -1.1326963 -0.09906953 -0.63430744 0.46773845 -0.527856 -0.16209908 0.56482667 -0.2902395 -0.9961723 -0.4175647 -0.21149883 0.4128576 -0.7217725 -0.24378057 1.0347885 0.12127745 -0.43395382 0.430202 0.43698484 -0.6215322 0.20262156 -0.6129442 1.4589514 -0.46895266 0.10863278 -0.81170607 -0.6230407 0.76157534 1.0082816 0.79105103 0.6202329 0.49589103 0.024248485 -0.57888794 0.10733545 -0.69823945 -0.551776 -0.5430461 -1.0767965 1.0755923 -0.20902549 0.060516104 -0.36670178 0.26571983 0.44722813 0.521308 -0.4008947 -0.5179441 0.106078155 -0.022301596 0.059589207 1.530639 -0.43904522 0.25748894 -0.047112748 -0.55289984 -0.2222038 0.09573491 -0.5841646
181 -1.1528691 -0.5373398 0.55354714 0.5274062 0.42235413 -0.30497926 0.19124405 -0.27616096 0.9100585 -0.834186 0.115501836 0.21259297 0.55233127 0.93029255 -0.2068901 -0.33783725 0.07897164 -0.3461699 -0.4831508 0.8415953 0.21516445 -0.7152265 0.72472566 -0.18055257 0.19190973 0.53230464 0.5247953 0.34094745 0.1553024 -0.006976859 0.3907395 -0.7170975 1.1731318 0.26214647 -0.15800545 0.96065605 -0.10761612 -0.032079216 1.384269 0.03008043 -0.54728734 0.2965697 0.28191355 0.5175144 -0.20986576 0.48284286 0.57970864 0.32581294 -0.47246596 0.30152357 1.0346798 0.7559728 0.092062004 -0.34412953 -0.08411989 -0.4279957 0.43396318 -0.0107414955 0.36838558 0.6851238 -0.8913608 -0.1616942 0.65758806 -0.309549
115 -0.62434953 0.27170348 0.2744039 0.67653364 0.058932096 -0.7325165 -0.17539804 -0.55805874 0.49681678 -1.1250389 0.54290384 -0.2679355 -0.7409926 -0.30865076 -0.4067804 -0.6351529 -0.83615047 -0.8581513 -0.521396 0.79071504 -1.0408634 -0.26139238 -0.40712935 -0.3341842 0.23755367 -0.08627265 -0.62676656 0.3058432 0.39887205 -0.2546931 -0.38711873 -1.0596074 0.4276927 0.42425162 0.042568136 0.038545337 0.18906116 0.7352452 -0.755798 -0.25560644 -0.46707067 -0.054467652 0.53276414 -0.95652777 0.65462 -0.17686859 -0.463248 0.0071508773 -0.5431745 -0.17365889 0.049275443 -0.7580693 -0.82593954 -0.06276753 -0.1761506 0.7216764 0.3113129 0.14573385 -0.56947225 0.51626384 -0.9006046 -0.50208545 -0.2155034 -0.37949127
47 -1.3647695 -1.4834415 0.39571956 -0.081525944 0.03860985 -1.6944246 0.7695337 0.00854218 0.8514723 -0.18126385 0.10497718 -0.12859982 0.89396626 -0.5976736 0.63869077 1.0699828 -0.53120714 0.838442 -1.5061705 1.5215994 0.5533717 -0.54703337 0.85034645 -0.7884874 1.0422798 -0.07834731 -0.53097767 0.7739608 1.654567 -0.64204466 0.53740597 -0.84165597 -0.24894798 0.95288557 1.0205427 1.584771 0.31505376 -0.18575116 0.7158421 -0.34521943 1.0525286 -0.15458003 0.34998047 0.60439426 0.85935974 0.09056358 -0.36730105 -0.3550358 0.20807162 -0.1508923 -0.027710648 0.42712024 -1.1433306 -1.1081502 1.2143803 0.265047 0.1781632 -0.80433476 -0.43634352 0.020191269 0.18181244 0.29335317 -0.9155063 -0.6764497
88 -0.99007004 -0.5925789 -0.35210463 -0.18078247 -0.38258517 -1.0048975 -0.27326116 -0.04989585 0.2420316 -0.19697094 0.09030397 0.49440807 0.61759514 0.039133664 -0.18679492 -0.16441175 -0.18859142 0.2992541 -0.33995155 0.5565734 -1.004684 -0.7091878 0.008133447 -0.26538625 0.68405104 -0.16799393 -0.57543373 1.1774161 1.0239872 -0.4503478 0.13640966 -1.0415946 1.472877 0.020734273 0.26547593 -0.16605675 -0.26734397 -0.24964008 -0.4703319 -0.061975032 0.18063173 -0.005334599 -0.31164888 0.27444568 0.17691791 -0.48700175 0.07951434 0.20521279 -1.3170646 -0.03733613 0.44137183 0.5782072 -0.22047786 -0.25831187 -0.07042459 -0.16334277 0.32954144 0.048134807 -0.25208086 1.2490687 -0.4091675 -0.77833456 -0.636639 0.21979284
78 -1.1927619 -1.135704 1.1576821 -0.9143351 -0.15216655 -0.96240425 -0.1623957 0.21652013 0.95562375 0.16989519 0.2692859 0.881079 1.8829793 -0.27295357 0.10362311 0.14491075 -1.6572148 0.84041566 -0.7327155 0.6840915 0.5014239 -0.59562373 1.1722027 -1.3161043 0.13498983 -0.32674894 -0.91354793 -0.2736271 0.3469545 -0.021063741 -0.63509744 -0.748682 -0.05604299 1.0713867 0.74231833 0.780217 0.8528015 -0.059288885 0.4480846 0.52586704 0.17095505 -0.75620425 -0.2793767 -0.4405475 -0.118441865 -0.51629555 -0.17532788 -1.9968637 0.4248466 0.5660961 0.41860008 0.5734465 -0.09200198 -0.17659846 0.5708168 -1.6506308 -0.57246846 -1.1562095 0.7610115 1.0472834 0.45242056 -0.15337496 0.554199 0.49224037
83 -0.41209194 0.026691623 -0.15425992 0.40151334 0.080172926 -0.9913834 1.0385665 -0.50979793 -0.09446915 -0.032826796 0.63233995 1.14643 0.46215788 0.15445778 -0.08037151 -0.27325416 -0.3244541 -1.0838263 -0.32191205 1.0175792 0.32593176 -0.7574994 -0.33185208 0.18554248 0.333475 0.37918404 0.32775176 0.28281164 0.35335344 0.3965333 -0.5263411 -0.53011084 0.37623614 0.115192704 0.29677948 -0.20416117 0.75105643 -0.17289709 0.40089834 0.24786487 0.22252151 -0.78647095 -0.103056245 -0.534732 0.47647262 0.17117794 -0.16739304 -0.83584505 -0.57716334 0.7525313 0.7908991 -0.20558712 -0.48478547 0.4412516 -1.1909477 0.15758093 0.55704325 -0.8695881 0.2603159 0.0410787 -0.26648924 -1.2244925 0.389258 -0.7449569
100 0.011993294 -0.39195132 -0.069337204 -0.21087936 -1.4889033 -1.2706175 0.7503944 -0.06638982 -0.93051183 -0.14239109 1.6812555 0.5875604 0.050579023 -0.113737695 0.20629387 0.10246324 0.07085984 -1.2689928 -0.103395775 -0.6922351 -0.21184318 -0.18578766 -0.038880304 -0.9707264 1.6666818 -0.2432211 0.5621029 -0.038423575 -0.32215565 0.26053283 -0.26125756 -0.92446095 1.0454588 -0.16391213 0.45666695 0.031591836 0.96960974 0.8762166 1.0884733 0.15517075 -0.3367421 -0.5521737 -0.15286368 -0.2494034 0.0934015 0.2629291 -0.28171352 0.011830494 -0.6286127 0.35635945 0.31800506 0.4059587 -0.70758075 0.017895687 0.0016864567 0.7074217 -0.7501867 0.6425592 -0.046288867 -0.2299846 0.03380584 -0.54695576 0.95145124 -0.030164478
229 0.28273085 -0.44874266 -0.6378899 0.8076905 -0.31368306 -0.6089175 0.66354895 -0.36838412 0.79357916 -0.11706315 0.0768831 0.7167102 -0.5718853 -0.37600422 0.29757506 0.2152479 -1.0183897 -0.14547108 -0.6337227 0.83669496 -0.93737507 -0.5873363 1.3583198 -0.037164513 1.0134805 0.14004537 -0.963786 -0.06415188 1.1600066 -0.56627715 -0.63406867 -1.2012784 -0.53813684 -0.25997463 -0.40716645 1.3487318 0.9257825 -1.1110506 1.7834215 0.085025765 1.6909497 -0.78019536 0.04342669 -0.07775072 0.27284357 0.010071257 -1.3896127 -0.2610206 0.082815036 -0.00935196 -0.42551774 0.7231218 -1.6466047 -0.67899996 -0.7834485 -0.2018206 0.015368201 0.52622527 0.4162816 1.1237183 0.7454356 -1.0977455 -1.4771489 0.38482997
123 -0.347934 -0.10252178 0.40752533 0.28532273 -0.04011086 -1.1007683 -0.29883885 -0.38033408 0.5039847 -0.8103451 0.4471519 0.16546252 -0.5333336 -0.26520035 0.33824906 -0.91136736 -0.53534234 0.15029714 -0.73468757 0.42906505 -0.45057094 -0.47910565 -0.59043133 -0.5230458 -0.07568963 0.73332274 -0.6011369 -0.110393494 0.5429875 -0.42024043 -0.4294707 -0.9327838 0.20740761 0.068871014 -0.03911815 -0.28572762 -0.09602868 1.0943842 0.57696915 0.55851185 -0.54541844 -0.40999237 0.25339657 -1.2117895 0.18286286 0.2724485 0.85472846 0.009607131 -0.5762817 0.10078232 -0.24231285 -0.615998 -0.94670063 0.04290173 -0.4591706 1.1268817 0.13712732 -0.42254138 -0.031264234 0.33711237 -0.622292 -0.5849392 0.54267776 -0.740021
25 -0.13587435 -0.012026176 0.28939983 0.5322149 -0.37668905 -0.6011444 1.2626152 -0.7319482 0.58499587 0.15093248 0.8823457 0.2828038 0.08898858 0.43868664 -0.1815302 -0.6743581 -1.352007 -1.1245209 -0.7543008 -0.25546432 -0.46853518 0.22722413 -0.2408101 -0.48419386 0.6353611 0.32704875 0.73409134 -0.077462584 -0.17841114 -0.13636 -0.7103811 -0.3251702 -0.44366556 0.6243155 -0.7159187 0.9363544 -0.20847405 -0.2104656 1.3679113 0.6156577 0.6341012 -0.49834958 0.37614405 -0.749376 0.55888206 -0.4098592 -0.6177826 0.08532483 0.13456795 0.24759264 0.33238274 -0.8127188 -0.019767726 -0.01685199 -0.03221528 -0.0992318 0.22312066 -0.3535498 0.51460034 0.28800035 -1.0037134 -1.6840757 0.4140852 -0.73030204
224 -1.3240972 -0.8308312 0.47216377 0.06262053 -0.8662428 -1.9999248 -0.47914279 0.26298618 0.08892471 0.070828244 -0.47123757 0.14240658 0.5710287 -0.9409164 1.5772171 -0.6345337 -0.8439703 -0.9448204 -1.7401209 0.4568832 0.6660258 -1.2321527 0.78763485 -0.68710214 1.0626124 1.4452757 0.81487465 -0.12292535 0.007399017 -0.6468982 -1.3675251 -0.4594985 0.009635271 0.9729523 0.024103446 -0.29568687 -0.1821713 -1.0454624 0.5082008 0.037947092 -0.56175435 0.07741536 0.63138515 0.85545206 0.4140312 0.08630705 0.77316827 -2.084434 -1.3927668 0.6178249 -0.5153518 0.65027004 -0.51625526 -0.27876893 0.6664535 0.54411316 -0.01351889 -0.41273862 -0.0013372788 -0.65508205 0.06928975 -0.057705928 -0.6184642 -0.11871433
222 -0.0074015507 0.15516217 0.18961233 0.23818514 0.29826304 -1.2244135 0.73328185 -0.061371814 0.23028396 -0.34903732 0.10142868 0.95843047 -0.25619748 0.2576678 -0.34930038 -0.5091976 -0.79791814 -0.55798954 -0.043607425 0.7653648 0.069573626 -1.4268742 -0.4905243 -0.31714705 -0.23591171 0.8949549 -0.26518276 0.46246064 0.18025054 -0.077560365 -1.0147686 -0.36903086 0.028962834 -0.42035988 0.0823864 0.31910765 0.6857731 0.74110633 0.66315913 -0.22189346 0.0522162 -0.7377467 -0.68057734 -0.5239697 0.7841972 -0.072383635 0.30340374 -1.113313 -0.2981069 0.22156885 0.18110475 -0.15831621 -0.5168604 -0.046206012 -0.052009042 -0.4449967 -0.41538405 -0.8785603 0.20384912 0.53045094 -0.44836384 -0.7155508 0.389224 -1.440653
232 0.44092023 0.18771373 -0.48248276 -0.63955575 1.1387362 -0.9003704 -0.05960428 -0.31772515 0.16837496 -2.0432987 -0.5371989 -0.47165886 -0.45893347 0.7997633 -0.7094421 -0.8446182 -0.23063067 -0.17930926 -0.81371856 1.2650164 0.7467241 -1.2168485 -0.6839034 -0.4628665 0.009992391 -0.17560253 -0.77320206 0.23161116 0.14915061 -0.14883032 -0.7736884 0.37774253 0.43473682 0.699382 -0.3545909 0.12790483 0.6145942 0.039373145 2.185661 0.44225013 -0.17948633 0.63900787 0.44746754 -0.17268501 0.98928213 -0.018316546 -0.09301803 -0.50629735 -1.4018247 -1.7494925 1.2435166 0.12646964 -0.57213086 -0.3930513 0.05242146 -0.09269786 -0.45965645 -1.0708318 0.8561616 1.0222749 0.5156472 -0.4164908 -0.2184187 0.33737725
139 0.40031892 -0.75511634 1.1343746 -0.12669195 -0.67048705 -2.6752975 0.33307502 -0.38010362 0.09215232 -0.4882507 -0.06294842 1.0015815 0.020043455 -0.13247964 0.12815244 -1.0999632 -0.396347 -0.9068008 -0.5901934 1.3224621 0.5023825 -0.2979026 1.1636198 -0.28654763 0.7174039 -0.24727833 0.2910161 -0.2595767 0.8456429 0.49225107 -0.19974202 -0.55477446 -0.20092276 -0.09295859 -0.13658534 0.84186524 0.17564858 -0.54972947 -0.19623333 -0.55875653 0.42196918 -0.79226404 0.5986171 -0.12520465 0.319931 0.11757011 1.3382522 -0.8998945 -0.6571577 0.8993465 -0.10150389 -0.6034933 -0.8973139 -0.83876395 -0.35019416 -1.2316576 -0.1267247 -0.4984338 0.19053718 -0.094484024 1.7522529 0.014619946 0.24984746 0.34636137
14 -1.2377776 -0.25257185 0.15396716 1.1185321 -0.8210168 -0.6614173 -0.17777057 0.26027235 0.37794963 -0.3586298 -1.3311163 0.04801044 -0.12751256 -0.2454003 0.43682048 -0.6931169 -1.0873826 0.14644524 -0.24567883 0.32493263 0.116733864 -0.22059095 0.6597744 -0.71888053 0.37373814 0.091067 0.22447242 0.32886344 0.06662737 -0.8127438 -0.84972847 -0.82076776 0.039646085 0.3461727 0.3039104 -0.23851497 -0.41473868 -0.57123506 0.30715808 0.09786428 -0.38751858 -0.116429165 -0.119345166 -0.18908265 -0.023278292 0.19488357 0.35022593 -0.3768502 -0.41749415 -0.018615546 1.1220522 -0.11092025 -0.8317157 0.4295968 0.31272513 1.1294982 0.28269753 -0.54735667 -0.2589732 -0.27947247 -0.094375186 -0.21917894 0.14335708 0.3012912
223 -0.28456324 0.5826814 -0.9037253 0.82691944 -0.2708479 -1.7307552 0.9779023 -0.44410548 1.2423625 -0.2081972 0.056121573 0.6275336 0.29939806 1.0509763 -0.38175976 -0.02326716 -0.7536349 -1.1854895 -0.68108183 -0.0327891 0.49179062 0.33214048 0.64835924 -0.51544017 -0.6081916 0.41046238 0.5081964 -0.52769023 0.09207966 -0.4386854 0.056234907 0.12441373 0.37725422 0.36631864 0.05949891 0.80018485 0.19795984 -0.09383327 1.0198187 1.043555 0.2534341 -0.8170206 -0.60881656 -0.67854214 0.5655189 -0.046174966 -0.8128268 -0.005192045 0.38384923 0.44740197 0.908038 -0.05539751 -0.18776041 0.19759259 -0.11139704 0.0056849346 0.580105 -1.3128282 0.07707788 0.7538717 -1.0223869 -1.170608 0.48769546 -0.80389327
122 -0.047881108 -0.075406976 0.5876493 0.61580884 0.4051792 -0.8532874 0.8363108 -0.66851926 0.4429566 -0.5837506 0.5701543 0.22951959 -0.39659178 -0.033059336 0.13089073 -0.33901876 -1.168778 -0.19697905 -0.17943609 0.25542822 -0.24938595 0.42548588 0.25864744 -0.6271193 0.08812644 0.26907212 0.24687006 0.12829286 0.4427661 0.3538283 -0.25955537 -1.0300372 -0.43186867 0.09540246 -0.048319977 0.63830906 1.4319427 -0.09193814 0.22671677 1.1450511 -0.24040453 -0.3846827 -0.7563901 -0.5471987 1.2517577 -0.10731619 -0.06291938 -0.9294447 0.43876705 0.06090006 0.9364933 -0.3937755 -0.3061687 -0.35615757 -0.75254756 -0.23737484 -0.44501486 -0.46997827 0.5901913 0.34788385 -0.8848509 -1.8398888 0.032651246 -1.4108038
103 -0.49554253 -0.73250264 -0.15604661 0.29774368 -0.25725427 -1.2673517 0.41450354 -1.0166575 0.3406688 -0.31325555 -0.4504438 1.0736191 0.2026509 -0.69897527 -0.051207025 -0.36751717 -0.70910966 -1.2855146 -0.3346561 1.1949385 -0.5269586 -0.10960036 0.34110114 0.43972224 0.047313895 0.3579822 0.70391434 1.0389531 -0.3460674 -0.49941874 -0.75829184 -0.06340272 0.26302293 0.15180929 0.4566576 0.33026066 0.19797686 -0.06383444 0.4220143 0.8713619 -0.17505871 -0.9280755 -0.592595 -1.692401 -0.029920818 -0.47242126 0.24165618 -0.13140783 0.39439794 0.8771022 0.6039387 -0.39722335 -0.24478799 0.3784948 -0.35257357 -0.31151557 1.1423311 -1.0806679 -0.56660795 -0.14915778 -0.52229613 -0.42026448 0.21039799 -0.541297
159 -0.025406973 -0.18880296 -0.7912121 0.012228062 -1.643171 -0.18431492 -0.054369837 0.56893283 0.032145843 -0.2117454 0.90881354 -0.4942845 -0.1939762 0.103989266 0.7417444 -0.031443585 -0.9295224 -0.2690161 -1.1890126 0.54977727 -0.16619398 -0.025198363 -0.15642172 -1.5888194 0.5231649 -0.14442745 -0.00044760658 -0.018387279 0.7258206 -0.72533107 -0.7959514 -0.34116295 0.05536176 0.41943285 -0.471987 -0.30381325 0.11550469 -1.3478564 0.3450412 -0.04222426 0.12479315 0.19779974 -0.38163808 0.027756535 0.28239742 0.3319439 0.60633636 -0.6094423 -1.188702 0.078692436 -0.49481457 -0.9580586 -0.6692241 0.5140062 0.4451266 1.5818509 -0.21114382 -0.40041262 0.50358844 -0.63053656 0.2023674 -0.85174656 -1.2957734 -0.8846401
21 -0.18274002 -0.08445345 0.48891315 -0.06278036 0.33530593 0.012794985 0.9690653 -1.0591496 0.11284798 -0.111238025 0.6931007 -0.124987625 -0.5577574 0.43698245 -0.97202057 -1.2852865 -0.55310893 -0.90896803 -0.660331 0.13758361 -1.0514022 0.16403015 -0.37476635 -1.7281007 0.41676658 0.6351768 0.14040928 0.76856905 -0.09081723 -0.48323506 0.13934979 -0.82704854 -0.38858998 -0.8987585 -0.41133618 0.360919 0.0069761095 -0.3834016 0.44628227 0.13284934 -0.71349597 -0.39834347 0.16201347 -1.6787715 0.20831735 -0.21689934 0.021635683 -0.013171561 -0.28389022 0.30955428 1.09505 -0.2852653 0.3407515 0.8858402 -0.20809138 -0.34792262 -0.6597061 -0.15466733 0.12364479 0.60030514 0.21011302 -0.8950888 0.6803206 -0.2683818
38 -0.55934834 0.13485134 -0.13920265 -0.35355353 -0.56943935 -0.7521118 0.83439386 0.15731196 -0.3742058 0.17917861 1.3790193 0.9265596 -0.5861306 0.20068538 -0.019537032 0.09905911 -1.4305216 -0.5174427 -0.05791527 0.10602714 0.25352177 0.09418371 0.27668202 -1.0347728 0.816615 -0.11953784 0.075736456 0.46583238 -0.65855914 -1.659821 -0.5083085 -0.5975756 0.4266349 0.045069505 -1.4300736 -1.1963611 0.8881441 -0.010064307 0.5849498 0.60941803 -0.48654962 -0.3214444 0.27609143 -0.90940017 0.3069796 -0.6376604 0.56964046 -0.42925286 -0.5450295 0.25166488 -0.51755476 -0.35306627 -0.7501573 0.010341146 -0.11741036 0.22062139 -0.29209018 -1.013658 0.7539719 0.7049355 0.96476525 -0.49657494 0.50869423 0.5522047
252 -0.38705954 0.5123433 -0.6944189 -0.68389326 0.061839323 -1.5119579 0.24003278 0.14187695 -0.009386854 -0.036335636 1.0737116 0.9107693 -0.23451865 -0.068208866 0.44572502 -0.039531697 -0.87233555 -0.24956986 -0.63986856 1.1672395 0.2757718 -0.3803822 0.37090656 -0.2972615 -0.35096836 0.027938878 -0.08024671 0.8687315 0.18437625 -0.37206164 -0.35218245 -0.73699236 0.36920553 -0.2780294 0.3146063 -0.21284963 0.58607346 -0.45255977 0.4265419 0.18348107 -0.42562068 0.110311486 -1.0492502 -0.961325 -0.30757308 0.23730285 0.73545986 -1.4643034 -1.1915153 0.267698 -0.0064515867 -0.2674347 -0.1126858 0.14039308 -1.4730171 -0.64012766 -0.32786268 -1.2395861 0.030968582 0.3563804 -0.3449993 -0.12960514 -0.030432131 -0.4900277
196 -0.45148033 -1.2640777 0.7079087 -0.24476717 -0.6191265 -0.42221326 0.84192014 1.3942736 0.04944838 0.14888157 -0.1755643 0.06582229 -0.73190093 0.036697056 0.2528619 -0.58966386 -1.3784572 0.30464348 -0.77241963 0.58460975 1.1894218 0.15836287 0.83040696 -0.3272227 -0.4239648 0.23838532 0.42609274 0.29904616 0.31202865 -0.30527154 -0.9186929 -1.1053002 -0.8038016 0.0013747868 -0.68255484 1.7813598 -1.3120477 -0.37834686 1.6432217 0.6822482 0.47942635 -1.3083873 -1.502357 0.4827914 -0.3106795 -0.39835614 0.09827816 -0.69553316 -0.41919723 0.055199645 -0.19502825 0.02504758 -0.27562356 0.4809973 -0.3779011 0.2204241 -0.100874215 -1.2676274 0.5623052 1.0596353 0.4285895 0.7036113 0.5196087 1.3849058
138 -0.10749712 -0.060199644 0.16844976 -0.4966001 -0.9714264 -1.383025 0.7564905 0.2121335 0.6337752 -0.7171422 -0.56376266 -0.2868767 -0.19633919 0.33504778 0.4485323 -1.1764853 -2.0411336 1.7110289 -0.81440985 1.9267637 0.19005826 -0.73987335 1.1404754 -0.5915814 1.1610539 0.44707477 0.363159 0.33885014 1.1761085 -0.6058398 -0.24855962 0.076928474 -0.4219432 -0.36146167 -0.26424268 0.34528348 1.0509956 0.43571365 -0.15551487 -0.20547403 -0.27669448 -0.30680466 0.1336883 0.6465212 1.0528332 -0.6574764 -0.018596085 -0.84735173 -0.5819811 -0.35877758 1.0474118 -1.4408616 -0.63493735 0.0069626328 -0.5154931 0.7717638 -0.3624352 -0.50481457 0.16442084 0.09019488 0.80011284 -0.10981882 -1.4070948 0.7925321
40 -0.8005149 -0.51495373 -0.67823726 -0.41152394 0.50405043 -0.8826659 0.7392542 0.15110612 0.41616556 -1.6761143 -0.40915343 -0.1196804 -0.84081364 -0.020796033 -0.054526716 -0.5134547 -2.2523642 -1.1915 -0.8720779 1.4215952 0.04812089 0.8922833 0.33132523 -0.31509554 -0.8961911 0.011579031 -0.17702001 0.39612758 0.23038353 -0.7837078 0.031930197 -0.64289117 0.735139 -0.099769995 0.017882654 0.29460093 1.0320264 -0.99290484 0.16591166 0.45204374 -1.8332189 0.41873354 -0.6682261 -1.1301467 -0.22325203 -0.36534306 -0.009682382 -0.35918975 -0.059377793 1.0027932 -0.07135469 0.096323304 0.28954145 -0.22839724 -1.1441598 -0.8987588 -1.077435 -0.8300511 1.0291295 0.38148135 -0.69979036 -0.7234297 -0.8407178 -1.5713061
110 -0.9093711 -0.5282302 1.0275092 -0.30998653 -0.45103925 -1.1628991 1.703199 -0.11395784 1.3284264 -1.5363683 -0.06915665 -0.682313 0.012675279 -1.0609245 -0.31884497 -0.8071512 -0.8636907 -1.0416574 0.09336678 0.87208396 1.0670578 -0.9472989 0.10285437 -1.6731467 2.1347544 -1.1093477 -1.4667177 -0.032970626 0.16797034 -0.65119654 0.13235712 -0.3353308 -0.6883784 1.3441662 -0.41273755 1.469912 0.99460566 -0.09534745 -0.6890403 0.05663795 -0.09521787 -0.7047075 -0.53833944 -0.591884 -0.24272308 -1.0119821 -1.6679167 -0.4318654 -0.95622736 0.64725095 -0.51043844 1.0255827 -1.0663612 0.18899535 0.9212184 -0.59310156 -0.5720166 -0.46452525 -0.18262218 1.2300698 1.3455529 -0.8143388 0.58897746 0.54231524
